<?xml version="1.0" encoding="UTF-8" standalone="yes"?>
<PMML xmlns="http://www.dmg.org/PMML-4_4" xmlns:data="http://jpmml.org/jpmml-model/InlineTable" version="4.4">
	<Header>
		<Application name="SkLearn2PMML package" version="0.95.0"/>
		<Timestamp>2023-07-21T22:22:12Z</Timestamp>
	</Header>
	<DataDictionary>
		<DataField name="y" optype="continuous" dataType="double"/>
		<DataField name="timeslot" optype="categorical" dataType="string">
			<Value value="Afternoon"/>
			<Value value="Evening"/>
			<Value value="Late Night"/>
			<Value value="Morning"/>
		</DataField>
		<DataField name="x1" optype="continuous" dataType="double"/>
		<DataField name="x2" optype="continuous" dataType="double"/>
		<DataField name="x3" optype="continuous" dataType="double"/>
		<DataField name="x4" optype="continuous" dataType="double"/>
		<DataField name="x5" optype="continuous" dataType="double"/>
		<DataField name="x6" optype="continuous" dataType="double"/>
		<DataField name="x7" optype="continuous" dataType="double"/>
		<DataField name="x8" optype="continuous" dataType="double"/>
	</DataDictionary>
	<MiningModel functionName="regression" algorithmName="XGBoost (GBTree)" x-mathContext="float">
		<MiningSchema>
			<MiningField name="y" usageType="target"/>
			<MiningField name="timeslot" invalidValueTreatment="asIs"/>
			<MiningField name="x1"/>
			<MiningField name="x2"/>
			<MiningField name="x3"/>
			<MiningField name="x4"/>
			<MiningField name="x5"/>
			<MiningField name="x6"/>
			<MiningField name="x7"/>
			<MiningField name="x8"/>
		</MiningSchema>
		<Targets>
			<Target field="y" rescaleConstant="0.5"/>
		</Targets>
		<LocalTransformations>
			<DerivedField name="float(x1)" optype="continuous" dataType="float">
				<FieldRef field="x1"/>
			</DerivedField>
			<DerivedField name="float(x2)" optype="continuous" dataType="float">
				<FieldRef field="x2"/>
			</DerivedField>
			<DerivedField name="float(x3)" optype="continuous" dataType="float">
				<FieldRef field="x3"/>
			</DerivedField>
			<DerivedField name="float(x4)" optype="continuous" dataType="float">
				<FieldRef field="x4"/>
			</DerivedField>
			<DerivedField name="float(x5)" optype="continuous" dataType="float">
				<FieldRef field="x5"/>
			</DerivedField>
			<DerivedField name="float(x6)" optype="continuous" dataType="float">
				<FieldRef field="x6"/>
			</DerivedField>
			<DerivedField name="float(x7)" optype="continuous" dataType="float">
				<FieldRef field="x7"/>
			</DerivedField>
			<DerivedField name="float(x8)" optype="continuous" dataType="float">
				<FieldRef field="x8"/>
			</DerivedField>
		</LocalTransformations>
		<Segmentation multipleModelMethod="sum" missingPredictionTreatment="returnMissing">
			<Segment id="1">
				<True/>
				<TreeModel functionName="regression" noTrueChildStrategy="returnLastPrediction" x-mathContext="float">
					<MiningSchema>
						<MiningField name="timeslot"/>
						<MiningField name="float(x2)"/>
						<MiningField name="float(x3)"/>
						<MiningField name="float(x4)"/>
						<MiningField name="float(x5)"/>
						<MiningField name="float(x6)"/>
						<MiningField name="float(x7)"/>
						<MiningField name="float(x8)"/>
					</MiningSchema>
					<Node score="13.13125">
						<True/>
						<Node score="44.077232">
							<SimplePredicate field="float(x8)" operator="greaterOrEqual" value="7.5"/>
							<Node score="8.55">
								<SimplePredicate field="float(x5)" operator="greaterOrEqual" value="4.5"/>
								<Node score="35.76628">
									<SimplePredicate field="float(x8)" operator="greaterOrEqual" value="9.5"/>
									<Node score="31.479809">
										<SimplePredicate field="float(x5)" operator="greaterOrEqual" value="5.5"/>
										<Node score="28.403849">
											<SimplePredicate field="timeslot" operator="equal" value="Late Night"/>
											<Node score="17.757692">
												<SimplePredicate field="float(x8)" operator="greaterOrEqual" value="22.5"/>
											</Node>
										</Node>
										<Node score="43.096996">
											<SimplePredicate field="float(x7)" operator="greaterOrEqual" value="1.5"/>
										</Node>
									</Node>
									<Node score="54.230465">
										<SimplePredicate field="float(x7)" operator="greaterOrEqual" value="1.5"/>
										<Node score="40.678677">
											<SimplePredicate field="timeslot" operator="equal" value="Morning"/>
										</Node>
									</Node>
									<Node score="13.45">
										<SimplePredicate field="float(x6)" operator="greaterOrEqual" value="25.5"/>
									</Node>
								</Node>
								<Node score="11.475">
									<SimplePredicate field="float(x8)" operator="greaterOrEqual" value="8.5"/>
									<Node score="24.708088">
										<SimplePredicate field="float(x7)" operator="greaterOrEqual" value="1.5"/>
									</Node>
								</Node>
								<Node score="17.931429">
									<SimplePredicate field="float(x7)" operator="greaterOrEqual" value="1.5"/>
									<Node score="13.605883">
										<SimplePredicate field="float(x5)" operator="greaterOrEqual" value="5.5"/>
									</Node>
								</Node>
								<Node score="1.2">
									<SimplePredicate field="float(x2)" operator="greaterOrEqual" value="1.125"/>
								</Node>
							</Node>
							<Node score="19.757143">
								<SimplePredicate field="timeslot" operator="equal" value="Late Night"/>
								<Node score="7.65">
									<SimplePredicate field="float(x5)" operator="greaterOrEqual" value="1.5"/>
									<Node score="52.305004">
										<SimplePredicate field="float(x7)" operator="greaterOrEqual" value="1.5"/>
										<Node score="43.37257">
											<SimplePredicate field="float(x8)" operator="greaterOrEqual" value="22.5"/>
										</Node>
									</Node>
									<Node score="28.4475">
										<SimplePredicate field="float(x4)" operator="greaterOrEqual" value="1.55"/>
									</Node>
								</Node>
								<Node score="10.183333">
									<SimplePredicate field="float(x8)" operator="greaterOrEqual" value="22.5"/>
									<Node score="25.019567">
										<SimplePredicate field="float(x7)" operator="greaterOrEqual" value="1.5"/>
									</Node>
								</Node>
								<Node score="39.81081">
									<SimplePredicate field="float(x7)" operator="greaterOrEqual" value="1.5"/>
								</Node>
							</Node>
							<Node score="48.039333">
								<SimplePredicate field="float(x7)" operator="greaterOrEqual" value="1.5"/>
								<Node score="56.33502">
									<SimplePredicate field="float(x8)" operator="greaterOrEqual" value="12.5"/>
									<Node score="65.84692">
										<SimplePredicate field="float(x5)" operator="greaterOrEqual" value="0.5"/>
									</Node>
								</Node>
								<Node score="57.708565">
									<SimplePredicate field="float(x8)" operator="greaterOrEqual" value="8.5"/>
								</Node>
							</Node>
							<Node score="22.02">
								<SimplePredicate field="float(x8)" operator="greaterOrEqual" value="19.5"/>
								<Node score="33.9875">
									<SimplePredicate field="float(x5)" operator="greaterOrEqual" value="0.5"/>
								</Node>
							</Node>
							<Node score="52.40469">
								<SimplePredicate field="float(x6)" operator="greaterOrEqual" value="17.5"/>
							</Node>
						</Node>
						<Node score="28.019232">
							<SimplePredicate field="float(x8)" operator="greaterOrEqual" value="6.5"/>
							<Node score="5.45">
								<SimplePredicate field="float(x5)" operator="greaterOrEqual" value="4.5"/>
								<Node score="10.234615">
									<SimplePredicate field="float(x7)" operator="greaterOrEqual" value="1.5"/>
									<Node score="8.002941">
										<SimplePredicate field="float(x5)" operator="greaterOrEqual" value="5.5"/>
									</Node>
								</Node>
								<Node score="1.35">
									<SimplePredicate field="float(x2)" operator="greaterOrEqual" value="1.025"/>
								</Node>
							</Node>
							<Node score="5.175">
								<SimplePredicate field="float(x5)" operator="greaterOrEqual" value="3.5"/>
								<Node score="27.312164">
									<SimplePredicate field="float(x3)" operator="greaterOrEqual" value="2.5"/>
								</Node>
							</Node>
							<Node score="34.462833">
								<SimplePredicate field="float(x5)" operator="greaterOrEqual" value="0.5"/>
							</Node>
						</Node>
						<Node score="11.234211">
							<SimplePredicate field="float(x8)" operator="greaterOrEqual" value="1.5"/>
							<Node score="2.3929498">
								<SimplePredicate field="timeslot" operator="equal" value="Late Night"/>
								<Node score="19.304348">
									<SimplePredicate field="float(x5)" operator="greaterOrEqual" value="4.5"/>
									<Node score="5.0607386">
										<SimplePredicate field="float(x8)" operator="greaterOrEqual" value="3.5"/>
									</Node>
								</Node>
								<Node score="4.5553694">
									<SimplePredicate field="float(x5)" operator="greaterOrEqual" value="3.5"/>
								</Node>
							</Node>
							<Node score="3.15">
								<SimplePredicate field="float(x5)" operator="greaterOrEqual" value="4.5"/>
								<Node score="5.5375004">
									<SimplePredicate field="float(x7)" operator="greaterOrEqual" value="1.5"/>
								</Node>
							</Node>
							<Node score="15.120001">
								<SimplePredicate field="float(x7)" operator="greaterOrEqual" value="1.5"/>
							</Node>
						</Node>
						<Node score="27.496876">
							<SimplePredicate field="float(x5)" operator="greaterOrEqual" value="4.5"/>
							<Node score="39.93261">
								<SimplePredicate field="float(x7)" operator="greaterOrEqual" value="1.5"/>
								<Node score="33.106155">
									<SimplePredicate field="float(x8)" operator="greaterOrEqual" value="0.5"/>
								</Node>
							</Node>
							<Node score="9.0">
								<SimplePredicate field="float(x2)" operator="greaterOrEqual" value="0.5"/>
							</Node>
						</Node>
						<Node score="26.103846">
							<SimplePredicate field="float(x5)" operator="greaterOrEqual" value="3.5"/>
							<Node score="14.336843">
								<SimplePredicate field="float(x8)" operator="greaterOrEqual" value="0.5"/>
							</Node>
						</Node>
						<Node score="6.0375004">
							<SimplePredicate field="float(x8)" operator="greaterOrEqual" value="0.5"/>
						</Node>
					</Node>
				</TreeModel>
			</Segment>
			<Segment id="2">
				<True/>
				<TreeModel functionName="regression" noTrueChildStrategy="returnLastPrediction" x-mathContext="float">
					<MiningSchema>
						<MiningField name="timeslot"/>
						<MiningField name="float(x1)"/>
						<MiningField name="float(x2)"/>
						<MiningField name="float(x3)"/>
						<MiningField name="float(x4)"/>
						<MiningField name="float(x5)"/>
						<MiningField name="float(x6)"/>
						<MiningField name="float(x7)"/>
						<MiningField name="float(x8)"/>
					</MiningSchema>
					<Node score="7.4680724">
						<True/>
						<Node score="33.589516">
							<SimplePredicate field="float(x8)" operator="greaterOrEqual" value="7.5"/>
							<Node score="7.6817617">
								<SimplePredicate field="float(x5)" operator="greaterOrEqual" value="4.5"/>
								<Node score="28.111618">
									<SimplePredicate field="float(x8)" operator="greaterOrEqual" value="10.5"/>
									<Node score="24.288876">
										<SimplePredicate field="float(x5)" operator="greaterOrEqual" value="5.5"/>
										<Node score="20.817936">
											<SimplePredicate field="float(x8)" operator="greaterOrEqual" value="20.5"/>
											<Node score="12.566983">
												<SimplePredicate field="float(x8)" operator="greaterOrEqual" value="22.5"/>
											</Node>
										</Node>
										<Node score="31.754074">
											<SimplePredicate field="float(x7)" operator="greaterOrEqual" value="1.5"/>
										</Node>
									</Node>
									<Node score="42.53697">
										<SimplePredicate field="float(x7)" operator="greaterOrEqual" value="1.5"/>
										<Node score="35.374767">
											<SimplePredicate field="float(x7)" operator="greaterOrEqual" value="4.5"/>
										</Node>
									</Node>
									<Node score="9.653297">
										<SimplePredicate field="float(x2)" operator="greaterOrEqual" value="0.15"/>
									</Node>
								</Node>
								<Node score="12.216972">
									<SimplePredicate field="float(x8)" operator="greaterOrEqual" value="8.5"/>
									<Node score="17.404669">
										<SimplePredicate field="float(x7)" operator="greaterOrEqual" value="1.5"/>
										<Node score="22.944012">
											<SimplePredicate field="float(x8)" operator="greaterOrEqual" value="9.5"/>
										</Node>
									</Node>
									<Node score="1.5981541">
										<SimplePredicate field="float(x2)" operator="greaterOrEqual" value="0.5"/>
									</Node>
								</Node>
								<Node score="11.778305">
									<SimplePredicate field="float(x7)" operator="greaterOrEqual" value="2.5"/>
									<Node score="2.9841177">
										<SimplePredicate field="float(x4)" operator="greaterOrEqual" value="5.3999996"/>
									</Node>
								</Node>
								<Node score="1.625">
									<SimplePredicate field="float(x2)" operator="greaterOrEqual" value="0.625"/>
								</Node>
							</Node>
							<Node score="14.967898">
								<SimplePredicate field="float(x8)" operator="greaterOrEqual" value="20.5"/>
								<Node score="18.866346">
									<SimplePredicate field="float(x5)" operator="greaterOrEqual" value="0.5"/>
									<Node score="37.97041">
										<SimplePredicate field="float(x7)" operator="greaterOrEqual" value="2.5"/>
										<Node score="29.207605">
											<SimplePredicate field="float(x8)" operator="greaterOrEqual" value="22.5"/>
										</Node>
									</Node>
									<Node score="27.528376">
										<SimplePredicate field="float(x5)" operator="greaterOrEqual" value="2.5"/>
									</Node>
								</Node>
								<Node score="8.590513">
									<SimplePredicate field="float(x8)" operator="greaterOrEqual" value="22.5"/>
									<Node score="14.648853">
										<SimplePredicate field="float(x1)" operator="greaterOrEqual" value="3.6"/>
									</Node>
								</Node>
								<Node score="26.011955">
									<SimplePredicate field="float(x7)" operator="greaterOrEqual" value="2.5"/>
								</Node>
							</Node>
							<Node score="29.453632">
								<SimplePredicate field="float(x8)" operator="greaterOrEqual" value="13.5"/>
								<Node score="48.589382">
									<SimplePredicate field="float(x7)" operator="greaterOrEqual" value="1.5"/>
									<Node score="42.932076">
										<SimplePredicate field="float(x7)" operator="greaterOrEqual" value="7.5"/>
									</Node>
								</Node>
								<Node score="38.193348">
									<SimplePredicate field="float(x5)" operator="greaterOrEqual" value="0.5"/>
								</Node>
							</Node>
							<Node score="27.704437">
								<SimplePredicate field="float(x5)" operator="greaterOrEqual" value="3.5"/>
								<Node score="35.04978">
									<SimplePredicate field="float(x8)" operator="greaterOrEqual" value="9.5"/>
								</Node>
							</Node>
							<Node score="42.626377">
								<SimplePredicate field="float(x5)" operator="greaterOrEqual" value="0.5"/>
							</Node>
						</Node>
						<Node score="4.3987503">
							<SimplePredicate field="float(x8)" operator="greaterOrEqual" value="6.5"/>
							<Node score="4.3637466">
								<SimplePredicate field="float(x5)" operator="greaterOrEqual" value="4.5"/>
								<Node score="1.8745589">
									<SimplePredicate field="float(x7)" operator="greaterOrEqual" value="2.5"/>
									<Node score="6.801707">
										<SimplePredicate field="float(x1)" operator="greaterOrEqual" value="-2.5"/>
									</Node>
								</Node>
								<Node score="1.1475">
									<SimplePredicate field="float(x2)" operator="greaterOrEqual" value="1.025"/>
								</Node>
							</Node>
							<Node score="23.028507">
								<SimplePredicate field="float(x7)" operator="greaterOrEqual" value="1.5"/>
							</Node>
							<Node score="17.245127">
								<SimplePredicate field="float(x3)" operator="greaterOrEqual" value="5.5"/>
							</Node>
						</Node>
						<Node score="10.709023">
							<SimplePredicate field="float(x8)" operator="greaterOrEqual" value="1.5"/>
							<Node score="1.5116659">
								<SimplePredicate field="timeslot" operator="equal" value="Late Night"/>
								<Node score="18.092558">
									<SimplePredicate field="float(x5)" operator="greaterOrEqual" value="4.5"/>
									<Node score="5.601401">
										<SimplePredicate field="float(x8)" operator="greaterOrEqual" value="2.5"/>
									</Node>
								</Node>
								<Node score="3.30247">
									<SimplePredicate field="float(x8)" operator="greaterOrEqual" value="4.5"/>
								</Node>
							</Node>
							<Node score="4.3120737">
								<SimplePredicate field="float(x5)" operator="greaterOrEqual" value="4.5"/>
								<Node score="3.0003946">
									<SimplePredicate field="float(x5)" operator="greaterOrEqual" value="5.5"/>
								</Node>
							</Node>
							<Node score="7.5883636">
								<SimplePredicate field="float(x7)" operator="greaterOrEqual" value="10.5"/>
							</Node>
						</Node>
						<Node score="12.000626">
							<SimplePredicate field="float(x5)" operator="greaterOrEqual" value="4.5"/>
							<Node score="27.566847">
								<SimplePredicate field="float(x1)" operator="greaterOrEqual" value="-9.55"/>
								<Node score="23.02384">
									<SimplePredicate field="float(x8)" operator="greaterOrEqual" value="0.5"/>
								</Node>
							</Node>
							<Node score="4.100625">
								<SimplePredicate field="float(x6)" operator="greaterOrEqual" value="23.0"/>
							</Node>
						</Node>
						<Node score="16.317142">
							<SimplePredicate field="float(x5)" operator="greaterOrEqual" value="2.5"/>
							<Node score="8.453461">
								<SimplePredicate field="float(x8)" operator="greaterOrEqual" value="0.5"/>
							</Node>
						</Node>
						<Node score="3.4589398">
							<SimplePredicate field="float(x8)" operator="greaterOrEqual" value="0.5"/>
						</Node>
					</Node>
				</TreeModel>
			</Segment>
			<Segment id="3">
				<True/>
				<TreeModel functionName="regression" noTrueChildStrategy="returnLastPrediction" x-mathContext="float">
					<MiningSchema>
						<MiningField name="timeslot"/>
						<MiningField name="float(x1)"/>
						<MiningField name="float(x2)"/>
						<MiningField name="float(x3)"/>
						<MiningField name="float(x5)"/>
						<MiningField name="float(x6)"/>
						<MiningField name="float(x7)"/>
						<MiningField name="float(x8)"/>
					</MiningSchema>
					<Node score="3.7771566">
						<True/>
						<Node score="20.017124">
							<SimplePredicate field="float(x8)" operator="greaterOrEqual" value="7.5"/>
							<Node score="9.334016">
								<SimplePredicate field="float(x5)" operator="greaterOrEqual" value="4.5"/>
								<Node score="19.624794">
									<SimplePredicate field="float(x8)" operator="greaterOrEqual" value="10.5"/>
									<Node score="22.840775">
										<SimplePredicate field="float(x5)" operator="greaterOrEqual" value="5.5"/>
										<Node score="15.5823">
											<SimplePredicate field="float(x8)" operator="greaterOrEqual" value="19.5"/>
											<Node score="8.893557">
												<SimplePredicate field="float(x8)" operator="greaterOrEqual" value="22.5"/>
											</Node>
										</Node>
										<Node score="17.0904">
											<SimplePredicate field="timeslot" operator="equal" value="Morning"/>
										</Node>
									</Node>
									<Node score="24.073912">
										<SimplePredicate field="float(x7)" operator="greaterOrEqual" value="1.5"/>
										<Node score="30.21142">
											<SimplePredicate field="timeslot" operator="equal" value="Evening"/>
										</Node>
									</Node>
									<Node score="4.4525123">
										<SimplePredicate field="float(x6)" operator="greaterOrEqual" value="25.5"/>
									</Node>
								</Node>
								<Node score="7.60772">
									<SimplePredicate field="float(x8)" operator="greaterOrEqual" value="8.5"/>
									<Node score="7.6508794">
										<SimplePredicate field="float(x5)" operator="greaterOrEqual" value="5.5"/>
										<Node score="12.191451">
											<SimplePredicate field="float(x7)" operator="greaterOrEqual" value="3.5"/>
										</Node>
									</Node>
									<Node score="16.623632">
										<SimplePredicate field="float(x7)" operator="greaterOrEqual" value="1.5"/>
									</Node>
								</Node>
								<Node score="4.2067456">
									<SimplePredicate field="float(x5)" operator="greaterOrEqual" value="5.5"/>
									<Node score="6.8533926">
										<SimplePredicate field="float(x7)" operator="greaterOrEqual" value="3.5"/>
									</Node>
								</Node>
								<Node score="1.3000001">
									<SimplePredicate field="float(x2)" operator="greaterOrEqual" value="0.625"/>
								</Node>
							</Node>
							<Node score="15.084701">
								<SimplePredicate field="timeslot" operator="equal" value="Late Night"/>
								<Node score="15.767436">
									<SimplePredicate field="float(x5)" operator="greaterOrEqual" value="2.5"/>
									<Node score="27.146948">
										<SimplePredicate field="float(x7)" operator="greaterOrEqual" value="1.5"/>
										<Node score="20.900105">
											<SimplePredicate field="float(x1)" operator="greaterOrEqual" value="24.15"/>
										</Node>
									</Node>
									<Node score="-0.5213814">
										<SimplePredicate field="float(x2)" operator="greaterOrEqual" value="1.5"/>
									</Node>
								</Node>
								<Node score="6.6582737">
									<SimplePredicate field="float(x8)" operator="greaterOrEqual" value="22.5"/>
									<Node score="13.233323">
										<SimplePredicate field="float(x1)" operator="greaterOrEqual" value="4.15"/>
									</Node>
								</Node>
								<Node score="21.697815">
									<SimplePredicate field="float(x5)" operator="greaterOrEqual" value="0.5"/>
								</Node>
							</Node>
							<Node score="26.55832">
								<SimplePredicate field="float(x7)" operator="greaterOrEqual" value="1.5"/>
								<Node score="32.67643">
									<SimplePredicate field="float(x5)" operator="greaterOrEqual" value="0.5"/>
									<Node score="26.890158">
										<SimplePredicate field="float(x5)" operator="greaterOrEqual" value="3.5"/>
									</Node>
								</Node>
								<Node score="19.968496">
									<SimplePredicate field="float(x8)" operator="greaterOrEqual" value="19.5"/>
								</Node>
							</Node>
							<Node score="15.867384">
								<SimplePredicate field="float(x6)" operator="greaterOrEqual" value="17.5"/>
								<Node score="25.93424">
									<SimplePredicate field="float(x3)" operator="greaterOrEqual" value="8.0"/>
								</Node>
							</Node>
							<Node score="9.790286">
								<SimplePredicate field="float(x8)" operator="greaterOrEqual" value="19.5"/>
							</Node>
						</Node>
						<Node score="4.9498696">
							<SimplePredicate field="float(x8)" operator="greaterOrEqual" value="6.5"/>
							<Node score="3.533526">
								<SimplePredicate field="float(x5)" operator="greaterOrEqual" value="4.5"/>
								<Node score="2.4722471">
									<SimplePredicate field="float(x5)" operator="greaterOrEqual" value="5.5"/>
									<Node score="0.9390705">
										<SimplePredicate field="float(x7)" operator="greaterOrEqual" value="3.5"/>
										<Node score="4.2967367">
											<SimplePredicate field="float(x1)" operator="greaterOrEqual" value="5.85"/>
										</Node>
									</Node>
									<Node score="0.029302884">
										<SimplePredicate field="float(x1)" operator="greaterOrEqual" value="11.65"/>
									</Node>
								</Node>
								<Node score="5.479415">
									<SimplePredicate field="float(x1)" operator="greaterOrEqual" value="0.55"/>
								</Node>
								<Node score="0.97537506">
									<SimplePredicate field="float(x2)" operator="greaterOrEqual" value="0.65"/>
								</Node>
							</Node>
							<Node score="3.7389376">
								<SimplePredicate field="float(x5)" operator="greaterOrEqual" value="3.5"/>
								<Node score="9.148349">
									<SimplePredicate field="float(x7)" operator="greaterOrEqual" value="10.5"/>
									<Node score="-2.4511008">
										<SimplePredicate field="float(x2)" operator="greaterOrEqual" value="0.75"/>
									</Node>
								</Node>
								<Node score="13.292413">
									<SimplePredicate field="float(x3)" operator="greaterOrEqual" value="2.5"/>
								</Node>
							</Node>
							<Node score="13.908361">
								<SimplePredicate field="float(x5)" operator="greaterOrEqual" value="0.5"/>
								<Node score="18.26136">
									<SimplePredicate field="float(x7)" operator="greaterOrEqual" value="2.5"/>
								</Node>
							</Node>
							<Node score="14.639297">
								<SimplePredicate field="float(x6)" operator="greaterOrEqual" value="5.5"/>
							</Node>
						</Node>
						<Node score="4.997713">
							<SimplePredicate field="float(x8)" operator="greaterOrEqual" value="1.5"/>
							<Node score="1.0815344">
								<SimplePredicate field="timeslot" operator="equal" value="Late Night"/>
								<Node score="10.0868225">
									<SimplePredicate field="float(x5)" operator="greaterOrEqual" value="4.5"/>
									<Node score="1.8835636">
										<SimplePredicate field="float(x8)" operator="greaterOrEqual" value="3.5"/>
									</Node>
								</Node>
								<Node score="2.6284876">
									<SimplePredicate field="float(x5)" operator="greaterOrEqual" value="3.5"/>
								</Node>
							</Node>
							<Node score="1.7728654">
								<SimplePredicate field="float(x5)" operator="greaterOrEqual" value="4.5"/>
								<Node score="3.0128858">
									<SimplePredicate field="float(x1)" operator="greaterOrEqual" value="8.35"/>
								</Node>
							</Node>
							<Node score="7.5235643">
								<SimplePredicate field="float(x7)" operator="greaterOrEqual" value="1.5"/>
							</Node>
						</Node>
						<Node score="1.4884944">
							<SimplePredicate field="float(x5)" operator="greaterOrEqual" value="3.5"/>
							<Node score="12.011205">
								<SimplePredicate field="float(x5)" operator="greaterOrEqual" value="4.5"/>
								<Node score="18.44034">
									<SimplePredicate field="float(x7)" operator="greaterOrEqual" value="1.5"/>
								</Node>
							</Node>
							<Node score="11.954146">
								<SimplePredicate field="float(x7)" operator="greaterOrEqual" value="1.5"/>
							</Node>
						</Node>
						<Node score="1.8177199">
							<SimplePredicate field="float(x8)" operator="greaterOrEqual" value="0.5"/>
							<Node score="3.765459">
								<SimplePredicate field="float(x5)" operator="greaterOrEqual" value="1.5"/>
							</Node>
						</Node>
						<Node score="8.495867">
							<SimplePredicate field="float(x5)" operator="greaterOrEqual" value="1.5"/>
						</Node>
					</Node>
				</TreeModel>
			</Segment>
			<Segment id="4">
				<True/>
				<TreeModel functionName="regression" noTrueChildStrategy="returnLastPrediction" x-mathContext="float">
					<MiningSchema>
						<MiningField name="timeslot"/>
						<MiningField name="float(x1)"/>
						<MiningField name="float(x2)"/>
						<MiningField name="float(x3)"/>
						<MiningField name="float(x4)"/>
						<MiningField name="float(x5)"/>
						<MiningField name="float(x6)"/>
						<MiningField name="float(x7)"/>
						<MiningField name="float(x8)"/>
					</MiningSchema>
					<Node score="-1.928792">
						<True/>
						<Node score="4.941145">
							<SimplePredicate field="float(x8)" operator="greaterOrEqual" value="8.5"/>
							<Node score="5.5732155">
								<SimplePredicate field="float(x8)" operator="greaterOrEqual" value="20.5"/>
								<Node score="3.4429276">
									<SimplePredicate field="float(x1)" operator="greaterOrEqual" value="9.7"/>
									<Node score="13.188945">
										<SimplePredicate field="float(x6)" operator="greaterOrEqual" value="2.5"/>
										<Node score="12.043178">
											<SimplePredicate field="float(x5)" operator="greaterOrEqual" value="5.5"/>
											<Node score="7.484154">
												<SimplePredicate field="float(x4)" operator="greaterOrEqual" value="2.9499998"/>
											</Node>
										</Node>
										<Node score="18.938032">
											<SimplePredicate field="float(x5)" operator="greaterOrEqual" value="1.5"/>
										</Node>
									</Node>
									<Node score="14.632964">
										<SimplePredicate field="float(x1)" operator="greaterOrEqual" value="12.5"/>
										<Node score="6.3647113">
											<SimplePredicate field="float(x1)" operator="greaterOrEqual" value="19.7"/>
										</Node>
									</Node>
									<Node score="-2.2588747">
										<SimplePredicate field="float(x2)" operator="greaterOrEqual" value="2.125"/>
									</Node>
								</Node>
								<Node score="14.3176155">
									<SimplePredicate field="float(x7)" operator="greaterOrEqual" value="1.5"/>
									<Node score="8.603571">
										<SimplePredicate field="float(x7)" operator="greaterOrEqual" value="10.5"/>
										<Node score="1.2474372">
											<SimplePredicate field="float(x1)" operator="greaterOrEqual" value="7.75"/>
										</Node>
									</Node>
									<Node score="7.556124">
										<SimplePredicate field="float(x5)" operator="greaterOrEqual" value="5.5"/>
									</Node>
								</Node>
								<Node score="1.5741395">
									<SimplePredicate field="float(x5)" operator="greaterOrEqual" value="5.5"/>
									<Node score="-2.198738">
										<SimplePredicate field="float(x1)" operator="greaterOrEqual" value="2.5"/>
									</Node>
								</Node>
								<Node score="11.862273">
									<SimplePredicate field="float(x6)" operator="greaterOrEqual" value="20.5"/>
								</Node>
							</Node>
							<Node score="11.231629">
								<SimplePredicate field="float(x5)" operator="greaterOrEqual" value="4.5"/>
								<Node score="14.118222">
									<SimplePredicate field="float(x8)" operator="greaterOrEqual" value="14.5"/>
									<Node score="17.539423">
										<SimplePredicate field="float(x5)" operator="greaterOrEqual" value="5.5"/>
										<Node score="13.083253">
											<SimplePredicate field="float(x8)" operator="greaterOrEqual" value="18.5"/>
										</Node>
									</Node>
									<Node score="21.766363">
										<SimplePredicate field="float(x6)" operator="greaterOrEqual" value="3.5"/>
									</Node>
								</Node>
								<Node score="15.274883">
									<SimplePredicate field="float(x8)" operator="greaterOrEqual" value="10.5"/>
									<Node score="10.869528">
										<SimplePredicate field="float(x1)" operator="greaterOrEqual" value="26.95"/>
									</Node>
								</Node>
								<Node score="7.861669">
									<SimplePredicate field="float(x5)" operator="greaterOrEqual" value="5.5"/>
								</Node>
							</Node>
							<Node score="21.790207">
								<SimplePredicate field="timeslot" operator="equal" value="Evening"/>
								<Node score="10.771505">
									<SimplePredicate field="float(x8)" operator="greaterOrEqual" value="19.5"/>
									<Node score="19.735764">
										<SimplePredicate field="float(x7)" operator="greaterOrEqual" value="2.5"/>
									</Node>
								</Node>
								<Node score="28.411287">
									<SimplePredicate field="float(x5)" operator="greaterOrEqual" value="0.5"/>
								</Node>
							</Node>
							<Node score="23.87206">
								<SimplePredicate field="float(x7)" operator="greaterOrEqual" value="2.5"/>
								<Node score="18.01953">
									<SimplePredicate field="float(x7)" operator="greaterOrEqual" value="6.5"/>
								</Node>
							</Node>
							<Node score="16.595917">
								<SimplePredicate field="float(x6)" operator="greaterOrEqual" value="2.5"/>
							</Node>
						</Node>
						<Node score="8.525051">
							<SimplePredicate field="float(x8)" operator="greaterOrEqual" value="6.5"/>
							<Node score="0.9979091">
								<SimplePredicate field="float(x5)" operator="greaterOrEqual" value="4.5"/>
								<Node score="6.6094913">
									<SimplePredicate field="float(x8)" operator="greaterOrEqual" value="7.5"/>
									<Node score="4.7432036">
										<SimplePredicate field="float(x5)" operator="greaterOrEqual" value="5.5"/>
										<Node score="1.3829811">
											<SimplePredicate field="float(x6)" operator="greaterOrEqual" value="27.5"/>
										</Node>
									</Node>
									<Node score="1.04">
										<SimplePredicate field="float(x2)" operator="greaterOrEqual" value="0.625"/>
									</Node>
								</Node>
								<Node score="2.784843">
									<SimplePredicate field="float(x5)" operator="greaterOrEqual" value="5.5"/>
									<Node score="0.82033837">
										<SimplePredicate field="float(x2)" operator="greaterOrEqual" value="0.275"/>
									</Node>
								</Node>
								<Node score="3.7238007">
									<SimplePredicate field="float(x1)" operator="greaterOrEqual" value="-10.55"/>
								</Node>
							</Node>
							<Node score="12.42705">
								<SimplePredicate field="float(x7)" operator="greaterOrEqual" value="10.5"/>
								<Node score="6.841944">
									<SimplePredicate field="float(x6)" operator="greaterOrEqual" value="13.0"/>
									<Node score="-4.4778714">
										<SimplePredicate field="float(x5)" operator="greaterOrEqual" value="2.5"/>
									</Node>
								</Node>
								<Node score="4.887705">
									<SimplePredicate field="float(x6)" operator="greaterOrEqual" value="10.5"/>
								</Node>
							</Node>
							<Node score="10.134542">
								<SimplePredicate field="float(x7)" operator="greaterOrEqual" value="1.5"/>
								<Node score="13.662315">
									<SimplePredicate field="float(x5)" operator="greaterOrEqual" value="0.5"/>
								</Node>
							</Node>
							<Node score="-5.9525805">
								<SimplePredicate field="float(x1)" operator="greaterOrEqual" value="4.75"/>
							</Node>
						</Node>
						<Node score="5.4677896">
							<SimplePredicate field="float(x8)" operator="greaterOrEqual" value="0.5"/>
							<Node score="1.5089241">
								<SimplePredicate field="float(x5)" operator="greaterOrEqual" value="4.5"/>
								<Node score="3.9442682">
									<SimplePredicate field="float(x8)" operator="greaterOrEqual" value="2.5"/>
									<Node score="0.74051416">
										<SimplePredicate field="float(x8)" operator="greaterOrEqual" value="4.5"/>
									</Node>
								</Node>
								<Node score="10.787701">
									<SimplePredicate field="float(x3)" operator="greaterOrEqual" value="9.0"/>
								</Node>
							</Node>
							<Node score="2.1829298">
								<SimplePredicate field="timeslot" operator="equal" value="Late Night"/>
								<Node score="0.6838627">
									<SimplePredicate field="float(x8)" operator="greaterOrEqual" value="2.5"/>
								</Node>
							</Node>
							<Node score="3.7204123">
								<SimplePredicate field="float(x5)" operator="greaterOrEqual" value="3.5"/>
							</Node>
						</Node>
						<Node score="13.91323">
							<SimplePredicate field="float(x5)" operator="greaterOrEqual" value="3.5"/>
							<Node score="-1.8487538">
								<SimplePredicate field="float(x2)" operator="greaterOrEqual" value="1.125"/>
								<Node score="5.8997498">
									<SimplePredicate field="float(x7)" operator="greaterOrEqual" value="1.5"/>
								</Node>
							</Node>
							<Node score="6.4331536">
								<SimplePredicate field="float(x1)" operator="greaterOrEqual" value="26.25"/>
							</Node>
						</Node>
						<Node score="3.4863293">
							<SimplePredicate field="float(x1)" operator="greaterOrEqual" value="5.15"/>
							<Node score="7.153119">
								<SimplePredicate field="float(x5)" operator="greaterOrEqual" value="1.5"/>
							</Node>
						</Node>
						<Node score="2.0478745">
							<SimplePredicate field="float(x7)" operator="greaterOrEqual" value="1.5"/>
						</Node>
					</Node>
				</TreeModel>
			</Segment>
			<Segment id="5">
				<True/>
				<TreeModel functionName="regression" noTrueChildStrategy="returnLastPrediction" x-mathContext="float">
					<MiningSchema>
						<MiningField name="timeslot"/>
						<MiningField name="float(x1)"/>
						<MiningField name="float(x2)"/>
						<MiningField name="float(x3)"/>
						<MiningField name="float(x4)"/>
						<MiningField name="float(x5)"/>
						<MiningField name="float(x6)"/>
						<MiningField name="float(x7)"/>
						<MiningField name="float(x8)"/>
					</MiningSchema>
					<Node score="-1.4666166">
						<True/>
						<Node score="11.4409275">
							<SimplePredicate field="float(x8)" operator="greaterOrEqual" value="8.5"/>
							<Node score="12.32767">
								<SimplePredicate field="float(x5)" operator="greaterOrEqual" value="4.5"/>
								<Node score="15.03485">
									<SimplePredicate field="float(x7)" operator="greaterOrEqual" value="1.5"/>
									<Node score="3.7676418">
										<SimplePredicate field="float(x7)" operator="greaterOrEqual" value="6.5"/>
										<Node score="4.5253296">
											<SimplePredicate field="float(x1)" operator="greaterOrEqual" value="3.6"/>
											<Node score="10.435998">
												<SimplePredicate field="float(x6)" operator="greaterOrEqual" value="3.5"/>
											</Node>
										</Node>
										<Node score="-0.61368847">
											<SimplePredicate field="float(x8)" operator="greaterOrEqual" value="10.5"/>
										</Node>
									</Node>
									<Node score="11.282449">
										<SimplePredicate field="float(x8)" operator="greaterOrEqual" value="20.5"/>
										<Node score="6.9967613">
											<SimplePredicate field="float(x4)" operator="greaterOrEqual" value="2.6999998"/>
										</Node>
									</Node>
									<Node score="9.415568">
										<SimplePredicate field="timeslot" operator="equal" value="Morning"/>
									</Node>
								</Node>
								<Node score="-0.25559652">
									<SimplePredicate field="float(x2)" operator="greaterOrEqual" value="0.125"/>
									<Node score="4.074885">
										<SimplePredicate field="float(x8)" operator="greaterOrEqual" value="15.5"/>
										<Node score="0.25099435">
											<SimplePredicate field="float(x2)" operator="greaterOrEqual" value="0.75"/>
										</Node>
									</Node>
									<Node score="-4.4530253">
										<SimplePredicate field="float(x2)" operator="greaterOrEqual" value="1.15"/>
									</Node>
								</Node>
								<Node score="-1.9830488">
									<SimplePredicate field="float(x4)" operator="greaterOrEqual" value="4.85"/>
									<Node score="2.771831">
										<SimplePredicate field="float(x8)" operator="greaterOrEqual" value="18.5"/>
									</Node>
								</Node>
								<Node score="5.7108707">
									<SimplePredicate field="float(x5)" operator="greaterOrEqual" value="5.5"/>
								</Node>
							</Node>
							<Node score="4.018867">
								<SimplePredicate field="float(x8)" operator="greaterOrEqual" value="19.5"/>
								<Node score="11.35882">
									<SimplePredicate field="float(x5)" operator="greaterOrEqual" value="1.5"/>
									<Node score="7.131371">
										<SimplePredicate field="float(x8)" operator="greaterOrEqual" value="22.5"/>
										<Node score="15.112222">
											<SimplePredicate field="float(x5)" operator="greaterOrEqual" value="3.5"/>
										</Node>
									</Node>
									<Node score="15.149567">
										<SimplePredicate field="float(x1)" operator="greaterOrEqual" value="9.7"/>
									</Node>
								</Node>
								<Node score="1.0585186">
									<SimplePredicate field="float(x8)" operator="greaterOrEqual" value="22.5"/>
									<Node score="4.6053057">
										<SimplePredicate field="float(x6)" operator="greaterOrEqual" value="7.5"/>
									</Node>
								</Node>
								<Node score="10.823856">
									<SimplePredicate field="float(x7)" operator="greaterOrEqual" value="2.5"/>
								</Node>
							</Node>
							<Node score="13.036658">
								<SimplePredicate field="timeslot" operator="equal" value="Evening"/>
								<Node score="8.58118">
									<SimplePredicate field="float(x7)" operator="greaterOrEqual" value="8.5"/>
									<Node score="16.116695">
										<SimplePredicate field="float(x1)" operator="greaterOrEqual" value="9.7"/>
									</Node>
								</Node>
								<Node score="21.603943">
									<SimplePredicate field="float(x7)" operator="greaterOrEqual" value="1.5"/>
								</Node>
							</Node>
							<Node score="11.222031">
								<SimplePredicate field="float(x5)" operator="greaterOrEqual" value="3.5"/>
								<Node score="2.4253554">
									<SimplePredicate field="float(x7)" operator="greaterOrEqual" value="10.5"/>
								</Node>
							</Node>
							<Node score="15.939704">
								<SimplePredicate field="float(x5)" operator="greaterOrEqual" value="0.5"/>
							</Node>
						</Node>
						<Node score="-1.6566476">
							<SimplePredicate field="float(x8)" operator="greaterOrEqual" value="6.5"/>
							<Node score="-1.166159">
								<SimplePredicate field="float(x5)" operator="greaterOrEqual" value="3.5"/>
								<Node score="1.7401339">
									<SimplePredicate field="float(x5)" operator="greaterOrEqual" value="4.5"/>
									<Node score="2.1679156">
										<SimplePredicate field="float(x8)" operator="greaterOrEqual" value="7.5"/>
										<Node score="4.271222">
											<SimplePredicate field="float(x7)" operator="greaterOrEqual" value="2.5"/>
										</Node>
									</Node>
									<Node score="2.689764">
										<SimplePredicate field="float(x7)" operator="greaterOrEqual" value="5.5"/>
									</Node>
								</Node>
								<Node score="4.7744365">
									<SimplePredicate field="float(x7)" operator="greaterOrEqual" value="6.5"/>
									<Node score="-4.6567764">
										<SimplePredicate field="float(x2)" operator="greaterOrEqual" value="0.125"/>
									</Node>
								</Node>
								<Node score="7.2997394">
									<SimplePredicate field="float(x3)" operator="greaterOrEqual" value="2.0"/>
								</Node>
							</Node>
							<Node score="2.3669517">
								<SimplePredicate field="float(x7)" operator="greaterOrEqual" value="8.5"/>
								<Node score="-6.6198225">
									<SimplePredicate field="float(x1)" operator="greaterOrEqual" value="23.349998"/>
								</Node>
								<Node score="7.709599">
									<SimplePredicate field="float(x1)" operator="greaterOrEqual" value="5.55"/>
								</Node>
							</Node>
							<Node score="11.256641">
								<SimplePredicate field="float(x7)" operator="greaterOrEqual" value="2.5"/>
								<Node score="4.192383">
									<SimplePredicate field="float(x6)" operator="greaterOrEqual" value="29.5"/>
								</Node>
							</Node>
							<Node score="7.357273">
								<SimplePredicate field="float(x6)" operator="greaterOrEqual" value="2.5"/>
							</Node>
						</Node>
						<Node score="2.407846">
							<SimplePredicate field="float(x8)" operator="greaterOrEqual" value="1.5"/>
							<Node score="0.28709906">
								<SimplePredicate field="timeslot" operator="equal" value="Late Night"/>
								<Node score="6.659371">
									<SimplePredicate field="float(x5)" operator="greaterOrEqual" value="4.5"/>
									<Node score="1.6259689">
										<SimplePredicate field="float(x8)" operator="greaterOrEqual" value="2.5"/>
									</Node>
								</Node>
								<Node score="1.7120873">
									<SimplePredicate field="float(x8)" operator="greaterOrEqual" value="4.5"/>
								</Node>
							</Node>
							<Node score="2.3457153">
								<SimplePredicate field="float(x5)" operator="greaterOrEqual" value="3.5"/>
								<Node score="1.1744202">
									<SimplePredicate field="float(x5)" operator="greaterOrEqual" value="5.5"/>
								</Node>
							</Node>
							<Node score="4.282429">
								<SimplePredicate field="float(x5)" operator="greaterOrEqual" value="0.5"/>
							</Node>
						</Node>
						<Node score="1.3455818">
							<SimplePredicate field="float(x5)" operator="greaterOrEqual" value="3.5"/>
							<Node score="10.115145">
								<SimplePredicate field="float(x5)" operator="greaterOrEqual" value="4.5"/>
								<Node score="5.745317">
									<SimplePredicate field="float(x1)" operator="greaterOrEqual" value="20.3"/>
								</Node>
							</Node>
							<Node score="6.924247">
								<SimplePredicate field="float(x1)" operator="greaterOrEqual" value="10.3"/>
							</Node>
						</Node>
						<Node score="1.4543992">
							<SimplePredicate field="float(x7)" operator="greaterOrEqual" value="2.5"/>
							<Node score="3.961284">
								<SimplePredicate field="float(x5)" operator="greaterOrEqual" value="1.5"/>
							</Node>
						</Node>
						<Node score="0.84912544">
							<SimplePredicate field="float(x7)" operator="greaterOrEqual" value="1.5"/>
						</Node>
					</Node>
				</TreeModel>
			</Segment>
			<Segment id="6">
				<True/>
				<TreeModel functionName="regression" noTrueChildStrategy="returnLastPrediction" x-mathContext="float">
					<MiningSchema>
						<MiningField name="timeslot"/>
						<MiningField name="float(x1)"/>
						<MiningField name="float(x3)"/>
						<MiningField name="float(x4)"/>
						<MiningField name="float(x5)"/>
						<MiningField name="float(x6)"/>
						<MiningField name="float(x7)"/>
						<MiningField name="float(x8)"/>
					</MiningSchema>
					<Node score="-1.1061448">
						<True/>
						<Node score="1.0025167">
							<SimplePredicate field="float(x8)" operator="greaterOrEqual" value="8.5"/>
							<Node score="0.43153727">
								<SimplePredicate field="float(x5)" operator="greaterOrEqual" value="5.5"/>
								<Node score="5.858993">
									<SimplePredicate field="float(x8)" operator="greaterOrEqual" value="9.5"/>
									<Node score="5.5913024">
										<SimplePredicate field="timeslot" operator="equal" value="Late Night"/>
										<Node score="6.090064">
											<SimplePredicate field="float(x1)" operator="greaterOrEqual" value="14.7"/>
											<Node score="2.2548132">
												<SimplePredicate field="float(x7)" operator="greaterOrEqual" value="7.5"/>
											</Node>
										</Node>
										<Node score="0.51493436">
											<SimplePredicate field="float(x1)" operator="greaterOrEqual" value="-2.5"/>
										</Node>
									</Node>
									<Node score="8.365931">
										<SimplePredicate field="float(x7)" operator="greaterOrEqual" value="2.5"/>
										<Node score="4.416013">
											<SimplePredicate field="float(x1)" operator="greaterOrEqual" value="26.400002"/>
										</Node>
									</Node>
									<Node score="0.5903283">
										<SimplePredicate field="float(x8)" operator="greaterOrEqual" value="18.5"/>
									</Node>
								</Node>
								<Node score="2.4627836">
									<SimplePredicate field="float(x1)" operator="greaterOrEqual" value="22.75"/>
									<Node score="-2.7690537">
										<SimplePredicate field="float(x7)" operator="greaterOrEqual" value="6.0"/>
										<Node score="-0.9203751">
											<SimplePredicate field="float(x7)" operator="greaterOrEqual" value="8.5"/>
										</Node>
									</Node>
								</Node>
								<Node score="4.1554255">
									<SimplePredicate field="float(x7)" operator="greaterOrEqual" value="3.5"/>
									<Node score="0.37555277">
										<SimplePredicate field="float(x6)" operator="greaterOrEqual" value="21.5"/>
									</Node>
								</Node>
								<Node score="-1.2319382">
									<SimplePredicate field="float(x7)" operator="greaterOrEqual" value="1.5"/>
								</Node>
							</Node>
							<Node score="12.204372">
								<SimplePredicate field="timeslot" operator="equal" value="Evening"/>
								<Node score="0.7810877">
									<SimplePredicate field="float(x8)" operator="greaterOrEqual" value="19.5"/>
									<Node score="10.509061">
										<SimplePredicate field="float(x7)" operator="greaterOrEqual" value="2.5"/>
										<Node score="7.6803236">
											<SimplePredicate field="float(x1)" operator="greaterOrEqual" value="21.400002"/>
										</Node>
									</Node>
									<Node score="6.739004">
										<SimplePredicate field="float(x6)" operator="greaterOrEqual" value="7.5"/>
									</Node>
								</Node>
								<Node score="14.514371">
									<SimplePredicate field="float(x5)" operator="greaterOrEqual" value="0.5"/>
									<Node score="8.458992">
										<SimplePredicate field="float(x7)" operator="greaterOrEqual" value="10.5"/>
									</Node>
								</Node>
								<Node score="5.553076">
									<SimplePredicate field="float(x8)" operator="greaterOrEqual" value="18.5"/>
								</Node>
							</Node>
							<Node score="8.087491">
								<SimplePredicate field="timeslot" operator="equal" value="Afternoon"/>
								<Node score="-0.23151195">
									<SimplePredicate field="float(x7)" operator="greaterOrEqual" value="6.5"/>
									<Node score="9.066158">
										<SimplePredicate field="float(x1)" operator="greaterOrEqual" value="9.7"/>
									</Node>
								</Node>
								<Node score="13.03717">
									<SimplePredicate field="float(x7)" operator="greaterOrEqual" value="2.5"/>
								</Node>
							</Node>
							<Node score="10.108337">
								<SimplePredicate field="float(x7)" operator="greaterOrEqual" value="2.5"/>
								<Node score="6.843622">
									<SimplePredicate field="float(x7)" operator="greaterOrEqual" value="6.5"/>
								</Node>
							</Node>
							<Node score="4.9854355">
								<SimplePredicate field="float(x6)" operator="greaterOrEqual" value="7.5"/>
							</Node>
						</Node>
						<Node score="0.7385926">
							<SimplePredicate field="float(x8)" operator="greaterOrEqual" value="6.5"/>
							<Node score="-3.473654">
								<SimplePredicate field="float(x5)" operator="greaterOrEqual" value="3.5"/>
								<Node score="1.99943">
									<SimplePredicate field="float(x5)" operator="greaterOrEqual" value="4.5"/>
									<Node score="5.243884">
										<SimplePredicate field="float(x8)" operator="greaterOrEqual" value="7.5"/>
										<Node score="2.4947927">
											<SimplePredicate field="float(x4)" operator="greaterOrEqual" value="0.95000005"/>
										</Node>
									</Node>
									<Node score="1.1825521">
										<SimplePredicate field="float(x4)" operator="greaterOrEqual" value="2.5"/>
									</Node>
								</Node>
								<Node score="3.0337598">
									<SimplePredicate field="float(x4)" operator="greaterOrEqual" value="2.25"/>
									<Node score="-3.9429781">
										<SimplePredicate field="float(x7)" operator="greaterOrEqual" value="10.5"/>
									</Node>
								</Node>
								<Node score="5.211332">
									<SimplePredicate field="float(x3)" operator="greaterOrEqual" value="2.0"/>
								</Node>
							</Node>
							<Node score="5.1142035">
								<SimplePredicate field="float(x5)" operator="greaterOrEqual" value="0.5"/>
								<Node score="5.1767464">
									<SimplePredicate field="float(x7)" operator="greaterOrEqual" value="9.5"/>
									<Node score="-0.008275095">
										<SimplePredicate field="float(x6)" operator="greaterOrEqual" value="22.5"/>
									</Node>
								</Node>
								<Node score="8.327945">
									<SimplePredicate field="float(x7)" operator="greaterOrEqual" value="2.5"/>
								</Node>
							</Node>
							<Node score="2.4863646">
								<SimplePredicate field="float(x6)" operator="greaterOrEqual" value="29.5"/>
								<Node score="-13.302806">
									<SimplePredicate field="float(x1)" operator="greaterOrEqual" value="15.85"/>
								</Node>
							</Node>
							<Node score="5.7086535">
								<SimplePredicate field="float(x6)" operator="greaterOrEqual" value="5.5"/>
							</Node>
						</Node>
						<Node score="0.5589514">
							<SimplePredicate field="float(x8)" operator="greaterOrEqual" value="0.5"/>
							<Node score="11.252026">
								<SimplePredicate field="float(x5)" operator="greaterOrEqual" value="3.5"/>
								<Node score="2.3802316">
									<SimplePredicate field="float(x8)" operator="greaterOrEqual" value="2.5"/>
									<Node score="0.5886209">
										<SimplePredicate field="float(x8)" operator="greaterOrEqual" value="3.5"/>
									</Node>
								</Node>
								<Node score="4.0702724">
									<SimplePredicate field="float(x6)" operator="greaterOrEqual" value="1.5"/>
								</Node>
							</Node>
							<Node score="2.6990619">
								<SimplePredicate field="float(x8)" operator="greaterOrEqual" value="4.5"/>
								<Node score="1.3167378">
									<SimplePredicate field="timeslot" operator="equal" value="Late Night"/>
								</Node>
							</Node>
							<Node score="-0.43817297">
								<SimplePredicate field="float(x8)" operator="greaterOrEqual" value="2.5"/>
							</Node>
						</Node>
						<Node score="9.134505">
							<SimplePredicate field="float(x5)" operator="greaterOrEqual" value="3.5"/>
							<Node score="7.7027154">
								<SimplePredicate field="float(x7)" operator="greaterOrEqual" value="1.5"/>
								<Node score="1.0876392">
									<SimplePredicate field="float(x4)" operator="greaterOrEqual" value="5.3"/>
								</Node>
							</Node>
							<Node score="0.10508511">
								<SimplePredicate field="float(x4)" operator="greaterOrEqual" value="1.7"/>
							</Node>
						</Node>
						<Node score="1.7069012">
							<SimplePredicate field="float(x1)" operator="greaterOrEqual" value="12.65"/>
							<Node score="4.1254587">
								<SimplePredicate field="float(x6)" operator="greaterOrEqual" value="7.5"/>
							</Node>
						</Node>
						<Node score="1.4834431">
							<SimplePredicate field="float(x7)" operator="greaterOrEqual" value="1.5"/>
						</Node>
					</Node>
				</TreeModel>
			</Segment>
			<Segment id="7">
				<True/>
				<TreeModel functionName="regression" noTrueChildStrategy="returnLastPrediction" x-mathContext="float">
					<MiningSchema>
						<MiningField name="timeslot"/>
						<MiningField name="float(x1)"/>
						<MiningField name="float(x2)"/>
						<MiningField name="float(x3)"/>
						<MiningField name="float(x4)"/>
						<MiningField name="float(x5)"/>
						<MiningField name="float(x6)"/>
						<MiningField name="float(x7)"/>
						<MiningField name="float(x8)"/>
					</MiningSchema>
					<Node score="1.436815">
						<True/>
						<Node score="0.27190506">
							<SimplePredicate field="float(x8)" operator="greaterOrEqual" value="7.5"/>
							<Node score="-0.33814564">
								<SimplePredicate field="timeslot" operator="equal" value="Evening"/>
								<Node score="1.8345896">
									<SimplePredicate field="float(x8)" operator="greaterOrEqual" value="18.5"/>
									<Node score="6.345476">
										<SimplePredicate field="float(x5)" operator="greaterOrEqual" value="1.5"/>
										<Node score="1.3180313">
											<SimplePredicate field="float(x5)" operator="greaterOrEqual" value="4.5"/>
											<Node score="5.590254">
												<SimplePredicate field="float(x7)" operator="greaterOrEqual" value="1.5"/>
											</Node>
										</Node>
										<Node score="9.133781">
											<SimplePredicate field="float(x6)" operator="greaterOrEqual" value="7.5"/>
										</Node>
									</Node>
									<Node score="2.4234421">
										<SimplePredicate field="float(x7)" operator="greaterOrEqual" value="2.5"/>
										<Node score="5.8362284">
											<SimplePredicate field="float(x6)" operator="greaterOrEqual" value="6.5"/>
										</Node>
									</Node>
									<Node score="-3.056419">
										<SimplePredicate field="float(x1)" operator="greaterOrEqual" value="1.95"/>
									</Node>
								</Node>
								<Node score="-0.9653901">
									<SimplePredicate field="float(x7)" operator="greaterOrEqual" value="8.5"/>
									<Node score="6.7466254">
										<SimplePredicate field="float(x6)" operator="greaterOrEqual" value="14.5"/>
										<Node score="-1.2302697">
											<SimplePredicate field="float(x7)" operator="greaterOrEqual" value="10.5"/>
										</Node>
									</Node>
									<Node score="10.140242">
										<SimplePredicate field="float(x3)" operator="greaterOrEqual" value="4.0"/>
									</Node>
								</Node>
								<Node score="13.758317">
									<SimplePredicate field="float(x7)" operator="greaterOrEqual" value="1.5"/>
									<Node score="9.913364">
										<SimplePredicate field="float(x1)" operator="greaterOrEqual" value="16.400002"/>
									</Node>
								</Node>
								<Node score="7.7998056">
									<SimplePredicate field="float(x6)" operator="greaterOrEqual" value="7.5"/>
								</Node>
							</Node>
							<Node score="-3.913093">
								<SimplePredicate field="float(x5)" operator="greaterOrEqual" value="3.5"/>
								<Node score="4.0001707">
									<SimplePredicate field="float(x8)" operator="greaterOrEqual" value="10.5"/>
									<Node score="-1.450778">
										<SimplePredicate field="float(x7)" operator="greaterOrEqual" value="4.5"/>
										<Node score="4.5451007">
											<SimplePredicate field="float(x1)" operator="greaterOrEqual" value="6.95"/>
										</Node>
									</Node>
									<Node score="9.014394">
										<SimplePredicate field="float(x7)" operator="greaterOrEqual" value="2.5"/>
									</Node>
								</Node>
								<Node score="4.0147285">
									<SimplePredicate field="float(x7)" operator="greaterOrEqual" value="1.5"/>
									<Node score="1.6947839">
										<SimplePredicate field="float(x7)" operator="greaterOrEqual" value="6.5"/>
									</Node>
								</Node>
								<Node score="1.9253887">
									<SimplePredicate field="float(x3)" operator="greaterOrEqual" value="9.0"/>
								</Node>
							</Node>
							<Node score="0.7198241">
								<SimplePredicate field="float(x8)" operator="greaterOrEqual" value="22.5"/>
								<Node score="-0.30392915">
									<SimplePredicate field="float(x7)" operator="greaterOrEqual" value="3.5"/>
									<Node score="3.5515919">
										<SimplePredicate field="float(x5)" operator="greaterOrEqual" value="0.5"/>
									</Node>
								</Node>
								<Node score="-1.7961636">
									<SimplePredicate field="float(x4)" operator="greaterOrEqual" value="2.35"/>
								</Node>
							</Node>
							<Node score="5.555681">
								<SimplePredicate field="float(x5)" operator="greaterOrEqual" value="0.5"/>
								<Node score="8.422067">
									<SimplePredicate field="float(x7)" operator="greaterOrEqual" value="2.5"/>
								</Node>
							</Node>
							<Node score="5.392967">
								<SimplePredicate field="float(x6)" operator="greaterOrEqual" value="5.5"/>
							</Node>
						</Node>
						<Node score="14.939052">
							<SimplePredicate field="float(x8)" operator="greaterOrEqual" value="0.5"/>
							<Node score="3.6521819">
								<SimplePredicate field="float(x8)" operator="greaterOrEqual" value="6.5"/>
								<Node score="0.760243">
									<SimplePredicate field="float(x5)" operator="greaterOrEqual" value="4.5"/>
									<Node score="0.8699642">
										<SimplePredicate field="float(x5)" operator="greaterOrEqual" value="5.5"/>
										<Node score="-0.38799384">
											<SimplePredicate field="float(x2)" operator="greaterOrEqual" value="0.275"/>
										</Node>
									</Node>
									<Node score="1.6264718">
										<SimplePredicate field="float(x1)" operator="greaterOrEqual" value="0.55"/>
									</Node>
								</Node>
								<Node score="1.9522259">
									<SimplePredicate field="float(x7)" operator="greaterOrEqual" value="6.5"/>
									<Node score="4.229501">
										<SimplePredicate field="float(x4)" operator="greaterOrEqual" value="2.9499998"/>
									</Node>
								</Node>
								<Node score="6.496537">
									<SimplePredicate field="float(x7)" operator="greaterOrEqual" value="5.5"/>
								</Node>
							</Node>
							<Node score="2.0285552">
								<SimplePredicate field="float(x7)" operator="greaterOrEqual" value="1.5"/>
								<Node score="3.6146326">
									<SimplePredicate field="float(x5)" operator="greaterOrEqual" value="4.5"/>
									<Node score="0.489494">
										<SimplePredicate field="float(x8)" operator="greaterOrEqual" value="3.5"/>
									</Node>
								</Node>
								<Node score="0.4674578">
									<SimplePredicate field="timeslot" operator="equal" value="Late Night"/>
								</Node>
							</Node>
							<Node score="-0.95226246">
								<SimplePredicate field="float(x6)" operator="greaterOrEqual" value="1.5"/>
								<Node score="-5.5400105">
									<SimplePredicate field="float(x1)" operator="greaterOrEqual" value="9.15"/>
								</Node>
							</Node>
							<Node score="1.9983617">
								<SimplePredicate field="float(x8)" operator="greaterOrEqual" value="3.5"/>
							</Node>
						</Node>
						<Node score="6.8282785">
							<SimplePredicate field="float(x5)" operator="greaterOrEqual" value="4.5"/>
							<Node score="-4.0641956">
								<SimplePredicate field="float(x1)" operator="greaterOrEqual" value="26.25"/>
								<Node score="3.3777804">
									<SimplePredicate field="float(x1)" operator="greaterOrEqual" value="26.8"/>
								</Node>
							</Node>
							<Node score="3.8054264">
								<SimplePredicate field="float(x4)" operator="greaterOrEqual" value="4.05"/>
								<Node score="-7.4333715">
									<SimplePredicate field="float(x7)" operator="greaterOrEqual" value="8.0"/>
								</Node>
							</Node>
							<Node score="-2.4106932">
								<SimplePredicate field="float(x2)" operator="greaterOrEqual" value="1.25"/>
							</Node>
						</Node>
						<Node score="-0.6506981">
							<SimplePredicate field="float(x7)" operator="greaterOrEqual" value="2.5"/>
							<Node score="6.1695976">
								<SimplePredicate field="float(x5)" operator="greaterOrEqual" value="1.5"/>
								<Node score="3.09769">
									<SimplePredicate field="float(x4)" operator="greaterOrEqual" value="0.95000005"/>
								</Node>
							</Node>
							<Node score="1.5755373">
								<SimplePredicate field="float(x1)" operator="greaterOrEqual" value="11.799999"/>
							</Node>
						</Node>
						<Node score="-0.13200973">
							<SimplePredicate field="float(x6)" operator="greaterOrEqual" value="21.5"/>
							<Node score="1.6923941">
								<SimplePredicate field="float(x5)" operator="greaterOrEqual" value="2.5"/>
							</Node>
						</Node>
						<Node score="-1.1897048">
							<SimplePredicate field="float(x5)" operator="greaterOrEqual" value="0.5"/>
						</Node>
					</Node>
				</TreeModel>
			</Segment>
			<Segment id="8">
				<True/>
				<TreeModel functionName="regression" noTrueChildStrategy="returnLastPrediction" x-mathContext="float">
					<MiningSchema>
						<MiningField name="timeslot"/>
						<MiningField name="float(x1)"/>
						<MiningField name="float(x2)"/>
						<MiningField name="float(x4)"/>
						<MiningField name="float(x5)"/>
						<MiningField name="float(x6)"/>
						<MiningField name="float(x7)"/>
						<MiningField name="float(x8)"/>
					</MiningSchema>
					<Node score="-0.27241895">
						<True/>
						<Node score="-1.0074005">
							<SimplePredicate field="float(x8)" operator="greaterOrEqual" value="9.5"/>
							<Node score="3.9496148">
								<SimplePredicate field="float(x8)" operator="greaterOrEqual" value="19.5"/>
								<Node score="0.4883081">
									<SimplePredicate field="float(x4)" operator="greaterOrEqual" value="2.6999998"/>
									<Node score="0.34327894">
										<SimplePredicate field="float(x7)" operator="greaterOrEqual" value="10.5"/>
										<Node score="-11.780872">
											<SimplePredicate field="float(x6)" operator="greaterOrEqual" value="22.5"/>
											<Node score="-0.3208892">
												<SimplePredicate field="float(x6)" operator="greaterOrEqual" value="26.5"/>
											</Node>
										</Node>
										<Node score="10.1955805">
											<SimplePredicate field="float(x1)" operator="greaterOrEqual" value="13.35"/>
										</Node>
									</Node>
									<Node score="4.0777297">
										<SimplePredicate field="float(x5)" operator="greaterOrEqual" value="0.5"/>
										<Node score="0.8012217">
											<SimplePredicate field="float(x5)" operator="greaterOrEqual" value="4.5"/>
										</Node>
									</Node>
									<Node score="-2.0114844">
										<SimplePredicate field="float(x2)" operator="greaterOrEqual" value="0.125"/>
									</Node>
								</Node>
								<Node score="4.1004953">
									<SimplePredicate field="float(x7)" operator="greaterOrEqual" value="2.5"/>
									<Node score="6.636828">
										<SimplePredicate field="float(x1)" operator="greaterOrEqual" value="20.85"/>
										<Node score="1.7775015">
											<SimplePredicate field="float(x7)" operator="greaterOrEqual" value="6.5"/>
										</Node>
									</Node>
									<Node score="6.8687344">
										<SimplePredicate field="float(x5)" operator="greaterOrEqual" value="2.5"/>
									</Node>
								</Node>
								<Node score="1.1950713">
									<SimplePredicate field="float(x6)" operator="greaterOrEqual" value="9.5"/>
									<Node score="4.4185596">
										<SimplePredicate field="float(x4)" operator="greaterOrEqual" value="2.5"/>
									</Node>
								</Node>
								<Node score="-2.131012">
									<SimplePredicate field="float(x1)" operator="greaterOrEqual" value="-4.15"/>
								</Node>
							</Node>
							<Node score="2.7864182">
								<SimplePredicate field="float(x5)" operator="greaterOrEqual" value="3.5"/>
								<Node score="10.703309">
									<SimplePredicate field="float(x8)" operator="greaterOrEqual" value="17.5"/>
									<Node score="-0.3137957">
										<SimplePredicate field="float(x5)" operator="greaterOrEqual" value="5.5"/>
										<Node score="5.0163655">
											<SimplePredicate field="float(x6)" operator="greaterOrEqual" value="4.5"/>
										</Node>
									</Node>
									<Node score="6.5014415">
										<SimplePredicate field="float(x7)" operator="greaterOrEqual" value="4.5"/>
									</Node>
								</Node>
								<Node score="-3.5275018">
									<SimplePredicate field="float(x7)" operator="greaterOrEqual" value="4.5"/>
									<Node score="2.9490018">
										<SimplePredicate field="float(x1)" operator="greaterOrEqual" value="6.95"/>
									</Node>
								</Node>
								<Node score="6.963821">
									<SimplePredicate field="float(x7)" operator="greaterOrEqual" value="2.5"/>
								</Node>
							</Node>
							<Node score="4.720307">
								<SimplePredicate field="float(x7)" operator="greaterOrEqual" value="8.5"/>
								<Node score="0.20563796">
									<SimplePredicate field="float(x6)" operator="greaterOrEqual" value="13.5"/>
									<Node score="6.6570306">
										<SimplePredicate field="float(x6)" operator="greaterOrEqual" value="24.5"/>
									</Node>
								</Node>
								<Node score="10.267582">
									<SimplePredicate field="float(x7)" operator="greaterOrEqual" value="10.5"/>
								</Node>
							</Node>
							<Node score="9.765601">
								<SimplePredicate field="float(x7)" operator="greaterOrEqual" value="2.5"/>
								<Node score="6.6110206">
									<SimplePredicate field="float(x1)" operator="greaterOrEqual" value="14.7"/>
								</Node>
							</Node>
							<Node score="4.872448">
								<SimplePredicate field="float(x6)" operator="greaterOrEqual" value="5.5"/>
							</Node>
						</Node>
						<Node score="3.1387317">
							<SimplePredicate field="float(x8)" operator="greaterOrEqual" value="6.5"/>
							<Node score="2.5320044">
								<SimplePredicate field="float(x5)" operator="greaterOrEqual" value="3.5"/>
								<Node score="0.8731685">
									<SimplePredicate field="float(x5)" operator="greaterOrEqual" value="5.5"/>
									<Node score="-0.053628497">
										<SimplePredicate field="float(x6)" operator="greaterOrEqual" value="1.5"/>
										<Node score="2.17236">
											<SimplePredicate field="float(x7)" operator="greaterOrEqual" value="10.5"/>
										</Node>
									</Node>
									<Node score="5.3486876">
										<SimplePredicate field="float(x1)" operator="greaterOrEqual" value="13.049999"/>
									</Node>
								</Node>
								<Node score="0.8218168">
									<SimplePredicate field="float(x2)" operator="greaterOrEqual" value="0.125"/>
									<Node score="-6.521661">
										<SimplePredicate field="float(x7)" operator="greaterOrEqual" value="10.5"/>
									</Node>
								</Node>
								<Node score="1.2305691">
									<SimplePredicate field="float(x5)" operator="greaterOrEqual" value="4.5"/>
								</Node>
							</Node>
							<Node score="-0.97206706">
								<SimplePredicate field="float(x4)" operator="greaterOrEqual" value="3.15"/>
								<Node score="5.6799297">
									<SimplePredicate field="float(x7)" operator="greaterOrEqual" value="1.5"/>
									<Node score="1.40237">
										<SimplePredicate field="float(x7)" operator="greaterOrEqual" value="10.5"/>
									</Node>
								</Node>
								<Node score="2.5394402">
									<SimplePredicate field="float(x6)" operator="greaterOrEqual" value="8.0"/>
								</Node>
							</Node>
							<Node score="-14.6148615">
								<SimplePredicate field="float(x1)" operator="greaterOrEqual" value="22.5"/>
								<Node score="4.9956717">
									<SimplePredicate field="float(x4)" operator="greaterOrEqual" value="0.6"/>
								</Node>
							</Node>
							<Node score="1.2715197">
								<SimplePredicate field="float(x6)" operator="greaterOrEqual" value="16.5"/>
							</Node>
						</Node>
						<Node score="0.45120198">
							<SimplePredicate field="float(x8)" operator="greaterOrEqual" value="2.5"/>
							<Node score="3.2186868">
								<SimplePredicate field="timeslot" operator="equal" value="Late Night"/>
								<Node score="2.444549">
									<SimplePredicate field="float(x7)" operator="greaterOrEqual" value="1.5"/>
									<Node score="0.18164378">
										<SimplePredicate field="float(x1)" operator="greaterOrEqual" value="-5.3"/>
									</Node>
								</Node>
								<Node score="-0.8999883">
									<SimplePredicate field="float(x6)" operator="greaterOrEqual" value="1.5"/>
								</Node>
							</Node>
							<Node score="1.6034168">
								<SimplePredicate field="float(x7)" operator="greaterOrEqual" value="9.5"/>
								<Node score="-1.0057573">
									<SimplePredicate field="float(x6)" operator="greaterOrEqual" value="12.5"/>
								</Node>
							</Node>
							<Node score="1.6728556">
								<SimplePredicate field="float(x6)" operator="greaterOrEqual" value="5.5"/>
							</Node>
						</Node>
						<Node score="13.626466">
							<SimplePredicate field="float(x5)" operator="greaterOrEqual" value="2.5"/>
							<Node score="3.0654821">
								<SimplePredicate field="float(x7)" operator="greaterOrEqual" value="1.5"/>
								<Node score="0.2250043">
									<SimplePredicate field="float(x7)" operator="greaterOrEqual" value="10.5"/>
								</Node>
							</Node>
							<Node score="-1.6032275">
								<SimplePredicate field="float(x6)" operator="greaterOrEqual" value="1.5"/>
							</Node>
						</Node>
						<Node score="1.135859">
							<SimplePredicate field="float(x1)" operator="greaterOrEqual" value="5.15"/>
							<Node score="0.20797928">
								<SimplePredicate field="float(x8)" operator="greaterOrEqual" value="0.5"/>
							</Node>
						</Node>
						<Node score="-1.160791">
							<SimplePredicate field="float(x7)" operator="greaterOrEqual" value="3.5"/>
						</Node>
					</Node>
				</TreeModel>
			</Segment>
			<Segment id="9">
				<True/>
				<TreeModel functionName="regression" noTrueChildStrategy="returnLastPrediction" x-mathContext="float">
					<MiningSchema>
						<MiningField name="timeslot"/>
						<MiningField name="float(x1)"/>
						<MiningField name="float(x2)"/>
						<MiningField name="float(x3)"/>
						<MiningField name="float(x4)"/>
						<MiningField name="float(x5)"/>
						<MiningField name="float(x6)"/>
						<MiningField name="float(x7)"/>
						<MiningField name="float(x8)"/>
					</MiningSchema>
					<Node score="0.43009278">
						<True/>
						<Node score="-0.045843147">
							<SimplePredicate field="float(x8)" operator="greaterOrEqual" value="8.5"/>
							<Node score="2.9000335">
								<SimplePredicate field="float(x7)" operator="greaterOrEqual" value="1.5"/>
								<Node score="4.0401664">
									<SimplePredicate field="float(x7)" operator="greaterOrEqual" value="6.5"/>
									<Node score="-0.84090376">
										<SimplePredicate field="float(x1)" operator="greaterOrEqual" value="8.6"/>
										<Node score="5.775319">
											<SimplePredicate field="float(x7)" operator="greaterOrEqual" value="9.5"/>
											<Node score="1.9521172">
												<SimplePredicate field="float(x6)" operator="greaterOrEqual" value="22.5"/>
											</Node>
										</Node>
										<Node score="2.7909594">
											<SimplePredicate field="float(x6)" operator="greaterOrEqual" value="6.5"/>
										</Node>
									</Node>
									<Node score="8.424313">
										<SimplePredicate field="float(x6)" operator="greaterOrEqual" value="28.5"/>
										<Node score="2.8927038">
											<SimplePredicate field="float(x8)" operator="greaterOrEqual" value="18.5"/>
										</Node>
									</Node>
									<Node score="-2.232395">
										<SimplePredicate field="float(x6)" operator="greaterOrEqual" value="13.5"/>
									</Node>
								</Node>
								<Node score="-2.0851462">
									<SimplePredicate field="float(x5)" operator="greaterOrEqual" value="5.5"/>
									<Node score="3.1625178">
										<SimplePredicate field="float(x1)" operator="greaterOrEqual" value="0.3"/>
										<Node score="-0.054724734">
											<SimplePredicate field="timeslot" operator="equal" value="Late Night"/>
										</Node>
									</Node>
									<Node score="3.9645512">
										<SimplePredicate field="float(x4)" operator="greaterOrEqual" value="3.15"/>
									</Node>
								</Node>
								<Node score="4.835106">
									<SimplePredicate field="float(x5)" operator="greaterOrEqual" value="0.5"/>
									<Node score="-0.043385375">
										<SimplePredicate field="float(x1)" operator="greaterOrEqual" value="29.7"/>
									</Node>
								</Node>
								<Node score="-8.947401">
									<SimplePredicate field="float(x6)" operator="greaterOrEqual" value="29.0"/>
								</Node>
							</Node>
							<Node score="-9.462212">
								<SimplePredicate field="float(x6)" operator="greaterOrEqual" value="9.5"/>
								<Node score="-6.9240227">
									<SimplePredicate field="float(x6)" operator="greaterOrEqual" value="28.5"/>
									<Node score="2.90044">
										<SimplePredicate field="float(x1)" operator="greaterOrEqual" value="-6.95"/>
										<Node score="-1.6514267">
											<SimplePredicate field="timeslot" operator="equal" value="Late Night"/>
										</Node>
									</Node>
									<Node score="-2.4564104">
										<SimplePredicate field="float(x8)" operator="greaterOrEqual" value="18.5"/>
									</Node>
								</Node>
								<Node score="1.4253362">
									<SimplePredicate field="float(x5)" operator="greaterOrEqual" value="2.5"/>
									<Node score="5.476411">
										<SimplePredicate field="float(x8)" operator="greaterOrEqual" value="13.5"/>
									</Node>
								</Node>
								<Node score="1.5004746">
									<SimplePredicate field="float(x3)" operator="greaterOrEqual" value="9.0"/>
								</Node>
							</Node>
							<Node score="-6.0032635">
								<SimplePredicate field="float(x5)" operator="greaterOrEqual" value="3.5"/>
								<Node score="0.81768596">
									<SimplePredicate field="float(x6)" operator="greaterOrEqual" value="7.5"/>
									<Node score="-1.3278339">
										<SimplePredicate field="float(x2)" operator="greaterOrEqual" value="0.125"/>
									</Node>
								</Node>
								<Node score="-1.0832412">
									<SimplePredicate field="float(x8)" operator="greaterOrEqual" value="15.5"/>
								</Node>
							</Node>
							<Node score="-1.1592507">
								<SimplePredicate field="float(x8)" operator="greaterOrEqual" value="18.5"/>
								<Node score="-7.910509">
									<SimplePredicate field="float(x1)" operator="greaterOrEqual" value="3.65"/>
								</Node>
							</Node>
							<Node score="2.9294653">
								<SimplePredicate field="float(x1)" operator="greaterOrEqual" value="0.85"/>
							</Node>
						</Node>
						<Node score="2.0684505">
							<SimplePredicate field="float(x8)" operator="greaterOrEqual" value="6.5"/>
							<Node score="8.299761">
								<SimplePredicate field="float(x2)" operator="greaterOrEqual" value="4.375"/>
							</Node>
							<Node score="0.23053241">
								<SimplePredicate field="float(x7)" operator="greaterOrEqual" value="7.5"/>
								<Node score="-11.477377">
									<SimplePredicate field="float(x6)" operator="greaterOrEqual" value="23.5"/>
									<Node score="-0.06389407">
										<SimplePredicate field="float(x1)" operator="greaterOrEqual" value="5.55"/>
									</Node>
								</Node>
								<Node score="1.6907192">
									<SimplePredicate field="float(x6)" operator="greaterOrEqual" value="5.5"/>
								</Node>
							</Node>
							<Node score="6.8258495">
								<SimplePredicate field="float(x1)" operator="greaterOrEqual" value="25.85"/>
								<Node score="2.3603733">
									<SimplePredicate field="float(x5)" operator="greaterOrEqual" value="3.5"/>
								</Node>
							</Node>
							<Node score="0.71858394">
								<SimplePredicate field="float(x5)" operator="greaterOrEqual" value="4.5"/>
							</Node>
						</Node>
						<Node score="-0.0031420256">
							<SimplePredicate field="float(x8)" operator="greaterOrEqual" value="0.5"/>
							<Node score="-1.1537338">
								<SimplePredicate field="float(x5)" operator="greaterOrEqual" value="2.5"/>
								<Node score="-0.54294807">
									<SimplePredicate field="float(x8)" operator="greaterOrEqual" value="2.5"/>
									<Node score="0.50454605">
										<SimplePredicate field="float(x7)" operator="greaterOrEqual" value="1.5"/>
									</Node>
								</Node>
								<Node score="1.6070127">
									<SimplePredicate field="float(x3)" operator="greaterOrEqual" value="9.0"/>
								</Node>
							</Node>
							<Node score="0.22706024">
								<SimplePredicate field="float(x8)" operator="greaterOrEqual" value="4.5"/>
								<Node score="1.0526893">
									<SimplePredicate field="float(x5)" operator="greaterOrEqual" value="0.5"/>
								</Node>
							</Node>
							<Node score="-0.56781405">
								<SimplePredicate field="float(x8)" operator="greaterOrEqual" value="2.5"/>
							</Node>
						</Node>
						<Node score="4.765368">
							<SimplePredicate field="float(x5)" operator="greaterOrEqual" value="4.5"/>
							<Node score="-6.0844035">
								<SimplePredicate field="float(x1)" operator="greaterOrEqual" value="20.45"/>
								<Node score="2.8308735">
									<SimplePredicate field="float(x4)" operator="greaterOrEqual" value="0.95000005"/>
								</Node>
							</Node>
							<Node score="0.41855547">
								<SimplePredicate field="float(x6)" operator="greaterOrEqual" value="24.0"/>
							</Node>
						</Node>
						<Node score="3.6796656">
							<SimplePredicate field="float(x7)" operator="greaterOrEqual" value="2.5"/>
							<Node score="1.081866">
								<SimplePredicate field="float(x4)" operator="greaterOrEqual" value="0.95000005"/>
							</Node>
						</Node>
						<Node score="-0.8926872">
							<SimplePredicate field="float(x1)" operator="greaterOrEqual" value="0.15"/>
						</Node>
					</Node>
				</TreeModel>
			</Segment>
			<Segment id="10">
				<True/>
				<TreeModel functionName="regression" noTrueChildStrategy="returnLastPrediction" x-mathContext="float">
					<MiningSchema>
						<MiningField name="timeslot"/>
						<MiningField name="float(x1)"/>
						<MiningField name="float(x2)"/>
						<MiningField name="float(x3)"/>
						<MiningField name="float(x4)"/>
						<MiningField name="float(x5)"/>
						<MiningField name="float(x6)"/>
						<MiningField name="float(x7)"/>
						<MiningField name="float(x8)"/>
					</MiningSchema>
					<Node score="-0.27640054">
						<True/>
						<Node score="-0.07563326">
							<SimplePredicate field="float(x8)" operator="greaterOrEqual" value="10.5"/>
							<Node score="0.7200924">
								<SimplePredicate field="float(x8)" operator="greaterOrEqual" value="20.5"/>
								<Node score="0.5956659">
									<SimplePredicate field="float(x6)" operator="greaterOrEqual" value="7.5"/>
									<Node score="1.8184944">
										<SimplePredicate field="float(x5)" operator="greaterOrEqual" value="0.5"/>
										<Node score="-1.2219342">
											<SimplePredicate field="float(x5)" operator="greaterOrEqual" value="5.5"/>
											<Node score="1.8111533">
												<SimplePredicate field="float(x1)" operator="greaterOrEqual" value="16.95"/>
											</Node>
										</Node>
										<Node score="3.9032137">
											<SimplePredicate field="float(x7)" operator="greaterOrEqual" value="9.5"/>
										</Node>
									</Node>
									<Node score="-6.211991">
										<SimplePredicate field="timeslot" operator="equal" value="Evening"/>
										<Node score="2.033834">
											<SimplePredicate field="float(x4)" operator="greaterOrEqual" value="1.35"/>
										</Node>
									</Node>
									<Node score="-1.3873322">
										<SimplePredicate field="float(x6)" operator="greaterOrEqual" value="13.5"/>
									</Node>
								</Node>
								<Node score="7.476072">
									<SimplePredicate field="float(x7)" operator="greaterOrEqual" value="10.5"/>
									<Node score="-2.7271867">
										<SimplePredicate field="float(x8)" operator="greaterOrEqual" value="22.5"/>
										<Node score="2.0576627">
											<SimplePredicate field="float(x6)" operator="greaterOrEqual" value="2.5"/>
										</Node>
									</Node>
									<Node score="0.7719552">
										<SimplePredicate field="float(x6)" operator="greaterOrEqual" value="5.5"/>
									</Node>
								</Node>
								<Node score="-1.0573219">
									<SimplePredicate field="float(x8)" operator="greaterOrEqual" value="22.5"/>
									<Node score="-4.825946">
										<SimplePredicate field="float(x2)" operator="greaterOrEqual" value="0.125"/>
									</Node>
								</Node>
								<Node score="-2.580357">
									<SimplePredicate field="float(x7)" operator="greaterOrEqual" value="8.5"/>
								</Node>
							</Node>
							<Node score="-4.2494597">
								<SimplePredicate field="float(x5)" operator="greaterOrEqual" value="3.5"/>
								<Node score="0.11561972">
									<SimplePredicate field="float(x7)" operator="greaterOrEqual" value="4.5"/>
									<Node score="3.0256567">
										<SimplePredicate field="float(x6)" operator="greaterOrEqual" value="3.5"/>
										<Node score="0.3946267">
											<SimplePredicate field="float(x6)" operator="greaterOrEqual" value="17.5"/>
										</Node>
									</Node>
									<Node score="-4.579665">
										<SimplePredicate field="float(x1)" operator="greaterOrEqual" value="25.85"/>
									</Node>
								</Node>
								<Node score="-2.0882735">
									<SimplePredicate field="float(x8)" operator="greaterOrEqual" value="13.5"/>
									<Node score="4.488225">
										<SimplePredicate field="float(x1)" operator="greaterOrEqual" value="-6.95"/>
									</Node>
								</Node>
								<Node score="1.3728536">
									<SimplePredicate field="float(x3)" operator="greaterOrEqual" value="5.5"/>
								</Node>
							</Node>
							<Node score="2.8907933">
								<SimplePredicate field="float(x5)" operator="greaterOrEqual" value="1.5"/>
								<Node score="8.505651">
									<SimplePredicate field="float(x7)" operator="greaterOrEqual" value="10.5"/>
									<Node score="-6.6672025">
										<SimplePredicate field="float(x6)" operator="greaterOrEqual" value="13.0"/>
									</Node>
								</Node>
								<Node score="5.1142154">
									<SimplePredicate field="float(x7)" operator="greaterOrEqual" value="2.5"/>
								</Node>
							</Node>
							<Node score="3.8284128">
								<SimplePredicate field="float(x1)" operator="greaterOrEqual" value="29.7"/>
								<Node score="10.7374735">
									<SimplePredicate field="float(x8)" operator="greaterOrEqual" value="15.5"/>
								</Node>
							</Node>
							<Node score="2.5396323">
								<SimplePredicate field="float(x6)" operator="greaterOrEqual" value="5.5"/>
							</Node>
						</Node>
						<Node score="-1.2577399">
							<SimplePredicate field="float(x8)" operator="greaterOrEqual" value="7.5"/>
							<Node score="0.077211976">
								<SimplePredicate field="float(x5)" operator="greaterOrEqual" value="3.5"/>
								<Node score="0.81376064">
									<SimplePredicate field="float(x6)" operator="greaterOrEqual" value="24.5"/>
									<Node score="-2.2059278">
										<SimplePredicate field="float(x2)" operator="greaterOrEqual" value="0.125"/>
										<Node score="-9.668652">
											<SimplePredicate field="float(x1)" operator="greaterOrEqual" value="4.3999996"/>
										</Node>
									</Node>
									<Node score="-1.4347811">
										<SimplePredicate field="float(x1)" operator="greaterOrEqual" value="16.099998"/>
									</Node>
								</Node>
								<Node score="1.2752134">
									<SimplePredicate field="float(x1)" operator="greaterOrEqual" value="23.05"/>
									<Node score="-1.5024717">
										<SimplePredicate field="float(x5)" operator="greaterOrEqual" value="4.5"/>
									</Node>
								</Node>
								<Node score="2.227245">
									<SimplePredicate field="float(x7)" operator="greaterOrEqual" value="4.5"/>
								</Node>
							</Node>
							<Node score="3.9410079">
								<SimplePredicate field="float(x4)" operator="greaterOrEqual" value="2.05"/>
								<Node score="0.8631298">
									<SimplePredicate field="float(x1)" operator="greaterOrEqual" value="22.5"/>
									<Node score="4.493108">
										<SimplePredicate field="float(x6)" operator="greaterOrEqual" value="5.5"/>
									</Node>
								</Node>
								<Node score="1.5469788">
									<SimplePredicate field="float(x1)" operator="greaterOrEqual" value="2.5"/>
								</Node>
							</Node>
							<Node score="-0.96917534">
								<SimplePredicate field="float(x5)" operator="greaterOrEqual" value="0.5"/>
								<Node score="2.2252405">
									<SimplePredicate field="float(x1)" operator="greaterOrEqual" value="7.5"/>
								</Node>
							</Node>
							<Node score="-10.488857">
								<SimplePredicate field="float(x1)" operator="greaterOrEqual" value="24.75"/>
							</Node>
						</Node>
						<Node score="0.9180366">
							<SimplePredicate field="float(x8)" operator="greaterOrEqual" value="0.5"/>
							<Node score="-0.3073594">
								<SimplePredicate field="timeslot" operator="equal" value="Late Night"/>
								<Node score="1.2896144">
									<SimplePredicate field="float(x5)" operator="greaterOrEqual" value="4.5"/>
									<Node score="-1.5779508">
										<SimplePredicate field="float(x8)" operator="greaterOrEqual" value="4.5"/>
									</Node>
								</Node>
								<Node score="0.3462395">
									<SimplePredicate field="float(x1)" operator="greaterOrEqual" value="12.5"/>
								</Node>
							</Node>
							<Node score="0.5213871">
								<SimplePredicate field="float(x2)" operator="greaterOrEqual" value="1.75"/>
								<Node score="4.7616076">
									<SimplePredicate field="float(x6)" operator="greaterOrEqual" value="5.5"/>
								</Node>
							</Node>
							<Node score="0.34906983">
								<SimplePredicate field="float(x7)" operator="greaterOrEqual" value="6.5"/>
							</Node>
						</Node>
						<Node score="3.9813128">
							<SimplePredicate field="float(x5)" operator="greaterOrEqual" value="2.5"/>
							<Node score="2.8312347">
								<SimplePredicate field="float(x7)" operator="greaterOrEqual" value="2.5"/>
								<Node score="0.71347576">
									<SimplePredicate field="float(x1)" operator="greaterOrEqual" value="20.75"/>
								</Node>
							</Node>
							<Node score="-0.46111917">
								<SimplePredicate field="float(x6)" operator="greaterOrEqual" value="1.5"/>
							</Node>
						</Node>
						<Node score="-0.7303724">
							<SimplePredicate field="float(x1)" operator="greaterOrEqual" value="24.25"/>
							<Node score="-2.3471873">
								<SimplePredicate field="float(x4)" operator="greaterOrEqual" value="2.75"/>
							</Node>
						</Node>
						<Node score="0.87781674">
							<SimplePredicate field="float(x5)" operator="greaterOrEqual" value="0.5"/>
						</Node>
					</Node>
				</TreeModel>
			</Segment>
			<Segment id="11">
				<True/>
				<TreeModel functionName="regression" noTrueChildStrategy="returnLastPrediction" x-mathContext="float">
					<MiningSchema>
						<MiningField name="float(x1)"/>
						<MiningField name="float(x2)"/>
						<MiningField name="float(x3)"/>
						<MiningField name="float(x4)"/>
						<MiningField name="float(x5)"/>
						<MiningField name="float(x6)"/>
						<MiningField name="float(x7)"/>
						<MiningField name="float(x8)"/>
					</MiningSchema>
					<Node score="1.4174062">
						<True/>
						<Node score="-4.9021826">
							<SimplePredicate field="float(x8)" operator="greaterOrEqual" value="10.5"/>
							<Node score="-0.11291172">
								<SimplePredicate field="float(x8)" operator="greaterOrEqual" value="19.5"/>
								<Node score="0.7724542">
									<SimplePredicate field="float(x4)" operator="greaterOrEqual" value="2.6999998"/>
									<Node score="-0.9378933">
										<SimplePredicate field="float(x2)" operator="greaterOrEqual" value="0.125"/>
										<Node score="4.092082">
											<SimplePredicate field="float(x6)" operator="greaterOrEqual" value="22.5"/>
											<Node score="-1.726152">
												<SimplePredicate field="float(x5)" operator="greaterOrEqual" value="3.5"/>
											</Node>
										</Node>
										<Node score="-3.883768">
											<SimplePredicate field="float(x3)" operator="greaterOrEqual" value="9.0"/>
										</Node>
									</Node>
									<Node score="-4.917539">
										<SimplePredicate field="float(x7)" operator="greaterOrEqual" value="6.5"/>
										<Node score="-0.3008969">
											<SimplePredicate field="float(x4)" operator="greaterOrEqual" value="2.85"/>
										</Node>
									</Node>
									<Node score="6.2288456">
										<SimplePredicate field="float(x7)" operator="greaterOrEqual" value="5.5"/>
									</Node>
								</Node>
								<Node score="1.350733">
									<SimplePredicate field="float(x7)" operator="greaterOrEqual" value="8.5"/>
									<Node score="2.7048934">
										<SimplePredicate field="float(x6)" operator="greaterOrEqual" value="20.5"/>
										<Node score="-6.2648273">
											<SimplePredicate field="float(x7)" operator="greaterOrEqual" value="10.5"/>
										</Node>
									</Node>
									<Node score="4.1851954">
										<SimplePredicate field="float(x6)" operator="greaterOrEqual" value="6.5"/>
									</Node>
								</Node>
								<Node score="-1.5206667">
									<SimplePredicate field="float(x7)" operator="greaterOrEqual" value="6.5"/>
									<Node score="0.67380947">
										<SimplePredicate field="float(x1)" operator="greaterOrEqual" value="25.3"/>
									</Node>
								</Node>
								<Node score="2.6119523">
									<SimplePredicate field="float(x1)" operator="greaterOrEqual" value="10.3"/>
								</Node>
							</Node>
							<Node score="4.6193833">
								<SimplePredicate field="float(x8)" operator="greaterOrEqual" value="17.5"/>
								<Node score="12.607591">
									<SimplePredicate field="float(x1)" operator="greaterOrEqual" value="28.05"/>
									<Node score="-4.737187">
										<SimplePredicate field="float(x5)" operator="greaterOrEqual" value="3.5"/>
										<Node score="5.6379585">
											<SimplePredicate field="float(x6)" operator="greaterOrEqual" value="4.0"/>
										</Node>
									</Node>
									<Node score="5.0247154">
										<SimplePredicate field="float(x6)" operator="greaterOrEqual" value="22.0"/>
									</Node>
								</Node>
								<Node score="-0.9707368">
									<SimplePredicate field="float(x8)" operator="greaterOrEqual" value="18.5"/>
									<Node score="2.5814116">
										<SimplePredicate field="float(x5)" operator="greaterOrEqual" value="1.5"/>
									</Node>
								</Node>
								<Node score="1.5974013">
									<SimplePredicate field="float(x4)" operator="greaterOrEqual" value="3.15"/>
								</Node>
							</Node>
							<Node score="1.793547">
								<SimplePredicate field="float(x7)" operator="greaterOrEqual" value="4.5"/>
								<Node score="0.97891843">
									<SimplePredicate field="float(x1)" operator="greaterOrEqual" value="11.95"/>
									<Node score="2.9993656">
										<SimplePredicate field="float(x7)" operator="greaterOrEqual" value="9.5"/>
									</Node>
								</Node>
								<Node score="-3.5961938">
									<SimplePredicate field="float(x5)" operator="greaterOrEqual" value="2.5"/>
								</Node>
							</Node>
							<Node score="4.687689">
								<SimplePredicate field="float(x7)" operator="greaterOrEqual" value="2.5"/>
								<Node score="2.132716">
									<SimplePredicate field="float(x1)" operator="greaterOrEqual" value="14.7"/>
								</Node>
							</Node>
							<Node score="1.6183665">
								<SimplePredicate field="float(x6)" operator="greaterOrEqual" value="2.5"/>
							</Node>
						</Node>
						<Node score="5.800491">
							<SimplePredicate field="float(x1)" operator="greaterOrEqual" value="7.4"/>
							<Node score="1.8590201">
								<SimplePredicate field="float(x8)" operator="greaterOrEqual" value="7.5"/>
								<Node score="0.57746476">
									<SimplePredicate field="float(x5)" operator="greaterOrEqual" value="3.5"/>
									<Node score="1.6733232">
										<SimplePredicate field="float(x4)" operator="greaterOrEqual" value="5.95"/>
										<Node score="6.0491405">
											<SimplePredicate field="float(x1)" operator="greaterOrEqual" value="9.15"/>
										</Node>
									</Node>
									<Node score="-1.7444664">
										<SimplePredicate field="float(x2)" operator="greaterOrEqual" value="0.125"/>
									</Node>
								</Node>
								<Node score="5.530986">
									<SimplePredicate field="float(x1)" operator="greaterOrEqual" value="27.5"/>
									<Node score="0.34082794">
										<SimplePredicate field="float(x6)" operator="greaterOrEqual" value="28.0"/>
									</Node>
								</Node>
								<Node score="-1.1294545">
									<SimplePredicate field="float(x1)" operator="greaterOrEqual" value="25.3"/>
								</Node>
							</Node>
							<Node score="0.21187378">
								<SimplePredicate field="float(x6)" operator="greaterOrEqual" value="4.5"/>
								<Node score="1.3529869">
									<SimplePredicate field="float(x5)" operator="greaterOrEqual" value="1.5"/>
									<Node score="0.44401208">
										<SimplePredicate field="float(x8)" operator="greaterOrEqual" value="2.5"/>
									</Node>
								</Node>
								<Node score="-0.73847115">
									<SimplePredicate field="float(x1)" operator="greaterOrEqual" value="23.75"/>
								</Node>
							</Node>
							<Node score="-0.3805784">
								<SimplePredicate field="float(x1)" operator="greaterOrEqual" value="10.85"/>
								<Node score="-2.5474355">
									<SimplePredicate field="float(x5)" operator="greaterOrEqual" value="5.5"/>
								</Node>
							</Node>
							<Node score="0.8880069">
								<SimplePredicate field="float(x7)" operator="greaterOrEqual" value="2.0"/>
							</Node>
						</Node>
						<Node score="3.3924453">
							<SimplePredicate field="float(x7)" operator="greaterOrEqual" value="10.5"/>
							<Node score="0.030947555">
								<SimplePredicate field="float(x5)" operator="greaterOrEqual" value="2.5"/>
								<Node score="-3.9000611">
									<SimplePredicate field="float(x6)" operator="greaterOrEqual" value="22.0"/>
									<Node score="-13.716515">
										<SimplePredicate field="float(x8)" operator="greaterOrEqual" value="7.5"/>
									</Node>
								</Node>
								<Node score="-2.1840105">
									<SimplePredicate field="float(x1)" operator="greaterOrEqual" value="1.4000001"/>
								</Node>
							</Node>
							<Node score="-6.1344132">
								<SimplePredicate field="float(x4)" operator="greaterOrEqual" value="5.3999996"/>
							</Node>
							<Node score="-0.27088732">
								<SimplePredicate field="float(x6)" operator="greaterOrEqual" value="11.5"/>
							</Node>
						</Node>
						<Node score="1.1767426">
							<SimplePredicate field="float(x7)" operator="greaterOrEqual" value="2.5"/>
							<Node score="1.1029705">
								<SimplePredicate field="float(x4)" operator="greaterOrEqual" value="4.85"/>
								<Node score="3.5771291">
									<SimplePredicate field="float(x5)" operator="greaterOrEqual" value="2.5"/>
								</Node>
							</Node>
							<Node score="0.26289284">
								<SimplePredicate field="float(x6)" operator="greaterOrEqual" value="11.5"/>
							</Node>
						</Node>
						<Node score="-0.6222841">
							<SimplePredicate field="float(x1)" operator="greaterOrEqual" value="-6.95"/>
							<Node score="0.3790942">
								<SimplePredicate field="float(x6)" operator="greaterOrEqual" value="21.5"/>
							</Node>
						</Node>
						<Node score="-3.280088">
							<SimplePredicate field="float(x6)" operator="greaterOrEqual" value="28.0"/>
						</Node>
					</Node>
				</TreeModel>
			</Segment>
			<Segment id="12">
				<True/>
				<TreeModel functionName="regression" noTrueChildStrategy="returnLastPrediction" x-mathContext="float">
					<MiningSchema>
						<MiningField name="timeslot"/>
						<MiningField name="float(x1)"/>
						<MiningField name="float(x2)"/>
						<MiningField name="float(x4)"/>
						<MiningField name="float(x5)"/>
						<MiningField name="float(x6)"/>
						<MiningField name="float(x7)"/>
						<MiningField name="float(x8)"/>
					</MiningSchema>
					<Node score="0.92472184">
						<True/>
						<Node score="-0.059264828">
							<SimplePredicate field="timeslot" operator="equal" value="Late Night"/>
							<Node score="1.3295127">
								<SimplePredicate field="float(x5)" operator="greaterOrEqual" value="2.5"/>
								<Node score="8.845964">
									<SimplePredicate field="float(x1)" operator="greaterOrEqual" value="20.55"/>
									<Node score="-1.9039959">
										<SimplePredicate field="float(x7)" operator="greaterOrEqual" value="6.5"/>
										<Node score="-3.0223558">
											<SimplePredicate field="float(x1)" operator="greaterOrEqual" value="21.400002"/>
											<Node score="0.065458186">
												<SimplePredicate field="float(x6)" operator="greaterOrEqual" value="3.5"/>
											</Node>
										</Node>
										<Node score="-15.789132">
											<SimplePredicate field="float(x6)" operator="greaterOrEqual" value="16.0"/>
										</Node>
									</Node>
									<Node score="2.1166046">
										<SimplePredicate field="float(x6)" operator="greaterOrEqual" value="3.5"/>
										<Node score="-2.0152051">
											<SimplePredicate field="float(x6)" operator="greaterOrEqual" value="28.0"/>
										</Node>
									</Node>
								</Node>
								<Node score="0.117512144">
									<SimplePredicate field="float(x4)" operator="greaterOrEqual" value="3.9"/>
									<Node score="-0.8522801">
										<SimplePredicate field="float(x7)" operator="greaterOrEqual" value="10.5"/>
										<Node score="-7.1337733">
											<SimplePredicate field="float(x6)" operator="greaterOrEqual" value="22.5"/>
										</Node>
									</Node>
									<Node score="-3.2882335">
										<SimplePredicate field="float(x6)" operator="greaterOrEqual" value="28.5"/>
									</Node>
								</Node>
								<Node score="2.964436">
									<SimplePredicate field="float(x8)" operator="greaterOrEqual" value="13.5"/>
									<Node score="-1.3134694">
										<SimplePredicate field="float(x5)" operator="greaterOrEqual" value="5.5"/>
									</Node>
