<?xml version="1.0" encoding="UTF-8" standalone="yes"?>
<PMML xmlns="http://www.dmg.org/PMML-4_4" xmlns:data="http://jpmml.org/jpmml-model/InlineTable" version="4.4">
	<Header>
		<Application name="SkLearn2PMML package" version="0.95.0"/>
		<Timestamp>2023-07-27T15:30:30Z</Timestamp>
	</Header>
	<DataDictionary>
		<DataField name="y" optype="continuous" dataType="double"/>
		<DataField name="timeslot" optype="categorical" dataType="string">
			<Value value="Afternoon"/>
			<Value value="Evening"/>
			<Value value="Late Night"/>
			<Value value="Morning"/>
		</DataField>
		<DataField name="x1" optype="continuous" dataType="double"/>
		<DataField name="x2" optype="continuous" dataType="double"/>
		<DataField name="x3" optype="continuous" dataType="double"/>
		<DataField name="x4" optype="continuous" dataType="double"/>
		<DataField name="x5" optype="continuous" dataType="double"/>
		<DataField name="x6" optype="continuous" dataType="double"/>
		<DataField name="x7" optype="continuous" dataType="double"/>
		<DataField name="x8" optype="continuous" dataType="double"/>
	</DataDictionary>
	<MiningModel functionName="regression" algorithmName="XGBoost (GBTree)" x-mathContext="float">
		<MiningSchema>
			<MiningField name="y" usageType="target"/>
			<MiningField name="timeslot" invalidValueTreatment="asIs"/>
			<MiningField name="x1"/>
			<MiningField name="x2"/>
			<MiningField name="x3"/>
			<MiningField name="x4"/>
			<MiningField name="x5"/>
			<MiningField name="x6"/>
			<MiningField name="x7"/>
			<MiningField name="x8"/>
		</MiningSchema>
		<Targets>
			<Target field="y" rescaleConstant="0.5"/>
		</Targets>
		<LocalTransformations>
			<DerivedField name="float(x1)" optype="continuous" dataType="float">
				<FieldRef field="x1"/>
			</DerivedField>
			<DerivedField name="float(x2)" optype="continuous" dataType="float">
				<FieldRef field="x2"/>
			</DerivedField>
			<DerivedField name="float(x3)" optype="continuous" dataType="float">
				<FieldRef field="x3"/>
			</DerivedField>
			<DerivedField name="float(x4)" optype="continuous" dataType="float">
				<FieldRef field="x4"/>
			</DerivedField>
			<DerivedField name="float(x5)" optype="continuous" dataType="float">
				<FieldRef field="x5"/>
			</DerivedField>
			<DerivedField name="float(x6)" optype="continuous" dataType="float">
				<FieldRef field="x6"/>
			</DerivedField>
			<DerivedField name="float(x7)" optype="continuous" dataType="float">
				<FieldRef field="x7"/>
			</DerivedField>
			<DerivedField name="float(x8)" optype="continuous" dataType="float">
				<FieldRef field="x8"/>
			</DerivedField>
		</LocalTransformations>
		<Segmentation multipleModelMethod="sum" missingPredictionTreatment="returnMissing">
			<Segment id="1">
				<True/>
				<TreeModel functionName="regression" noTrueChildStrategy="returnLastPrediction" x-mathContext="float">
					<MiningSchema>
						<MiningField name="timeslot"/>
						<MiningField name="float(x1)"/>
						<MiningField name="float(x2)"/>
						<MiningField name="float(x5)"/>
						<MiningField name="float(x6)"/>
						<MiningField name="float(x7)"/>
						<MiningField name="float(x8)"/>
					</MiningSchema>
					<Node score="0.8868421">
						<True/>
						<Node score="4.9038463">
							<SimplePredicate field="float(x8)" operator="greaterOrEqual" value="8.5"/>
							<Node score="4.772222">
								<SimplePredicate field="timeslot" operator="equal" value="Evening"/>
								<Node score="4.916667">
									<SimplePredicate field="float(x5)" operator="greaterOrEqual" value="5.5"/>
									<Node score="2.675">
										<SimplePredicate field="float(x8)" operator="greaterOrEqual" value="19.5"/>
										<Node score="5.953704">
											<SimplePredicate field="float(x7)" operator="greaterOrEqual" value="1.5"/>
										</Node>
									</Node>
									<Node score="7.870988">
										<SimplePredicate field="float(x7)" operator="greaterOrEqual" value="1.5"/>
									</Node>
								</Node>
								<Node score="8.827778">
									<SimplePredicate field="float(x7)" operator="greaterOrEqual" value="1.5"/>
									<Node score="10.930737">
										<SimplePredicate field="float(x5)" operator="greaterOrEqual" value="0.5"/>
										<Node score="9.546587">
											<SimplePredicate field="float(x1)" operator="greaterOrEqual" value="20.3"/>
										</Node>
										<Node score="9.513367">
											<SimplePredicate field="float(x8)" operator="greaterOrEqual" value="20.5"/>
										</Node>
									</Node>
									<Node score="7.2509437">
										<SimplePredicate field="float(x8)" operator="greaterOrEqual" value="19.5"/>
									</Node>
								</Node>
								<Node score="8.092857">
									<SimplePredicate field="float(x6)" operator="greaterOrEqual" value="5.5"/>
									<Node score="3.775">
										<SimplePredicate field="float(x8)" operator="greaterOrEqual" value="19.5"/>
										<Node score="6.1275">
											<SimplePredicate field="float(x5)" operator="greaterOrEqual" value="0.5"/>
										</Node>
									</Node>
								</Node>
								<Node score="2.65">
									<SimplePredicate field="float(x8)" operator="greaterOrEqual" value="19.5"/>
								</Node>
							</Node>
							<Node score="6.486818">
								<SimplePredicate field="float(x8)" operator="greaterOrEqual" value="10.5"/>
								<Node score="1.4">
									<SimplePredicate field="float(x8)" operator="greaterOrEqual" value="22.5"/>
									<Node score="1.3100001">
										<SimplePredicate field="float(x5)" operator="greaterOrEqual" value="5.5"/>
										<Node score="2.6714284">
											<SimplePredicate field="float(x7)" operator="greaterOrEqual" value="1.5"/>
										</Node>
									</Node>
									<Node score="5.6228814">
										<SimplePredicate field="float(x5)" operator="greaterOrEqual" value="1.5"/>
										<Node score="7.15">
											<SimplePredicate field="float(x5)" operator="greaterOrEqual" value="3.5"/>
										</Node>
									</Node>
									<Node score="4.0785713">
										<SimplePredicate field="float(x7)" operator="greaterOrEqual" value="1.5"/>
									</Node>
								</Node>
								<Node score="7.3105974">
									<SimplePredicate field="float(x7)" operator="greaterOrEqual" value="1.5"/>
									<Node score="6.986416">
										<SimplePredicate field="float(x5)" operator="greaterOrEqual" value="5.5"/>
										<Node score="4.485484">
											<SimplePredicate field="timeslot" operator="equal" value="Late Night"/>
										</Node>
									</Node>
									<Node score="8.182649">
										<SimplePredicate field="float(x8)" operator="greaterOrEqual" value="13.5"/>
									</Node>
								</Node>
								<Node score="1.65">
									<SimplePredicate field="timeslot" operator="equal" value="Late Night"/>
									<Node score="4.5142856">
										<SimplePredicate field="float(x6)" operator="greaterOrEqual" value="4.5"/>
									</Node>
								</Node>
								<Node score="3.7964287">
									<SimplePredicate field="float(x2)" operator="greaterOrEqual" value="0.15"/>
								</Node>
							</Node>
							<Node score="3.3725808">
								<SimplePredicate field="float(x5)" operator="greaterOrEqual" value="4.5"/>
								<Node score="2.7125">
									<SimplePredicate field="float(x8)" operator="greaterOrEqual" value="9.5"/>
									<Node score="5.2338233">
										<SimplePredicate field="float(x7)" operator="greaterOrEqual" value="1.5"/>
										<Node score="3.7458332">
											<SimplePredicate field="float(x1)" operator="greaterOrEqual" value="21.150002"/>
										</Node>
									</Node>
								</Node>
								<Node score="1.2">
									<SimplePredicate field="float(x5)" operator="greaterOrEqual" value="5.5"/>
									<Node score="2.5203125">
										<SimplePredicate field="float(x7)" operator="greaterOrEqual" value="1.5"/>
									</Node>
								</Node>
							</Node>
							<Node score="6.46831">
								<SimplePredicate field="float(x7)" operator="greaterOrEqual" value="1.5"/>
								<Node score="5.5385137">
									<SimplePredicate field="float(x1)" operator="greaterOrEqual" value="23.05"/>
								</Node>
							</Node>
						</Node>
						<Node score="4.5836735">
							<SimplePredicate field="float(x8)" operator="greaterOrEqual" value="7.5"/>
							<Node score="1.0625">
								<SimplePredicate field="float(x5)" operator="greaterOrEqual" value="4.5"/>
								<Node score="1.9865385">
									<SimplePredicate field="float(x7)" operator="greaterOrEqual" value="1.5"/>
									<Node score="1.5068966">
										<SimplePredicate field="float(x5)" operator="greaterOrEqual" value="5.5"/>
									</Node>
								</Node>
								<Node score="0.45000002">
									<SimplePredicate field="float(x1)" operator="greaterOrEqual" value="-9.45"/>
								</Node>
							</Node>
						</Node>
						<Node score="0.646875">
							<SimplePredicate field="float(x8)" operator="greaterOrEqual" value="1.5"/>
							<Node score="1.7038462">
								<SimplePredicate field="float(x8)" operator="greaterOrEqual" value="6.5"/>
								<Node score="0.32000002">
									<SimplePredicate field="float(x5)" operator="greaterOrEqual" value="4.5"/>
									<Node score="0.9296875">
										<SimplePredicate field="float(x1)" operator="greaterOrEqual" value="-7.2"/>
										<Node score="0.66612905">
											<SimplePredicate field="float(x5)" operator="greaterOrEqual" value="5.5"/>
										</Node>
									</Node>
								</Node>
								<Node score="2.92">
									<SimplePredicate field="float(x7)" operator="greaterOrEqual" value="1.5"/>
								</Node>
							</Node>
							<Node score="3.381746">
								<SimplePredicate field="float(x5)" operator="greaterOrEqual" value="4.5"/>
								<Node score="0.93333334">
									<SimplePredicate field="float(x8)" operator="greaterOrEqual" value="3.5"/>
									<Node score="0.32500002">
										<SimplePredicate field="float(x8)" operator="greaterOrEqual" value="4.5"/>
									</Node>
								</Node>
								<Node score="2.2391305">
									<SimplePredicate field="float(x8)" operator="greaterOrEqual" value="2.5"/>
								</Node>
							</Node>
							<Node score="0.4642857">
								<SimplePredicate field="timeslot" operator="equal" value="Late Night"/>
								<Node score="0.20600437">
									<SimplePredicate field="float(x8)" operator="greaterOrEqual" value="2.5"/>
								</Node>
							</Node>
							<Node score="1.0297946">
								<SimplePredicate field="float(x7)" operator="greaterOrEqual" value="1.5"/>
							</Node>
						</Node>
						<Node score="3.246154">
							<SimplePredicate field="float(x5)" operator="greaterOrEqual" value="4.5"/>
							<Node score="5.937931">
								<SimplePredicate field="float(x7)" operator="greaterOrEqual" value="1.5"/>
								<Node score="4.7312503">
									<SimplePredicate field="float(x1)" operator="greaterOrEqual" value="22.1"/>
								</Node>
							</Node>
						</Node>
						<Node score="0.3166667">
							<SimplePredicate field="float(x8)" operator="greaterOrEqual" value="0.5"/>
							<Node score="0.90000004">
								<SimplePredicate field="float(x5)" operator="greaterOrEqual" value="3.5"/>
								<Node score="2.0903847">
									<SimplePredicate field="float(x7)" operator="greaterOrEqual" value="1.5"/>
								</Node>
							</Node>
							<Node score="0.90257734">
								<SimplePredicate field="float(x7)" operator="greaterOrEqual" value="1.5"/>
							</Node>
						</Node>
						<Node score="1.9818182">
							<SimplePredicate field="float(x5)" operator="greaterOrEqual" value="2.5"/>
							<Node score="3.6294644">
								<SimplePredicate field="float(x7)" operator="greaterOrEqual" value="2.5"/>
							</Node>
						</Node>
						<Node score="1.9516667">
							<SimplePredicate field="float(x7)" operator="greaterOrEqual" value="2.5"/>
						</Node>
					</Node>
				</TreeModel>
			</Segment>
			<Segment id="2">
				<True/>
				<TreeModel functionName="regression" noTrueChildStrategy="returnLastPrediction" x-mathContext="float">
					<MiningSchema>
						<MiningField name="timeslot"/>
						<MiningField name="float(x1)"/>
						<MiningField name="float(x2)"/>
						<MiningField name="float(x3)"/>
						<MiningField name="float(x4)"/>
						<MiningField name="float(x8)"/>
					</MiningSchema>
					<Node score="2.2912273">
						<True/>
						<Node score="2.2457857">
							<SimplePredicate field="float(x8)" operator="greaterOrEqual" value="8.5"/>
							<Node score="3.7849405">
								<SimplePredicate field="timeslot" operator="equal" value="Evening"/>
								<Node score="3.3060417">
									<SimplePredicate field="float(x8)" operator="greaterOrEqual" value="19.5"/>
									<Node score="8.241086">
										<SimplePredicate field="float(x1)" operator="greaterOrEqual" value="4.7"/>
										<Node score="7.1500244">
											<SimplePredicate field="float(x1)" operator="greaterOrEqual" value="21.400002"/>
										</Node>
									</Node>
									<Node score="5.4929576">
										<SimplePredicate field="float(x1)" operator="greaterOrEqual" value="-7.25"/>
										<Node score="7.2382674">
											<SimplePredicate field="float(x4)" operator="greaterOrEqual" value="3.15"/>
										</Node>
									</Node>
								</Node>
								<Node score="4.467262">
									<SimplePredicate field="float(x8)" operator="greaterOrEqual" value="17.5"/>
									<Node score="9.500102">
										<SimplePredicate field="float(x1)" operator="greaterOrEqual" value="0.85"/>
									</Node>
									<Node score="7.823667">
										<SimplePredicate field="float(x1)" operator="greaterOrEqual" value="-6.95"/>
									</Node>
								</Node>
								<Node score="8.1014185">
									<SimplePredicate field="float(x1)" operator="greaterOrEqual" value="-4.7"/>
								</Node>
							</Node>
							<Node score="4.200989">
								<SimplePredicate field="timeslot" operator="equal" value="Afternoon"/>
								<Node score="6.4191093">
									<SimplePredicate field="float(x1)" operator="greaterOrEqual" value="25.85"/>
								</Node>
								<Node score="6.3351626">
									<SimplePredicate field="float(x1)" operator="greaterOrEqual" value="-7.5"/>
									<Node score="7.577291">
										<SimplePredicate field="float(x8)" operator="greaterOrEqual" value="14.5"/>
									</Node>
									<Node score="7.1307483">
										<SimplePredicate field="float(x1)" operator="greaterOrEqual" value="5.85"/>
									</Node>
								</Node>
								<Node score="1.7355082">
									<SimplePredicate field="float(x4)" operator="greaterOrEqual" value="3.85"/>
								</Node>
							</Node>
							<Node score="2.746076">
								<SimplePredicate field="float(x8)" operator="greaterOrEqual" value="9.5"/>
								<Node score="3.8013027">
									<SimplePredicate field="float(x8)" operator="greaterOrEqual" value="22.5"/>
									<Node score="4.8244934">
										<SimplePredicate field="float(x1)" operator="greaterOrEqual" value="5.85"/>
									</Node>
								</Node>
								<Node score="6.3454413">
									<SimplePredicate field="float(x1)" operator="greaterOrEqual" value="6.95"/>
									<Node score="5.375389">
										<SimplePredicate field="float(x1)" operator="greaterOrEqual" value="21.95"/>
									</Node>
								</Node>
								<Node score="5.1735063">
									<SimplePredicate field="float(x1)" operator="greaterOrEqual" value="-8.35"/>
								</Node>
							</Node>
							<Node score="4.5951824">
								<SimplePredicate field="float(x1)" operator="greaterOrEqual" value="-8.85"/>
							</Node>
						</Node>
						<Node score="1.5345767">
							<SimplePredicate field="float(x8)" operator="greaterOrEqual" value="7.5"/>
							<Node score="0.48648578">
								<SimplePredicate field="float(x2)" operator="greaterOrEqual" value="0.375"/>
								<Node score="1.9852489">
									<SimplePredicate field="float(x1)" operator="greaterOrEqual" value="0.0"/>
									<Node score="3.293893">
										<SimplePredicate field="float(x2)" operator="greaterOrEqual" value="0.875"/>
									</Node>
									<Node score="0.70090514">
										<SimplePredicate field="float(x1)" operator="greaterOrEqual" value="10.3"/>
									</Node>
								</Node>
							</Node>
							<Node score="3.552367">
								<SimplePredicate field="float(x1)" operator="greaterOrEqual" value="-9.45"/>
							</Node>
						</Node>
						<Node score="1.3258454">
							<SimplePredicate field="float(x8)" operator="greaterOrEqual" value="1.5"/>
							<Node score="0.43760678">
								<SimplePredicate field="float(x8)" operator="greaterOrEqual" value="6.5"/>
								<Node score="1.0736026">
									<SimplePredicate field="float(x3)" operator="greaterOrEqual" value="2.5"/>
									<Node score="0.94357014">
										<SimplePredicate field="float(x4)" operator="greaterOrEqual" value="5.95"/>
									</Node>
									<Node score="2.0874813">
										<SimplePredicate field="float(x1)" operator="greaterOrEqual" value="-7.75"/>
									</Node>
								</Node>
							</Node>
							<Node score="0.5841108">
								<SimplePredicate field="float(x8)" operator="greaterOrEqual" value="2.5"/>
								<Node score="0.7349793">
									<SimplePredicate field="float(x8)" operator="greaterOrEqual" value="3.5"/>
									<Node score="0.2555594">
										<SimplePredicate field="timeslot" operator="equal" value="Late Night"/>
									</Node>
								</Node>
								<Node score="0.8128544">
									<SimplePredicate field="float(x1)" operator="greaterOrEqual" value="5.85"/>
								</Node>
							</Node>
							<Node score="0.42131615">
								<SimplePredicate field="float(x4)" operator="greaterOrEqual" value="2.05"/>
								<Node score="1.0673331">
									<SimplePredicate field="float(x3)" operator="greaterOrEqual" value="8.0"/>
								</Node>
							</Node>
							<Node score="2.009289">
								<SimplePredicate field="float(x4)" operator="greaterOrEqual" value="1.55"/>
							</Node>
						</Node>
						<Node score="0.939588">
							<SimplePredicate field="float(x8)" operator="greaterOrEqual" value="0.5"/>
							<Node score="1.0262545">
								<SimplePredicate field="float(x3)" operator="greaterOrEqual" value="7.0"/>
								<Node score="2.500107">
									<SimplePredicate field="float(x4)" operator="greaterOrEqual" value="3.15"/>
									<Node score="1.3520684">
										<SimplePredicate field="float(x1)" operator="greaterOrEqual" value="19.75"/>
									</Node>
								</Node>
								<Node score="2.0027833">
									<SimplePredicate field="float(x1)" operator="greaterOrEqual" value="6.1499996"/>
								</Node>
							</Node>
						</Node>
						<Node score="4.357809">
							<SimplePredicate field="float(x1)" operator="greaterOrEqual" value="5.4"/>
							<Node score="3.2199178">
								<SimplePredicate field="float(x4)" operator="greaterOrEqual" value="0.95000005"/>
							</Node>
						</Node>
						<Node score="1.8605446">
							<SimplePredicate field="float(x1)" operator="greaterOrEqual" value="-2.25"/>
							<Node score="1.127253">
								<SimplePredicate field="float(x4)" operator="greaterOrEqual" value="3.1"/>
							</Node>
						</Node>
						<Node score="4.67195">
							<SimplePredicate field="float(x1)" operator="greaterOrEqual" value="-3.6"/>
						</Node>
					</Node>
				</TreeModel>
			</Segment>
			<Segment id="3">
				<True/>
				<TreeModel functionName="regression" noTrueChildStrategy="returnLastPrediction" x-mathContext="float">
					<MiningSchema>
						<MiningField name="timeslot"/>
						<MiningField name="float(x1)"/>
						<MiningField name="float(x3)"/>
						<MiningField name="float(x5)"/>
						<MiningField name="float(x6)"/>
						<MiningField name="float(x7)"/>
						<MiningField name="float(x8)"/>
					</MiningSchema>
					<Node score="1.0332631">
						<True/>
						<Node score="2.9486866">
							<SimplePredicate field="float(x8)" operator="greaterOrEqual" value="8.5"/>
							<Node score="4.411218">
								<SimplePredicate field="timeslot" operator="equal" value="Morning"/>
								<Node score="0.11995941">
									<SimplePredicate field="float(x5)" operator="greaterOrEqual" value="4.5"/>
									<Node score="2.0604467">
										<SimplePredicate field="float(x8)" operator="greaterOrEqual" value="9.5"/>
										<Node score="2.5274045">
											<SimplePredicate field="float(x8)" operator="greaterOrEqual" value="10.5"/>
											<Node score="5.4895644">
												<SimplePredicate field="float(x7)" operator="greaterOrEqual" value="1.5"/>
												<Node score="2.8880885">
													<SimplePredicate field="float(x1)" operator="greaterOrEqual" value="29.7"/>
												</Node>
											</Node>
										</Node>
										<Node score="3.953386">
											<SimplePredicate field="float(x7)" operator="greaterOrEqual" value="1.5"/>
											<Node score="1.680302">
												<SimplePredicate field="float(x1)" operator="greaterOrEqual" value="27.5"/>
											</Node>
										</Node>
									</Node>
									<Node score="2.9883285">
										<SimplePredicate field="float(x7)" operator="greaterOrEqual" value="3.5"/>
										<Node score="1.7393856">
											<SimplePredicate field="float(x1)" operator="greaterOrEqual" value="22.5"/>
										</Node>
										<Node score="2.002554">
											<SimplePredicate field="float(x5)" operator="greaterOrEqual" value="5.5"/>
										</Node>
									</Node>
									<Node score="0.9010525">
										<SimplePredicate field="float(x3)" operator="greaterOrEqual" value="7.0"/>
										<Node score="1.898909">
											<SimplePredicate field="float(x6)" operator="greaterOrEqual" value="14.0"/>
										</Node>
									</Node>
								</Node>
								<Node score="4.2995763">
									<SimplePredicate field="float(x5)" operator="greaterOrEqual" value="0.5"/>
									<Node score="5.76585">
										<SimplePredicate field="float(x7)" operator="greaterOrEqual" value="1.5"/>
										<Node score="5.111855">
											<SimplePredicate field="float(x7)" operator="greaterOrEqual" value="6.5"/>
										</Node>
									</Node>
								</Node>
							</Node>
							<Node score="3.7873082">
								<SimplePredicate field="timeslot" operator="equal" value="Late Night"/>
								<Node score="3.3949382">
									<SimplePredicate field="float(x5)" operator="greaterOrEqual" value="5.5"/>
									<Node score="0.9010958">
										<SimplePredicate field="float(x8)" operator="greaterOrEqual" value="22.5"/>
										<Node score="1.8931458">
											<SimplePredicate field="float(x7)" operator="greaterOrEqual" value="1.5"/>
										</Node>
									</Node>
								</Node>
								<Node score="4.6971145">
									<SimplePredicate field="float(x5)" operator="greaterOrEqual" value="2.5"/>
									<Node score="7.0194435">
										<SimplePredicate field="float(x7)" operator="greaterOrEqual" value="1.5"/>
										<Node score="5.797518">
											<SimplePredicate field="float(x8)" operator="greaterOrEqual" value="22.5"/>
										</Node>
									</Node>
									<Node score="1.6783619">
										<SimplePredicate field="float(x1)" operator="greaterOrEqual" value="1.95"/>
									</Node>
								</Node>
								<Node score="2.3158226">
									<SimplePredicate field="float(x5)" operator="greaterOrEqual" value="0.5"/>
									<Node score="4.954099">
										<SimplePredicate field="float(x7)" operator="greaterOrEqual" value="1.5"/>
									</Node>
								</Node>
								<Node score="2.3453214">
									<SimplePredicate field="float(x8)" operator="greaterOrEqual" value="22.5"/>
								</Node>
							</Node>
							<Node score="4.320661">
								<SimplePredicate field="float(x5)" operator="greaterOrEqual" value="5.5"/>
								<Node score="1.8562704">
									<SimplePredicate field="float(x8)" operator="greaterOrEqual" value="19.5"/>
									<Node score="4.707202">
										<SimplePredicate field="float(x7)" operator="greaterOrEqual" value="1.5"/>
									</Node>
								</Node>
								<Node score="2.30839">
									<SimplePredicate field="float(x1)" operator="greaterOrEqual" value="25.85"/>
									<Node score="5.1253676">
										<SimplePredicate field="float(x7)" operator="greaterOrEqual" value="6.5"/>
									</Node>
								</Node>
								<Node score="6.2019806">
									<SimplePredicate field="float(x7)" operator="greaterOrEqual" value="1.5"/>
								</Node>
							</Node>
							<Node score="5.4536366">
								<SimplePredicate field="timeslot" operator="equal" value="Afternoon"/>
								<Node score="7.1924067">
									<SimplePredicate field="float(x7)" operator="greaterOrEqual" value="1.5"/>
									<Node score="6.2536607">
										<SimplePredicate field="float(x7)" operator="greaterOrEqual" value="4.5"/>
									</Node>
								</Node>
								<Node score="1.8857358">
									<SimplePredicate field="float(x6)" operator="greaterOrEqual" value="28.5"/>
								</Node>
							</Node>
							<Node score="6.585228">
								<SimplePredicate field="float(x7)" operator="greaterOrEqual" value="1.5"/>
								<Node score="8.354964">
									<SimplePredicate field="float(x5)" operator="greaterOrEqual" value="0.5"/>
								</Node>
							</Node>
							<Node score="5.690941">
								<SimplePredicate field="float(x6)" operator="greaterOrEqual" value="5.5"/>
							</Node>
						</Node>
						<Node score="3.7355225">
							<SimplePredicate field="float(x8)" operator="greaterOrEqual" value="7.5"/>
							<Node score="0.6543691">
								<SimplePredicate field="float(x5)" operator="greaterOrEqual" value="4.5"/>
								<Node score="0.6083765">
									<SimplePredicate field="float(x5)" operator="greaterOrEqual" value="5.5"/>
									<Node score="1.1191531">
										<SimplePredicate field="float(x1)" operator="greaterOrEqual" value="6.1000004"/>
									</Node>
								</Node>
								<Node score="1.6277684">
									<SimplePredicate field="float(x7)" operator="greaterOrEqual" value="1.5"/>
								</Node>
							</Node>
						</Node>
						<Node score="0.49232617">
							<SimplePredicate field="float(x8)" operator="greaterOrEqual" value="1.5"/>
							<Node score="1.0140557">
								<SimplePredicate field="float(x8)" operator="greaterOrEqual" value="6.5"/>
								<Node score="0.25829056">
									<SimplePredicate field="float(x5)" operator="greaterOrEqual" value="4.5"/>
									<Node score="0.0935772">
										<SimplePredicate field="float(x5)" operator="greaterOrEqual" value="5.5"/>
										<Node score="0.41841584">
											<SimplePredicate field="float(x7)" operator="greaterOrEqual" value="1.5"/>
										</Node>
									</Node>
									<Node score="0.6381654">
										<SimplePredicate field="float(x1)" operator="greaterOrEqual" value="-5.25"/>
									</Node>
								</Node>
								<Node score="2.4770942">
									<SimplePredicate field="float(x7)" operator="greaterOrEqual" value="1.5"/>
								</Node>
								<Node score="1.875029">
									<SimplePredicate field="float(x6)" operator="greaterOrEqual" value="18.5"/>
								</Node>
							</Node>
							<Node score="2.8281467">
								<SimplePredicate field="float(x5)" operator="greaterOrEqual" value="4.5"/>
								<Node score="0.7798434">
									<SimplePredicate field="float(x8)" operator="greaterOrEqual" value="3.5"/>
									<Node score="0.24389426">
										<SimplePredicate field="float(x8)" operator="greaterOrEqual" value="4.5"/>
									</Node>
								</Node>
								<Node score="1.8834084">
									<SimplePredicate field="float(x8)" operator="greaterOrEqual" value="2.5"/>
								</Node>
							</Node>
							<Node score="0.127746">
								<SimplePredicate field="timeslot" operator="equal" value="Late Night"/>
								<Node score="0.47973713">
									<SimplePredicate field="float(x5)" operator="greaterOrEqual" value="3.5"/>
								</Node>
							</Node>
							<Node score="0.8648592">
								<SimplePredicate field="float(x7)" operator="greaterOrEqual" value="1.5"/>
							</Node>
						</Node>
						<Node score="1.0610987">
							<SimplePredicate field="float(x5)" operator="greaterOrEqual" value="4.5"/>
							<Node score="5.3002677">
								<SimplePredicate field="float(x1)" operator="greaterOrEqual" value="-9.55"/>
								<Node score="4.370445">
									<SimplePredicate field="float(x8)" operator="greaterOrEqual" value="0.5"/>
									<Node score="2.5293014">
										<SimplePredicate field="float(x6)" operator="greaterOrEqual" value="27.5"/>
									</Node>
								</Node>
							</Node>
						</Node>
						<Node score="1.8550456">
							<SimplePredicate field="float(x5)" operator="greaterOrEqual" value="3.5"/>
							<Node score="0.67313784">
								<SimplePredicate field="float(x8)" operator="greaterOrEqual" value="0.5"/>
								<Node score="1.7694775">
									<SimplePredicate field="float(x7)" operator="greaterOrEqual" value="2.5"/>
								</Node>
							</Node>
							<Node score="3.4187343">
								<SimplePredicate field="float(x7)" operator="greaterOrEqual" value="2.5"/>
							</Node>
						</Node>
						<Node score="0.42660338">
							<SimplePredicate field="float(x8)" operator="greaterOrEqual" value="0.5"/>
							<Node score="0.7966923">
								<SimplePredicate field="float(x5)" operator="greaterOrEqual" value="1.5"/>
							</Node>
						</Node>
						<Node score="1.882272">
							<SimplePredicate field="float(x5)" operator="greaterOrEqual" value="1.5"/>
						</Node>
					</Node>
				</TreeModel>
			</Segment>
			<Segment id="4">
				<True/>
				<TreeModel functionName="regression" noTrueChildStrategy="returnLastPrediction" x-mathContext="float">
					<MiningSchema>
						<MiningField name="timeslot"/>
						<MiningField name="float(x1)"/>
						<MiningField name="float(x2)"/>
						<MiningField name="float(x4)"/>
						<MiningField name="float(x5)"/>
						<MiningField name="float(x6)"/>
						<MiningField name="float(x7)"/>
						<MiningField name="float(x8)"/>
					</MiningSchema>
					<Node score="0.96103305">
						<True/>
						<Node score="4.3698893">
							<SimplePredicate field="float(x8)" operator="greaterOrEqual" value="8.5"/>
							<Node score="3.8145459">
								<SimplePredicate field="timeslot" operator="equal" value="Morning"/>
								<Node score="1.2110449">
									<SimplePredicate field="float(x5)" operator="greaterOrEqual" value="4.5"/>
									<Node score="2.3998778">
										<SimplePredicate field="float(x8)" operator="greaterOrEqual" value="10.5"/>
										<Node score="4.7840734">
											<SimplePredicate field="float(x7)" operator="greaterOrEqual" value="1.5"/>
										</Node>
									</Node>
									<Node score="1.6313015">
										<SimplePredicate field="float(x8)" operator="greaterOrEqual" value="9.5"/>
										<Node score="3.5412233">
											<SimplePredicate field="float(x7)" operator="greaterOrEqual" value="1.5"/>
											<Node score="2.3735237">
												<SimplePredicate field="float(x1)" operator="greaterOrEqual" value="21.400002"/>
											</Node>
										</Node>
									</Node>
									<Node score="2.479176">
										<SimplePredicate field="float(x7)" operator="greaterOrEqual" value="1.5"/>
										<Node score="1.7487602">
											<SimplePredicate field="float(x5)" operator="greaterOrEqual" value="5.5"/>
										</Node>
									</Node>
									<Node score="0.49246916">
										<SimplePredicate field="float(x4)" operator="greaterOrEqual" value="2.6"/>
									</Node>
								</Node>
								<Node score="3.8606033">
									<SimplePredicate field="float(x5)" operator="greaterOrEqual" value="0.5"/>
									<Node score="3.464375">
										<SimplePredicate field="float(x5)" operator="greaterOrEqual" value="3.5"/>
										<Node score="4.4881544">
											<SimplePredicate field="float(x8)" operator="greaterOrEqual" value="9.5"/>
										</Node>
									</Node>
									<Node score="5.0509496">
										<SimplePredicate field="float(x7)" operator="greaterOrEqual" value="1.5"/>
									</Node>
								</Node>
								<Node score="2.7334425">
									<SimplePredicate field="float(x6)" operator="greaterOrEqual" value="5.5"/>
									<Node score="4.2073684">
										<SimplePredicate field="float(x7)" operator="greaterOrEqual" value="1.5"/>
									</Node>
								</Node>
								<Node score="1.085174">
									<SimplePredicate field="float(x1)" operator="greaterOrEqual" value="23.35"/>
								</Node>
							</Node>
							<Node score="2.1145968">
								<SimplePredicate field="float(x8)" operator="greaterOrEqual" value="21.5"/>
								<Node score="0.7279024">
									<SimplePredicate field="float(x5)" operator="greaterOrEqual" value="5.5"/>
									<Node score="0.6990701">
										<SimplePredicate field="float(x8)" operator="greaterOrEqual" value="22.5"/>
										<Node score="1.6901371">
											<SimplePredicate field="float(x7)" operator="greaterOrEqual" value="1.5"/>
										</Node>
									</Node>
									<Node score="3.2246132">
										<SimplePredicate field="float(x7)" operator="greaterOrEqual" value="1.5"/>
									</Node>
								</Node>
								<Node score="5.321233">
									<SimplePredicate field="float(x5)" operator="greaterOrEqual" value="1.5"/>
									<Node score="6.0801954">
										<SimplePredicate field="float(x5)" operator="greaterOrEqual" value="3.5"/>
										<Node score="1.1225332">
											<SimplePredicate field="float(x2)" operator="greaterOrEqual" value="2.375"/>
										</Node>
									</Node>
									<Node score="4.041376">
										<SimplePredicate field="float(x8)" operator="greaterOrEqual" value="22.5"/>
									</Node>
								</Node>
								<Node score="0.663273">
									<SimplePredicate field="float(x8)" operator="greaterOrEqual" value="22.5"/>
									<Node score="2.7862096">
										<SimplePredicate field="float(x7)" operator="greaterOrEqual" value="1.5"/>
									</Node>
								</Node>
								<Node score="4.325907">
									<SimplePredicate field="float(x7)" operator="greaterOrEqual" value="1.5"/>
								</Node>
							</Node>
							<Node score="2.746366">
								<SimplePredicate field="float(x8)" operator="greaterOrEqual" value="14.5"/>
								<Node score="5.990224">
									<SimplePredicate field="float(x5)" operator="greaterOrEqual" value="5.5"/>
									<Node score="2.1824524">
										<SimplePredicate field="float(x8)" operator="greaterOrEqual" value="18.5"/>
										<Node score="4.484301">
											<SimplePredicate field="float(x7)" operator="greaterOrEqual" value="1.5"/>
										</Node>
									</Node>
									<Node score="4.7817073">
										<SimplePredicate field="float(x7)" operator="greaterOrEqual" value="5.5"/>
									</Node>
								</Node>
								<Node score="6.4579234">
									<SimplePredicate field="float(x7)" operator="greaterOrEqual" value="1.5"/>
									<Node score="7.4535995">
										<SimplePredicate field="float(x8)" operator="greaterOrEqual" value="17.5"/>
									</Node>
								</Node>
								<Node score="5.421699">
									<SimplePredicate field="float(x6)" operator="greaterOrEqual" value="5.5"/>
								</Node>
							</Node>
							<Node score="5.0439563">
								<SimplePredicate field="float(x7)" operator="greaterOrEqual" value="1.5"/>
								<Node score="5.3736243">
									<SimplePredicate field="float(x7)" operator="greaterOrEqual" value="5.5"/>
									<Node score="4.8173833">
										<SimplePredicate field="float(x1)" operator="greaterOrEqual" value="25.85"/>
									</Node>
								</Node>
								<Node score="6.166908">
									<SimplePredicate field="float(x5)" operator="greaterOrEqual" value="0.5"/>
								</Node>
							</Node>
							<Node score="1.3939723">
								<SimplePredicate field="float(x2)" operator="greaterOrEqual" value="0.15"/>
							</Node>
						</Node>
						<Node score="3.6147468">
							<SimplePredicate field="float(x8)" operator="greaterOrEqual" value="7.5"/>
							<Node score="1.4431952">
								<SimplePredicate field="float(x5)" operator="greaterOrEqual" value="4.5"/>
								<Node score="0.3371502">
									<SimplePredicate field="float(x5)" operator="greaterOrEqual" value="5.5"/>
									<Node score="0.97331184">
										<SimplePredicate field="float(x1)" operator="greaterOrEqual" value="5.55"/>
									</Node>
									<Node score="0.68884945">
										<SimplePredicate field="float(x6)" operator="greaterOrEqual" value="21.5"/>
									</Node>
								</Node>
								<Node score="0.44239178">
									<SimplePredicate field="float(x2)" operator="greaterOrEqual" value="0.625"/>
								</Node>
							</Node>
							<Node score="1.374703">
								<SimplePredicate field="float(x2)" operator="greaterOrEqual" value="0.125"/>
								<Node score="2.7652936">
									<SimplePredicate field="float(x1)" operator="greaterOrEqual" value="10.0"/>
								</Node>
							</Node>
							<Node score="1.020275">
								<SimplePredicate field="float(x7)" operator="greaterOrEqual" value="6.5"/>
								<Node score="3.1950133">
									<SimplePredicate field="float(x5)" operator="greaterOrEqual" value="0.5"/>
								</Node>
								<Node score="2.6233943">
									<SimplePredicate field="float(x6)" operator="greaterOrEqual" value="6.5"/>
								</Node>
							</Node>
						</Node>
						<Node score="0.1116814">
							<SimplePredicate field="float(x8)" operator="greaterOrEqual" value="1.5"/>
							<Node score="1.6918013">
								<SimplePredicate field="float(x8)" operator="greaterOrEqual" value="6.5"/>
								<Node score="0.37065437">
									<SimplePredicate field="float(x5)" operator="greaterOrEqual" value="4.5"/>
									<Node score="0.60336775">
										<SimplePredicate field="float(x1)" operator="greaterOrEqual" value="5.85"/>
										<Node score="0.39569426">
											<SimplePredicate field="float(x1)" operator="greaterOrEqual" value="19.15"/>
										</Node>
									</Node>
									<Node score="0.20214784">
										<SimplePredicate field="float(x6)" operator="greaterOrEqual" value="15.5"/>
									</Node>
								</Node>
								<Node score="1.5774516">
									<SimplePredicate field="float(x2)" operator="greaterOrEqual" value="0.75"/>
									<Node score="0.5468835">
										<SimplePredicate field="float(x5)" operator="greaterOrEqual" value="3.5"/>
									</Node>
								</Node>
								<Node score="2.257889">
									<SimplePredicate field="float(x5)" operator="greaterOrEqual" value="0.5"/>
								</Node>
							</Node>
							<Node score="2.6683326">
								<SimplePredicate field="float(x5)" operator="greaterOrEqual" value="4.5"/>
								<Node score="0.74441236">
									<SimplePredicate field="float(x8)" operator="greaterOrEqual" value="3.5"/>
									<Node score="0.22233005">
										<SimplePredicate field="float(x8)" operator="greaterOrEqual" value="4.5"/>
									</Node>
								</Node>
								<Node score="1.6280493">
									<SimplePredicate field="float(x8)" operator="greaterOrEqual" value="2.5"/>
								</Node>
							</Node>
							<Node score="0.80723476">
								<SimplePredicate field="timeslot" operator="equal" value="Morning"/>
								<Node score="0.5261155">
									<SimplePredicate field="float(x5)" operator="greaterOrEqual" value="3.5"/>
								</Node>
							</Node>
							<Node score="0.42778826">
								<SimplePredicate field="float(x5)" operator="greaterOrEqual" value="3.5"/>
							</Node>
						</Node>
						<Node score="2.7974944">
							<SimplePredicate field="float(x5)" operator="greaterOrEqual" value="4.5"/>
							<Node score="4.37631">
								<SimplePredicate field="float(x7)" operator="greaterOrEqual" value="1.5"/>
							</Node>
							<Node score="0.74632424">
								<SimplePredicate field="float(x6)" operator="greaterOrEqual" value="26.0"/>
							</Node>
						</Node>
						<Node score="1.1427597">
							<SimplePredicate field="float(x5)" operator="greaterOrEqual" value="3.5"/>
							<Node score="0.63151824">
								<SimplePredicate field="float(x8)" operator="greaterOrEqual" value="0.5"/>
								<Node score="1.6284927">
									<SimplePredicate field="float(x7)" operator="greaterOrEqual" value="2.5"/>
								</Node>
							</Node>
							<Node score="2.9998188">
								<SimplePredicate field="float(x1)" operator="greaterOrEqual" value="1.8"/>
							</Node>
						</Node>
						<Node score="0.34832045">
							<SimplePredicate field="float(x8)" operator="greaterOrEqual" value="0.5"/>
							<Node score="0.6966106">
								<SimplePredicate field="float(x5)" operator="greaterOrEqual" value="1.5"/>
							</Node>
						</Node>
						<Node score="1.716264">
							<SimplePredicate field="float(x5)" operator="greaterOrEqual" value="1.5"/>
						</Node>
					</Node>
				</TreeModel>
			</Segment>
			<Segment id="5">
				<True/>
				<TreeModel functionName="regression" noTrueChildStrategy="returnLastPrediction" x-mathContext="float">
					<MiningSchema>
						<MiningField name="timeslot"/>
						<MiningField name="float(x1)"/>
						<MiningField name="float(x2)"/>
						<MiningField name="float(x6)"/>
						<MiningField name="float(x7)"/>
						<MiningField name="float(x8)"/>
					</MiningSchema>
					<Node score="2.8739252">
						<True/>
						<Node score="1.6617788">
							<SimplePredicate field="float(x8)" operator="greaterOrEqual" value="8.5"/>
							<Node score="3.5374737">
								<SimplePredicate field="timeslot" operator="equal" value="Evening"/>
								<Node score="6.646128">
									<SimplePredicate field="float(x7)" operator="greaterOrEqual" value="1.5"/>
									<Node score="5.8879743">
										<SimplePredicate field="float(x8)" operator="greaterOrEqual" value="19.5"/>
										<Node score="4.0471263">
											<SimplePredicate field="float(x1)" operator="greaterOrEqual" value="21.400002"/>
											<Node score="5.2684884">
												<SimplePredicate field="float(x6)" operator="greaterOrEqual" value="7.5"/>
											</Node>
										</Node>
									</Node>
									<Node score="7.6202273">
										<SimplePredicate field="float(x8)" operator="greaterOrEqual" value="17.5"/>
										<Node score="6.352071">
											<SimplePredicate field="float(x1)" operator="greaterOrEqual" value="21.95"/>
										</Node>
										<Node score="5.881478">
											<SimplePredicate field="float(x7)" operator="greaterOrEqual" value="10.5"/>
										</Node>
									</Node>
									<Node score="3.1107912">
										<SimplePredicate field="float(x7)" operator="greaterOrEqual" value="5.5"/>
										<Node score="5.5460777">
											<SimplePredicate field="float(x1)" operator="greaterOrEqual" value="10.0"/>
										</Node>
									</Node>
								</Node>
								<Node score="5.9862194">
									<SimplePredicate field="float(x6)" operator="greaterOrEqual" value="10.5"/>
									<Node score="0.6823572">
										<SimplePredicate field="float(x6)" operator="greaterOrEqual" value="28.5"/>
										<Node score="3.4399476">
											<SimplePredicate field="float(x1)" operator="greaterOrEqual" value="-6.1"/>
										</Node>
									</Node>
									<Node score="4.349273">
										<SimplePredicate field="float(x8)" operator="greaterOrEqual" value="19.5"/>
										<Node score="2.7544415">
											<SimplePredicate field="float(x1)" operator="greaterOrEqual" value="-0.3"/>
										</Node>
									</Node>
								</Node>
								<Node score="1.2659445">
									<SimplePredicate field="float(x8)" operator="greaterOrEqual" value="19.5"/>
									<Node score="0.58217037">
										<SimplePredicate field="float(x6)" operator="greaterOrEqual" value="8.5"/>
									</Node>
									<Node score="2.6075177">
										<SimplePredicate field="float(x6)" operator="greaterOrEqual" value="5.5"/>
									</Node>
								</Node>
								<Node score="1.6124138">
									<SimplePredicate field="float(x1)" operator="greaterOrEqual" value="11.4"/>
								</Node>
							</Node>
							<Node score="4.221972">
								<SimplePredicate field="float(x8)" operator="greaterOrEqual" value="10.5"/>
								<Node score="0.3724952">
									<SimplePredicate field="float(x8)" operator="greaterOrEqual" value="22.5"/>
									<Node score="3.0313523">
										<SimplePredicate field="float(x7)" operator="greaterOrEqual" value="1.5"/>
										<Node score="3.0471463">
											<SimplePredicate field="float(x1)" operator="greaterOrEqual" value="21.400002"/>
										</Node>
										<Node score="3.963321">
											<SimplePredicate field="float(x1)" operator="greaterOrEqual" value="5.85"/>
										</Node>
									</Node>
									<Node score="2.756535">
										<SimplePredicate field="float(x6)" operator="greaterOrEqual" value="12.0"/>
										<Node score="1.3696522">
											<SimplePredicate field="float(x1)" operator="greaterOrEqual" value="-5.55"/>
										</Node>
									</Node>
									<Node score="1.1077403">
										<SimplePredicate field="float(x1)" operator="greaterOrEqual" value="-3.6"/>
									</Node>
								</Node>
								<Node score="5.729993">
									<SimplePredicate field="float(x7)" operator="greaterOrEqual" value="1.5"/>
									<Node score="5.071157">
										<SimplePredicate field="float(x7)" operator="greaterOrEqual" value="4.5"/>
										<Node score="4.598665">
											<SimplePredicate field="float(x1)" operator="greaterOrEqual" value="21.95"/>
										</Node>
									</Node>
									<Node score="4.727815">
										<SimplePredicate field="timeslot" operator="equal" value="Morning"/>
									</Node>
								</Node>
								<Node score="0.1519056">
									<SimplePredicate field="float(x2)" operator="greaterOrEqual" value="0.125"/>
									<Node score="2.4738913">
										<SimplePredicate field="float(x1)" operator="greaterOrEqual" value="-4.75"/>
									</Node>
								</Node>
								<Node score="2.4377573">
									<SimplePredicate field="timeslot" operator="equal" value="Late Night"/>
								</Node>
							</Node>
							<Node score="2.0912082">
								<SimplePredicate field="float(x7)" operator="greaterOrEqual" value="1.5"/>
								<Node score="4.1476116">
									<SimplePredicate field="float(x8)" operator="greaterOrEqual" value="9.5"/>
									<Node score="3.3156006">
										<SimplePredicate field="float(x1)" operator="greaterOrEqual" value="23.849998"/>
									</Node>
								</Node>
								<Node score="2.7241695">
									<SimplePredicate field="float(x1)" operator="greaterOrEqual" value="25.3"/>
								</Node>
								<Node score="3.4504802">
									<SimplePredicate field="float(x1)" operator="greaterOrEqual" value="-3.05"/>
								</Node>
							</Node>
							<Node score="0.2703399">
								<SimplePredicate field="float(x2)" operator="greaterOrEqual" value="0.75"/>
							</Node>
							<Node score="3.0473158">
								<SimplePredicate field="float(x6)" operator="greaterOrEqual" value="9.5"/>
								<Node score="1.4892981">
									<SimplePredicate field="float(x6)" operator="greaterOrEqual" value="29.0"/>
								</Node>
							</Node>
						</Node>
						<Node score="0.572962">
							<SimplePredicate field="float(x8)" operator="greaterOrEqual" value="7.5"/>
							<Node score="2.0167785">
								<SimplePredicate field="float(x1)" operator="greaterOrEqual" value="-3.6"/>
								<Node score="1.0222596">
									<SimplePredicate field="float(x7)" operator="greaterOrEqual" value="10.5"/>
									<Node score="0.31679568">
										<SimplePredicate field="float(x6)" operator="greaterOrEqual" value="23.5"/>
									</Node>
									<Node score="2.2790375">
										<SimplePredicate field="float(x1)" operator="greaterOrEqual" value="1.6500001"/>
									</Node>
								</Node>
								<Node score="3.1357315">
									<SimplePredicate field="float(x6)" operator="greaterOrEqual" value="5.5"/>
									<Node score="2.519429">
										<SimplePredicate field="float(x1)" operator="greaterOrEqual" value="11.4"/>
									</Node>
									<Node score="1.7035946">
										<SimplePredicate field="float(x2)" operator="greaterOrEqual" value="0.375"/>
									</Node>
								</Node>
							</Node>
							<Node score="1.4252949">
								<SimplePredicate field="float(x6)" operator="greaterOrEqual" value="20.5"/>
							</Node>
						</Node>
						<Node score="0.5731047">
							<SimplePredicate field="float(x8)" operator="greaterOrEqual" value="1.5"/>
							<Node score="0.41066703">
								<SimplePredicate field="float(x8)" operator="greaterOrEqual" value="6.5"/>
								<Node score="1.7124605">
									<SimplePredicate field="float(x7)" operator="greaterOrEqual" value="1.5"/>
									<Node score="0.79116267">
										<SimplePredicate field="float(x1)" operator="greaterOrEqual" value="23.05"/>
										<Node score="1.3125423">
											<SimplePredicate field="float(x6)" operator="greaterOrEqual" value="9.0"/>
										</Node>
									</Node>
									<Node score="1.1202755">
										<SimplePredicate field="float(x7)" operator="greaterOrEqual" value="10.5"/>
									</Node>
								</Node>
								<Node score="0.3549182">
									<SimplePredicate field="float(x2)" operator="greaterOrEqual" value="0.75"/>
								</Node>
								<Node score="1.1673297">
									<SimplePredicate field="float(x6)" operator="greaterOrEqual" value="10.0"/>
								</Node>
							</Node>
							<Node score="0.26250014">
								<SimplePredicate field="float(x8)" operator="greaterOrEqual" value="3.5"/>
								<Node score="0.24495439">
									<SimplePredicate field="timeslot" operator="equal" value="Late Night"/>
									<Node score="0.11156719">
										<SimplePredicate field="float(x8)" operator="greaterOrEqual" value="4.5"/>
									</Node>
								</Node>
								<Node score="0.5536114">
									<SimplePredicate field="float(x7)" operator="greaterOrEqual" value="1.5"/>
								</Node>
							</Node>
							<Node score="0.3516714">
								<SimplePredicate field="float(x8)" operator="greaterOrEqual" value="2.5"/>
								<Node score="0.637793">
									<SimplePredicate field="float(x1)" operator="greaterOrEqual" value="5.85"/>
								</Node>
							</Node>
							<Node score="1.0529388">
								<SimplePredicate field="float(x1)" operator="greaterOrEqual" value="7.5"/>
							</Node>
						</Node>
						<Node score="0.8832657">
							<SimplePredicate field="float(x8)" operator="greaterOrEqual" value="0.5"/>
							<Node score="1.5848356">
								<SimplePredicate field="float(x7)" operator="greaterOrEqual" value="2.5"/>
								<Node score="0.49247453">
									<SimplePredicate field="float(x1)" operator="greaterOrEqual" value="24.7"/>
									<Node score="0.93135417">
										<SimplePredicate field="float(x1)" operator="greaterOrEqual" value="25.3"/>
									</Node>
								</Node>
								<Node score="0.48186707">
									<SimplePredicate field="float(x2)" operator="greaterOrEqual" value="1.625"/>
								</Node>
							</Node>
							<Node score="0.21438466">
								<SimplePredicate field="float(x1)" operator="greaterOrEqual" value="-0.3"/>
								<Node score="1.4197328">
									<SimplePredicate field="float(x1)" operator="greaterOrEqual" value="8.6"/>
								</Node>
							</Node>
							<Node score="1.9535989">
								<SimplePredicate field="float(x1)" operator="greaterOrEqual" value="-1.4000001"/>
							</Node>
						</Node>
						<Node score="2.1292312">
							<SimplePredicate field="float(x1)" operator="greaterOrEqual" value="5.4"/>
							<Node score="1.5990187">
								<SimplePredicate field="float(x6)" operator="greaterOrEqual" value="22.5"/>
								<Node score="2.294766">
									<SimplePredicate field="float(x6)" operator="greaterOrEqual" value="26.5"/>
								</Node>
							</Node>
							<Node score="2.8532987">
								<SimplePredicate field="float(x6)" operator="greaterOrEqual" value="4.5"/>
							</Node>
						</Node>
						<Node score="0.11491392">
							<SimplePredicate field="float(x1)" operator="greaterOrEqual" value="-2.25"/>
							<Node score="1.4532837">
								<SimplePredicate field="float(x6)" operator="greaterOrEqual" value="4.0"/>
							</Node>
						</Node>
						<Node score="0.24364102">
							<SimplePredicate field="float(x6)" operator="greaterOrEqual" value="27.5"/>
						</Node>
					</Node>
				</TreeModel>
			</Segment>
			<Segment id="6">
				<True/>
				<TreeModel functionName="regression" noTrueChildStrategy="returnLastPrediction" x-mathContext="float">
					<MiningSchema>
						<MiningField name="timeslot"/>
						<MiningField name="float(x1)"/>
						<MiningField name="float(x2)"/>
						<MiningField name="float(x3)"/>
						<MiningField name="float(x4)"/>
						<MiningField name="float(x6)"/>
					</MiningSchema>
					<Node score="3.9814415">
						<True/>
						<Node score="0.054880142">
							<SimplePredicate field="timeslot" operator="equal" value="Late Night"/>
							<Node score="0.13687381">
								<SimplePredicate field="float(x1)" operator="greaterOrEqual" value="5.7"/>
								<Node score="2.8881166">
									<SimplePredicate field="float(x1)" operator="greaterOrEqual" value="27.5"/>
									<Node score="0.99364704">
										<SimplePredicate field="float(x6)" operator="greaterOrEqual" value="24.5"/>
									</Node>
								</Node>
								<Node score="1.4674821">
									<SimplePredicate field="float(x2)" operator="greaterOrEqual" value="0.125"/>
									<Node score="2.2689652">
										<SimplePredicate field="float(x6)" operator="greaterOrEqual" value="4.5"/>
										<Node score="0.50605154">
											<SimplePredicate field="float(x1)" operator="greaterOrEqual" value="18.599998"/>
											<Node score="1.2910296">
												<SimplePredicate field="float(x2)" operator="greaterOrEqual" value="0.375"/>
											</Node>
										</Node>
										<Node score="1.3611686">
											<SimplePredicate field="float(x4)" operator="greaterOrEqual" value="2.25"/>
										</Node>
									</Node>
									<Node score="0.78883547">
										<SimplePredicate field="float(x6)" operator="greaterOrEqual" value="1.5"/>
										<Node score="0.13333258">
											<SimplePredicate field="float(x2)" operator="greaterOrEqual" value="0.875"/>
										</Node>
									</Node>
									<Node score="0.18668199">
										<SimplePredicate field="float(x1)" operator="greaterOrEqual" value="18.35"/>
									</Node>
								</Node>
								<Node score="1.6781607">
									<SimplePredicate field="float(x3)" operator="greaterOrEqual" value="8.5"/>
									<Node score="1.4438375">
										<SimplePredicate field="float(x6)" operator="greaterOrEqual" value="16.5"/>
										<Node score="2.039897">
											<SimplePredicate field="float(x1)" operator="greaterOrEqual" value="24.0"/>
										</Node>
									</Node>
									<Node score="2.1865182">
										<SimplePredicate field="float(x4)" operator="greaterOrEqual" value="3.15"/>
									</Node>
								</Node>
								<Node score="1.7763453">
									<SimplePredicate field="float(x1)" operator="greaterOrEqual" value="10.85"/>
									<Node score="0.6462463">
										<SimplePredicate field="float(x3)" operator="greaterOrEqual" value="5.5"/>
									</Node>
								</Node>
								<Node score="-0.04432037">
									<SimplePredicate field="float(x3)" operator="greaterOrEqual" value="4.5"/>
								</Node>
							</Node>
							<Node score="0.093306325">
								<SimplePredicate field="float(x1)" operator="greaterOrEqual" value="-1.25"/>
								<Node score="3.1378264">
									<SimplePredicate field="float(x6)" operator="greaterOrEqual" value="26.0"/>
									<Node score="1.3629056">
										<SimplePredicate field="float(x6)" operator="greaterOrEqual" value="27.5"/>
										<Node score="0.13919686">
											<SimplePredicate field="float(x6)" operator="greaterOrEqual" value="29.5"/>
										</Node>
										<Node score="0.75507915">
											<SimplePredicate field="float(x1)" operator="greaterOrEqual" value="1.95"/>
										</Node>
									</Node>
									<Node score="1.3079184">
										<SimplePredicate field="float(x4)" operator="greaterOrEqual" value="4.6"/>
									</Node>
								</Node>
								<Node score="1.8727636">
									<SimplePredicate field="float(x1)" operator="greaterOrEqual" value="-0.45000002"/>
									<Node score="0.81707287">
										<SimplePredicate field="float(x4)" operator="greaterOrEqual" value="1.0"/>
										<Node score="1.0863447">
											<SimplePredicate field="float(x6)" operator="greaterOrEqual" value="15.5"/>
										</Node>
									</Node>
								</Node>
								<Node score="0.028825581">
									<SimplePredicate field="float(x1)" operator="greaterOrEqual" value="-0.85"/>
									<Node score="0.12681423">
										<SimplePredicate field="float(x6)" operator="greaterOrEqual" value="21.0"/>
									</Node>
								</Node>
								<Node score="0.8089617">
									<SimplePredicate field="float(x4)" operator="greaterOrEqual" value="2.6"/>
								</Node>
							</Node>
							<Node score="0.84230757">
								<SimplePredicate field="float(x1)" operator="greaterOrEqual" value="-3.6"/>
								<Node score="0.25623196">
									<SimplePredicate field="float(x1)" operator="greaterOrEqual" value="-2.35"/>
									<Node score="2.6614282">
										<SimplePredicate field="float(x6)" operator="greaterOrEqual" value="7.5"/>
										<Node score="1.1160969">
											<SimplePredicate field="float(x6)" operator="greaterOrEqual" value="15.5"/>
										</Node>
									</Node>
								</Node>
								<Node score="4.4413543">
									<SimplePredicate field="float(x1)" operator="greaterOrEqual" value="-3.15"/>
									<Node score="1.3102106">
										<SimplePredicate field="float(x6)" operator="greaterOrEqual" value="25.5"/>
									</Node>
								</Node>
								<Node score="2.407151">
									<SimplePredicate field="float(x4)" operator="greaterOrEqual" value="2.85"/>
								</Node>
							</Node>
							<Node score="0.41225892">
								<SimplePredicate field="float(x6)" operator="greaterOrEqual" value="26.5"/>
								<Node score="0.27509147">
									<SimplePredicate field="float(x1)" operator="greaterOrEqual" value="-10.700001"/>
									<Node score="0.020028431">
										<SimplePredicate field="float(x4)" operator="greaterOrEqual" value="2.25"/>
									</Node>
								</Node>
							</Node>
							<Node score="1.3735403">
								<SimplePredicate field="float(x6)" operator="greaterOrEqual" value="4.5"/>
								<Node score="2.6681995">
									<SimplePredicate field="float(x4)" operator="greaterOrEqual" value="5.3999996"/>
								</Node>
							</Node>
							<Node score="0.36458537">
								<SimplePredicate field="float(x6)" operator="greaterOrEqual" value="2.0"/>
							</Node>
						</Node>
						<Node score="-0.3600407">
							<SimplePredicate field="timeslot" operator="equal" value="Morning"/>
							<Node score="2.0029168">
								<SimplePredicate field="float(x1)" operator="greaterOrEqual" value="1.4000001"/>
								<Node score="2.2976866">
									<SimplePredicate field="float(x4)" operator="greaterOrEqual" value="2.35"/>
									<Node score="3.607578">
										<SimplePredicate field="float(x4)" operator="greaterOrEqual" value="3.25"/>
										<Node score="1.7474482">
											<SimplePredicate field="float(x6)" operator="greaterOrEqual" value="18.5"/>
											<Node score="3.445179">
												<SimplePredicate field="float(x1)" operator="greaterOrEqual" value="5.3"/>
											</Node>
										</Node>
										<Node score="2.5767965">
											<SimplePredicate field="float(x3)" operator="greaterOrEqual" value="7.0"/>
										</Node>
									</Node>
									<Node score="3.1761963">
										<SimplePredicate field="float(x1)" operator="greaterOrEqual" value="14.7"/>
										<Node score="2.5790656">
											<SimplePredicate field="float(x1)" operator="greaterOrEqual" value="18.599998"/>
										</Node>
									</Node>
									<Node score="0.754114">
										<SimplePredicate field="float(x1)" operator="greaterOrEqual" value="14.15"/>
									</Node>
								</Node>
								<Node score="3.1319344">
									<SimplePredicate field="float(x1)" operator="greaterOrEqual" value="26.95"/>
								</Node>
								<Node score="2.0401227">
									<SimplePredicate field="float(x1)" operator="greaterOrEqual" value="17.1"/>
									<Node score="0.66952366">
										<SimplePredicate field="float(x6)" operator="greaterOrEqual" value="29.5"/>
									</Node>
								</Node>
								<Node score="2.6824708">
									<SimplePredicate field="float(x1)" operator="greaterOrEqual" value="12.5"/>
								</Node>
							</Node>
							<Node score="0.603264">
								<SimplePredicate field="float(x3)" operator="greaterOrEqual" value="1.5"/>
								<Node score="2.744652">
									<SimplePredicate field="float(x1)" operator="greaterOrEqual" value="-9.7"/>
									<Node score="1.3429091">
										<SimplePredicate field="float(x4)" operator="greaterOrEqual" value="5.95"/>
										<Node score="0.6823451">
											<SimplePredicate field="float(x1)" operator="greaterOrEqual" value="-1.7"/>
										</Node>
									</Node>
									<Node score="1.988636">
										<SimplePredicate field="float(x3)" operator="greaterOrEqual" value="7.0"/>
									</Node>
								</Node>
								<Node score="0.39560413">
									<SimplePredicate field="float(x6)" operator="greaterOrEqual" value="21.5"/>
								</Node>
								<Node score="1.6072577">
									<SimplePredicate field="float(x1)" operator="greaterOrEqual" value="-11.4"/>
								</Node>
							</Node>
							<Node score="1.3630775">
								<SimplePredicate field="float(x1)" operator="greaterOrEqual" value="-1.4000001"/>
							</Node>
							<Node score="0.14964366">
								<SimplePredicate field="float(x1)" operator="greaterOrEqual" value="-8.6"/>
							</Node>
						</Node>
						<Node score="3.5150971">
							<SimplePredicate field="timeslot" operator="equal" value="Afternoon"/>
							<Node score="4.1216555">
								<SimplePredicate field="float(x1)" operator="greaterOrEqual" value="-6.95"/>
								<Node score="4.1947937">
									<SimplePredicate field="float(x1)" operator="greaterOrEqual" value="25.85"/>
								</Node>
								<Node score="4.499149">
									<SimplePredicate field="float(x6)" operator="greaterOrEqual" value="1.5"/>
									<Node score="4.9122076">
										<SimplePredicate field="float(x1)" operator="greaterOrEqual" value="7.5"/>
									</Node>
								</Node>
								<Node score="2.1477458">
									<SimplePredicate field="float(x2)" operator="greaterOrEqual" value="0.375"/>
								</Node>
							</Node>
							<Node score="0.19471289">
								<SimplePredicate field="float(x6)" operator="greaterOrEqual" value="25.0"/>
							</Node>
						</Node>
						<Node score="6.0181365">
							<SimplePredicate field="float(x1)" operator="greaterOrEqual" value="3.95"/>
							<Node score="4.3877006">
								<SimplePredicate field="float(x1)" operator="greaterOrEqual" value="21.400002"/>
								<Node score="5.291496">
									<SimplePredicate field="float(x6)" operator="greaterOrEqual" value="5.5"/>
								</Node>
							</Node>
							<Node score="2.6368735">
								<SimplePredicate field="float(x2)" operator="greaterOrEqual" value="0.125"/>
								<Node score="5.4111447">
									<SimplePredicate field="float(x6)" operator="greaterOrEqual" value="1.5"/>
								</Node>
							</Node>
						</Node>
						<Node score="5.146277">
							<SimplePredicate field="float(x1)" operator="greaterOrEqual" value="-6.95"/>
							<Node score="1.3274932">
								<SimplePredicate field="float(x1)" operator="greaterOrEqual" value="3.05"/>
								<Node score="3.3422754">
									<SimplePredicate field="float(x6)" operator="greaterOrEqual" value="12.0"/>
								</Node>
							</Node>
							<Node score="2.6679833">
								<SimplePredicate field="float(x6)" operator="greaterOrEqual" value="29.5"/>
							</Node>
						</Node>
						<Node score="0.68599814">
							<SimplePredicate field="float(x4)" operator="greaterOrEqual" value="5.1499996"/>
						</Node>
					</Node>
				</TreeModel>
			</Segment>
			<Segment id="7">
				<True/>
				<TreeModel functionName="regression" noTrueChildStrategy="returnLastPrediction" x-mathContext="float">
					<MiningSchema>
						<MiningField name="timeslot"/>
						<MiningField name="float(x1)"/>
						<MiningField name="float(x4)"/>
						<MiningField name="float(x5)"/>
						<MiningField name="float(x6)"/>
						<MiningField name="float(x7)"/>
						<MiningField name="float(x8)"/>
					</MiningSchema>
					<Node score="0.5100152">
						<True/>
						<Node score="2.7966588">
							<SimplePredicate field="float(x8)" operator="greaterOrEqual" value="8.5"/>
							<Node score="0.6903471">
								<SimplePredicate field="float(x5)" operator="greaterOrEqual" value="5.5"/>
								<Node score="2.6821449">
									<SimplePredicate field="float(x8)" operator="greaterOrEqual" value="10.5"/>
									<Node score="1.4490829">
										<SimplePredicate field="float(x8)" operator="greaterOrEqual" value="19.5"/>
										<Node score="0.5460011">
											<SimplePredicate field="float(x8)" operator="greaterOrEqual" value="22.5"/>
											<Node score="0.0013777734">
												<SimplePredicate field="float(x1)" operator="greaterOrEqual" value="23.349998"/>
												<Node score="1.0762155">
													<SimplePredicate field="float(x1)" operator="greaterOrEqual" value="24.7"/>
												</Node>
											</Node>
											<Node score="1.2430356">
												<SimplePredicate field="float(x7)" operator="greaterOrEqual" value="1.5"/>
											</Node>
										</Node>
										<Node score="2.5667682">
											<SimplePredicate field="float(x7)" operator="greaterOrEqual" value="1.5"/>
										</Node>
										<Node score="0.384559">
											<SimplePredicate field="float(x1)" operator="greaterOrEqual" value="2.2"/>
										</Node>
									</Node>
									<Node score="3.2166955">
										<SimplePredicate field="float(x1)" operator="greaterOrEqual" value="25.3"/>
										<Node score="3.2978985">
											<SimplePredicate field="float(x7)" operator="greaterOrEqual" value="6.5"/>
											<Node score="1.7135">
												<SimplePredicate field="timeslot" operator="equal" value="Morning"/>
											</Node>
										</Node>
										<Node score="-0.43632182">
											<SimplePredicate field="float(x6)" operator="greaterOrEqual" value="24.0"/>
										</Node>
									</Node>
									<Node score="4.519484">
										<SimplePredicate field="float(x7)" operator="greaterOrEqual" value="1.5"/>
										<Node score="3.6686485">
											<SimplePredicate field="float(x7)" operator="greaterOrEqual" value="4.5"/>
										</Node>
									</Node>
									<Node score="1.4272732">
										<SimplePredicate field="float(x8)" operator="greaterOrEqual" value="18.5"/>
									</Node>
								</Node>
								<Node score="0.95959216">
									<SimplePredicate field="float(x8)" operator="greaterOrEqual" value="9.5"/>
									<Node score="0.14713664">
										<SimplePredicate field="float(x1)" operator="greaterOrEqual" value="22.5"/>
										<Node score="1.8224995">
											<SimplePredicate field="float(x1)" operator="greaterOrEqual" value="24.7"/>
											<Node score="0.73094976">
												<SimplePredicate field="float(x1)" operator="greaterOrEqual" value="27.5"/>
											</Node>
										</Node>
									</Node>
									<Node score="2.1698835">
										<SimplePredicate field="float(x7)" operator="greaterOrEqual" value="1.5"/>
									</Node>
								</Node>
								<Node score="1.3985268">
									<SimplePredicate field="float(x7)" operator="greaterOrEqual" value="3.5"/>
									<Node score="0.28073406">
										<SimplePredicate field="float(x1)" operator="greaterOrEqual" value="22.75"/>
										<Node score="0.90345114">
											<SimplePredicate field="float(x6)" operator="greaterOrEqual" value="15.5"/>
										</Node>
									</Node>
									<Node score="0.722506">
										<SimplePredicate field="float(x6)" operator="greaterOrEqual" value="18.5"/>
									</Node>
								</Node>
								<Node score="0.2079918">
									<SimplePredicate field="float(x7)" operator="greaterOrEqual" value="2.5"/>
								</Node>
							</Node>
							<Node score="3.205113">
								<SimplePredicate field="float(x8)" operator="greaterOrEqual" value="14.5"/>
								<Node score="1.0726451">
									<SimplePredicate field="timeslot" operator="equal" value="Late Night"/>
									<Node score="1.8284539">
										<SimplePredicate field="float(x5)" operator="greaterOrEqual" value="0.5"/>
										<Node score="2.632479">
											<SimplePredicate field="float(x5)" operator="greaterOrEqual" value="3.5"/>
											<Node score="4.926579">
												<SimplePredicate field="float(x7)" operator="greaterOrEqual" value="1.5"/>
											</Node>
										</Node>
										<Node score="3.673132">
											<SimplePredicate field="float(x7)" operator="greaterOrEqual" value="1.5"/>
										</Node>
									</Node>
									<Node score="1.1219863">
										<SimplePredicate field="float(x8)" operator="greaterOrEqual" value="22.5"/>
										<Node score="1.9574416">
											<SimplePredicate field="float(x7)" operator="greaterOrEqual" value="8.5"/>
										</Node>
									</Node>
									<Node score="2.6745365">
										<SimplePredicate field="float(x6)" operator="greaterOrEqual" value="3.5"/>
									</Node>
								</Node>
								<Node score="2.1604695">
									<SimplePredicate field="float(x5)" operator="greaterOrEqual" value="0.5"/>
									<Node score="6.2627864">
										<SimplePredicate field="float(x8)" operator="greaterOrEqual" value="17.5"/>
										<Node score="4.9657187">
											<SimplePredicate field="float(x8)" operator="greaterOrEqual" value="19.5"/>
										</Node>
									</Node>
									<Node score="4.7994833">
										<SimplePredicate field="float(x1)" operator="greaterOrEqual" value="-6.95"/>
									</Node>
								</Node>
								<Node score="1.3375171">
									<SimplePredicate field="float(x8)" operator="greaterOrEqual" value="19.5"/>
									<Node score="3.3932045">
										<SimplePredicate field="float(x7)" operator="greaterOrEqual" value="1.5"/>
									</Node>
								</Node>
								<Node score="4.4629107">
									<SimplePredicate field="float(x6)" operator="greaterOrEqual" value="5.5"/>
								</Node>
							</Node>
							<Node score="2.979937">
								<SimplePredicate field="float(x8)" operator="greaterOrEqual" value="10.5"/>
								<Node score="3.1801617">
									<SimplePredicate field="float(x5)" operator="greaterOrEqual" value="0.5"/>
									<Node score="4.2995462">
										<SimplePredicate field="float(x7)" operator="greaterOrEqual" value="1.5"/>
										<Node score="3.6997979">
											<SimplePredicate field="float(x1)" operator="greaterOrEqual" value="25.85"/>
										</Node>
									</Node>
									<Node score="0.26313028">
										<SimplePredicate field="float(x6)" operator="greaterOrEqual" value="28.5"/>
									</Node>
								</Node>
								<Node score="2.2061536">
									<SimplePredicate field="float(x6)" operator="greaterOrEqual" value="5.5"/>
									<Node score="3.4336202">
										<SimplePredicate field="float(x7)" operator="greaterOrEqual" value="1.5"/>
									</Node>
								</Node>
								<Node score="1.3912836">
									<SimplePredicate field="float(x1)" operator="greaterOrEqual" value="21.95"/>
								</Node>
							</Node>
							<Node score="0.34769955">
								<SimplePredicate field="float(x5)" operator="greaterOrEqual" value="4.5"/>
								<Node score="2.5802495">
									<SimplePredicate field="float(x8)" operator="greaterOrEqual" value="9.5"/>
									<Node score="0.97697765">
										<SimplePredicate field="float(x6)" operator="greaterOrEqual" value="27.0"/>
									</Node>
								</Node>
								<Node score="1.6997166">
									<SimplePredicate field="float(x7)" operator="greaterOrEqual" value="1.5"/>
								</Node>
							</Node>
							<Node score="3.8448849">
								<SimplePredicate field="float(x5)" operator="greaterOrEqual" value="0.5"/>
								<Node score="3.2535057">
									<SimplePredicate field="float(x7)" operator="greaterOrEqual" value="6.5"/>
								</Node>
							</Node>
							<Node score="1.5426897">
								<SimplePredicate field="float(x1)" operator="greaterOrEqual" value="25.3"/>
							</Node>
						</Node>
						<Node score="1.3536483">
							<SimplePredicate field="float(x8)" operator="greaterOrEqual" value="7.5"/>
							<Node score="-0.14099614">
								<SimplePredicate field="float(x5)" operator="greaterOrEqual" value="4.5"/>
								<Node score="0.4037776">
									<SimplePredicate field="float(x5)" operator="greaterOrEqual" value="5.5"/>
									<Node score="0.56352293">
										<SimplePredicate field="float(x7)" operator="greaterOrEqual" value="5.5"/>
										<Node score="0.287684">
											<SimplePredicate field="float(x1)" operator="greaterOrEqual" value="23.05"/>
										</Node>
									</Node>
									<Node score="-0.006784115">
										<SimplePredicate field="float(x4)" operator="greaterOrEqual" value="2.85"/>
										<Node score="0.2382313">
											<SimplePredicate field="float(x6)" operator="greaterOrEqual" value="21.0"/>
										</Node>
									</Node>
									<Node score="0.1555392">
										<SimplePredicate field="float(x6)" operator="greaterOrEqual" value="19.0"/>
									</Node>
								</Node>
								<Node score="1.1094539">
									<SimplePredicate field="float(x4)" operator="greaterOrEqual" value="2.85"/>
									<Node score="0.21881361">
										<SimplePredicate field="float(x6)" operator="greaterOrEqual" value="26.5"/>
									</Node>
								</Node>
								<Node score="0.87265027">
									<SimplePredicate field="float(x6)" operator="greaterOrEqual" value="3.5"/>
									<Node score="0.42749664">
										<SimplePredicate field="float(x7)" operator="greaterOrEqual" value="7.5"/>
									</Node>
								</Node>
							</Node>
							<Node score="2.2469594">
								<SimplePredicate field="float(x7)" operator="greaterOrEqual" value="10.5"/>
								<Node score="1.5130357">
									<SimplePredicate field="float(x5)" operator="greaterOrEqual" value="2.5"/>
									<Node score="0.20418511">
										<SimplePredicate field="float(x6)" operator="greaterOrEqual" value="17.5"/>
									</Node>
								</Node>
							</Node>
							<Node score="1.6952212">
								<SimplePredicate field="float(x4)" operator="greaterOrEqual" value="1.0"/>
								<Node score="2.0380778">
									<SimplePredicate field="float(x6)" operator="greaterOrEqual" value="2.5"/>
									<Node score="2.7987297">
										<SimplePredicate field="float(x7)" operator="greaterOrEqual" value="1.5"/>
									</Node>
								</Node>
							</Node>
						</Node>
						<Node score="0.42311922">
							<SimplePredicate field="float(x8)" operator="greaterOrEqual" value="1.5"/>
							<Node score="0.63539505">
								<SimplePredicate field="float(x8)" operator="greaterOrEqual" value="6.5"/>
								<Node score="0.2049762">
									<SimplePredicate field="float(x5)" operator="greaterOrEqual" value="4.5"/>
									<Node score="-0.09502927">
										<SimplePredicate field="float(x5)" operator="greaterOrEqual" value="5.5"/>
										<Node score="0.06087063">
											<SimplePredicate field="float(x4)" operator="greaterOrEqual" value="2.35"/>
										</Node>
									</Node>
									<Node score="0.03586289">
										<SimplePredicate field="float(x1)" operator="greaterOrEqual" value="19.15"/>
									</Node>
								</Node>
								<Node score="1.726229">
									<SimplePredicate field="float(x7)" operator="greaterOrEqual" value="1.5"/>
									<Node score="1.3861214">
										<SimplePredicate field="float(x6)" operator="greaterOrEqual" value="19.5"/>
									</Node>
								</Node>
								<Node score="1.2815531">
									<SimplePredicate field="float(x6)" operator="greaterOrEqual" value="17.5"/>
								</Node>
							</Node>
							<Node score="2.1904514">
								<SimplePredicate field="float(x5)" operator="greaterOrEqual" value="4.5"/>
								<Node score="0.467131">
									<SimplePredicate field="float(x8)" operator="greaterOrEqual" value="3.5"/>
									<Node score="-0.0056325775">
										<SimplePredicate field="float(x8)" operator="greaterOrEqual" value="4.5"/>
									</Node>
								</Node>
								<Node score="1.3124768">
									<SimplePredicate field="float(x8)" operator="greaterOrEqual" value="2.5"/>
								</Node>
							</Node>
							<Node score="-0.07697429">
								<SimplePredicate field="timeslot" operator="equal" value="Late Night"/>
								<Node score="0.1722715">
									<SimplePredicate field="float(x5)" operator="greaterOrEqual" value="3.5"/>
								</Node>
							</Node>
							<Node score="0.2813703">
								<SimplePredicate field="float(x5)" operator="greaterOrEqual" value="3.5"/>
							</Node>
						</Node>
						<Node score="2.099883">
							<SimplePredicate field="float(x5)" operator="greaterOrEqual" value="4.5"/>
							<Node score="4.0384116">
								<SimplePredicate field="float(x7)" operator="greaterOrEqual" value="1.5"/>
								<Node score="2.9203908">
									<SimplePredicate field="float(x1)" operator="greaterOrEqual" value="20.3"/>
								</Node>
								<Node score="2.8684053">
									<SimplePredicate field="float(x4)" operator="greaterOrEqual" value="4.35"/>
								</Node>
							</Node>
							<Node score="0.58672744">
								<SimplePredicate field="float(x6)" operator="greaterOrEqual" value="25.5"/>
							</Node>
						</Node>
						<Node score="1.2421561">
							<SimplePredicate field="float(x5)" operator="greaterOrEqual" value="2.5"/>
							<Node score="0.43864736">
								<SimplePredicate field="float(x8)" operator="greaterOrEqual" value="0.5"/>
								<Node score="1.1072963">
									<SimplePredicate field="float(x5)" operator="greaterOrEqual" value="3.5"/>
								</Node>
							</Node>
							<Node score="2.2268534">
								<SimplePredicate field="float(x1)" operator="greaterOrEqual" value="10.15"/>
							</Node>
						</Node>
						<Node score="0.051290262">
							<SimplePredicate field="float(x8)" operator="greaterOrEqual" value="0.5"/>
							<Node score="0.28523594">
								<SimplePredicate field="float(x5)" operator="greaterOrEqual" value="1.5"/>
							</Node>
						</Node>
						<Node score="1.0389861">
							<SimplePredicate field="float(x5)" operator="greaterOrEqual" value="1.5"/>
						</Node>
					</Node>
				</TreeModel>
			</Segment>
			<Segment id="8">
				<True/>
				<TreeModel functionName="regression" noTrueChildStrategy="returnLastPrediction" x-mathContext="float">
					<MiningSchema>
						<MiningField name="timeslot"/>
						<MiningField name="float(x1)"/>
						<MiningField name="float(x2)"/>
						<MiningField name="float(x3)"/>
						<MiningField name="float(x6)"/>
						<MiningField name="float(x7)"/>
						<MiningField name="float(x8)"/>
					</MiningSchema>
					<Node score="1.512582">
						<True/>
						<Node score="0.027574101">
							<SimplePredicate field="float(x8)" operator="greaterOrEqual" value="8.5"/>
							<Node score="1.0386719">
								<SimplePredicate field="timeslot" operator="equal" value="Evening"/>
								<Node score="4.956428">
									<SimplePredicate field="float(x7)" operator="greaterOrEqual" value="1.5"/>
									<Node score="4.1631866">
										<SimplePredicate field="float(x1)" operator="greaterOrEqual" value="20.3"/>
										<Node score="3.3589845">
											<SimplePredicate field="float(x8)" operator="greaterOrEqual" value="20.5"/>
										</Node>
										<Node score="3.6958108">
											<SimplePredicate field="float(x8)" operator="greaterOrEqual" value="17.5"/>
											<Node score="4.5725555">
												<SimplePredicate field="float(x6)" operator="greaterOrEqual" value="6.5"/>
											</Node>
										</Node>
										<Node score="3.2682798">
											<SimplePredicate field="float(x6)" operator="greaterOrEqual" value="16.0"/>
										</Node>
									</Node>
									<Node score="1.5333172">
										<SimplePredicate field="float(x8)" operator="greaterOrEqual" value="19.5"/>
										<Node score="4.545814">
											<SimplePredicate field="float(x7)" operator="greaterOrEqual" value="2.5"/>
											<Node score="2.6661773">
												<SimplePredicate field="float(x2)" operator="greaterOrEqual" value="4.625"/>
											</Node>
										</Node>
										<Node score="3.6875978">
											<SimplePredicate field="float(x6)" operator="greaterOrEqual" value="2.5"/>
										</Node>
									</Node>
									<Node score="5.564637">
										<SimplePredicate field="float(x7)" operator="greaterOrEqual" value="10.5"/>
										<Node score="3.053996">
											<SimplePredicate field="float(x6)" operator="greaterOrEqual" value="10.5"/>
										</Node>
									</Node>
									<Node score="5.7473216">
										<SimplePredicate field="float(x8)" operator="greaterOrEqual" value="17.5"/>
									</Node>
								</Node>
								<Node score="1.6660957">
									<SimplePredicate field="float(x6)" operator="greaterOrEqual" value="10.5"/>
									<Node score="0.1398534">
										<SimplePredicate field="float(x6)" operator="greaterOrEqual" value="28.5"/>
										<Node score="2.4765506">
											<SimplePredicate field="float(x1)" operator="greaterOrEqual" value="-6.1"/>
										</Node>
									</Node>
									<Node score="2.314906">
										<SimplePredicate field="float(x8)" operator="greaterOrEqual" value="20.5"/>
										<Node score="0.9914284">
											<SimplePredicate field="float(x1)" operator="greaterOrEqual" value="0.55"/>
										</Node>
									</Node>
									<Node score="3.872189">
										<SimplePredicate field="float(x3)" operator="greaterOrEqual" value="6.5"/>
									</Node>
								</Node>
								<Node score="0.416025">
									<SimplePredicate field="float(x8)" operator="greaterOrEqual" value="19.5"/>
									<Node score="0.17151658">
										<SimplePredicate field="float(x6)" operator="greaterOrEqual" value="8.5"/>
									</Node>
									<Node score="1.4410542">
										<SimplePredicate field="float(x6)" operator="greaterOrEqual" value="5.5"/>
									</Node>
								</Node>
								<Node score="2.7795084">
									<SimplePredicate field="float(x6)" operator="greaterOrEqual" value="2.5"/>
									<Node score="1.3409257">
										<SimplePredicate field="float(x2)" operator="greaterOrEqual" value="0.25"/>
									</Node>
								</Node>
							</Node>
							<Node score="2.1977334">
								<SimplePredicate field="timeslot" operator="equal" value="Afternoon"/>
								<Node score="-0.28444216">
									<SimplePredicate field="float(x7)" operator="greaterOrEqual" value="5.5"/>
									<Node score="3.1088912">
										<SimplePredicate field="float(x1)" operator="greaterOrEqual" value="9.15"/>
										<Node score="4.0340757">
											<SimplePredicate field="float(x7)" operator="greaterOrEqual" value="9.5"/>
										</Node>
										<Node score="3.5693452">
											<SimplePredicate field="float(x8)" operator="greaterOrEqual" value="13.5"/>
										</Node>
									</Node>
									<Node score="1.3522896">
										<SimplePredicate field="float(x6)" operator="greaterOrEqual" value="17.5"/>
										<Node score="3.2859623">
											<SimplePredicate field="float(x1)" operator="greaterOrEqual" value="2.5"/>
										</Node>
									</Node>
									<Node score="1.5470217">
										<SimplePredicate field="float(x1)" operator="greaterOrEqual" value="6.3999996"/>
									</Node>
								</Node>
								<Node score="3.8718224">
									<SimplePredicate field="float(x7)" operator="greaterOrEqual" value="1.5"/>
									<Node score="4.639437">
										<SimplePredicate field="float(x8)" operator="greaterOrEqual" value="13.5"/>
										<Node score="3.844204">
											<SimplePredicate field="float(x7)" operator="greaterOrEqual" value="4.5"/>
										</Node>
									</Node>
								</Node>
								<Node score="0.5976334">
									<SimplePredicate field="float(x2)" operator="greaterOrEqual" value="0.15"/>
									<Node score="1.6422943">
										<SimplePredicate field="float(x1)" operator="greaterOrEqual" value="-1.7"/>
									</Node>
								</Node>
								<Node score="3.3873158">
									<SimplePredicate field="float(x6)" operator="greaterOrEqual" value="7.5"/>
								</Node>
							</Node>
							<Node score="2.8999698">
								<SimplePredicate field="float(x7)" operator="greaterOrEqual" value="1.5"/>
								<Node score="3.5358708">
									<SimplePredicate field="float(x8)" operator="greaterOrEqual" value="9.5"/>
									<Node score="2.7676356">
										<SimplePredicate field="float(x8)" operator="greaterOrEqual" value="22.5"/>
										<Node score="2.1367483">
											<SimplePredicate field="float(x1)" operator="greaterOrEqual" value="21.400002"/>
										</Node>
									</Node>
									<Node score="2.791948">
										<SimplePredicate field="float(x1)" operator="greaterOrEqual" value="23.05"/>
									</Node>
								</Node>
								<Node score="1.3091091">
									<SimplePredicate field="float(x1)" operator="greaterOrEqual" value="17.5"/>
									<Node score="2.2470226">
										<SimplePredicate field="float(x6)" operator="greaterOrEqual" value="5.5"/>
									</Node>
								</Node>
								<Node score="1.7122763">
									<SimplePredicate field="float(x7)" operator="greaterOrEqual" value="10.5"/>
								</Node>
							</Node>
							<Node score="1.8201078">
								<SimplePredicate field="float(x6)" operator="greaterOrEqual" value="2.5"/>
								<Node score="-0.19103779">
									<SimplePredicate field="float(x6)" operator="greaterOrEqual" value="28.5"/>
									<Node score="1.6847142">
										<SimplePredicate field="float(x6)" operator="greaterOrEqual" value="29.5"/>
									</Node>
								</Node>
								<Node score="2.6651628">
									<SimplePredicate field="float(x6)" operator="greaterOrEqual" value="18.5"/>
								</Node>
							</Node>
							<Node score="0.7582118">
								<SimplePredicate field="timeslot" operator="equal" value="Morning"/>
							</Node>
						</Node>
						<Node score="1.4051691">
							<SimplePredicate field="float(x8)" operator="greaterOrEqual" value="7.5"/>
							<Node score="1.3503256">
								<SimplePredicate field="float(x1)" operator="greaterOrEqual" value="-3.6"/>
								<Node score="2.3658185">
									<SimplePredicate field="float(x6)" operator="greaterOrEqual" value="6.5"/>
									<Node score="1.5670294">
										<SimplePredicate field="float(x7)" operator="greaterOrEqual" value="10.5"/>
										<Node score="0.4419363">
											<SimplePredicate field="float(x1)" operator="greaterOrEqual" value="9.15"/>
										</Node>
									</Node>
									<Node score="0.8599682">
										<SimplePredicate field="float(x2)" operator="greaterOrEqual" value="0.375"/>
									</Node>
									<Node score="1.9134687">
										<SimplePredicate field="float(x1)" operator="greaterOrEqual" value="12.5"/>
									</Node>
								</Node>
								<Node score="1.8298978">
									<SimplePredicate field="float(x1)" operator="greaterOrEqual" value="18.05"/>
									<Node score="0.28715035">
										<SimplePredicate field="float(x6)" operator="greaterOrEqual" value="3.5"/>
										<Node score="1.4808401">
											<SimplePredicate field="float(x1)" operator="greaterOrEqual" value="25.55"/>
										</Node>
									</Node>
									<Node score="0.7190303">
										<SimplePredicate field="float(x7)" operator="greaterOrEqual" value="8.5"/>
									</Node>
								</Node>
								<Node score="1.531076">
									<SimplePredicate field="float(x7)" operator="greaterOrEqual" value="3.5"/>
									<Node score="2.5615432">
										<SimplePredicate field="float(x6)" operator="greaterOrEqual" value="3.5"/>
									</Node>
								</Node>
								<Node score="0.5769772">
									<SimplePredicate field="float(x6)" operator="greaterOrEqual" value="4.0"/>
								</Node>
							</Node>
							<Node score="0.57704186">
								<SimplePredicate field="float(x1)" operator="greaterOrEqual" value="-5.85"/>
							</Node>
						</Node>
						<Node score="0.6847847">
							<SimplePredicate field="float(x8)" operator="greaterOrEqual" value="1.5"/>
							<Node score="0.5182353">
								<SimplePredicate field="float(x8)" operator="greaterOrEqual" value="6.5"/>
								<Node score="1.2101594">
									<SimplePredicate field="float(x7)" operator="greaterOrEqual" value="1.5"/>
									<Node score="0.24177094">
										<SimplePredicate field="float(x1)" operator="greaterOrEqual" value="19.15"/>
										<Node score="0.9543063">
											<SimplePredicate field="float(x6)" operator="greaterOrEqual" value="4.5"/>
										</Node>
									</Node>
									<Node score="0.8466054">
										<SimplePredicate field="float(x7)" operator="greaterOrEqual" value="10.5"/>
									</Node>
								</Node>
								<Node score="1.1051512">
									<SimplePredicate field="float(x6)" operator="greaterOrEqual" value="23.5"/>
								</Node>
								<Node score="0.15823723">
									<SimplePredicate field="float(x6)" operator="greaterOrEqual" value="15.5"/>
								</Node>
							</Node>
							<Node score="0.4060144">
								<SimplePredicate field="float(x8)" operator="greaterOrEqual" value="2.5"/>
								<Node score="0.013332183">
									<SimplePredicate field="float(x8)" operator="greaterOrEqual" value="3.5"/>
									<Node score="0.2447213">
										<SimplePredicate field="timeslot" operator="equal" value="Morning"/>
									</Node>
								</Node>
								<Node score="0.17644766">
									<SimplePredicate field="float(x1)" operator="greaterOrEqual" value="20.3"/>
								</Node>
							</Node>
							<Node score="0.22208937">
								<SimplePredicate field="float(x7)" operator="greaterOrEqual" value="9.5"/>
								<Node score="1.2370847">
									<SimplePredicate field="float(x1)" operator="greaterOrEqual" value="7.5"/>
								</Node>
							</Node>
							<Node score="0.40200672">
								<SimplePredicate field="float(x7)" operator="greaterOrEqual" value="6.5"/>
							</Node>
						</Node>
						<Node score="1.0358748">
							<SimplePredicate field="float(x8)" operator="greaterOrEqual" value="0.5"/>
							<Node score="1.1448596">
								<SimplePredicate field="float(x7)" operator="greaterOrEqual" value="1.5"/>
								<Node score="0.87870455">
									<SimplePredicate field="float(x1)" operator="greaterOrEqual" value="16.95"/>
									<Node score="0.36338887">
										<SimplePredicate field="float(x2)" operator="greaterOrEqual" value="0.125"/>
									</Node>
								</Node>
								<Node score="2.2090745">
									<SimplePredicate field="float(x1)" operator="greaterOrEqual" value="16.400002"/>
								</Node>
							</Node>
							<Node score="0.8676409">
								<SimplePredicate field="float(x6)" operator="greaterOrEqual" value="9.5"/>
								<Node score="0.094695196">
									<SimplePredicate field="float(x1)" operator="greaterOrEqual" value="-6.3999996"/>
								</Node>
							</Node>
						</Node>
						<Node score="-0.034727287">
							<SimplePredicate field="float(x7)" operator="greaterOrEqual" value="1.5"/>
							<Node score="1.8910675">
								<SimplePredicate field="float(x6)" operator="greaterOrEqual" value="1.5"/>
								<Node score="0.7322945">
									<SimplePredicate field="float(x2)" operator="greaterOrEqual" value="1.75"/>
								</Node>
							</Node>
							<Node score="1.4220738">
								<SimplePredicate field="float(x1)" operator="greaterOrEqual" value="8.35"/>
							</Node>
						</Node>
						<Node score="-0.15372242">
							<SimplePredicate field="float(x1)" operator="greaterOrEqual" value="-5.45"/>
							<Node score="0.20599094">
								<SimplePredicate field="float(x6)" operator="greaterOrEqual" value="9.0"/>
							</Node>
						</Node>
					</Node>
				</TreeModel>
			</Segment>
			<Segment id="9">
				<True/>
				<TreeModel functionName="regression" noTrueChildStrategy="returnLastPrediction" x-mathContext="float">
					<MiningSchema>
						<MiningField name="timeslot"/>
						<MiningField name="float(x1)"/>
						<MiningField name="float(x2)"/>
						<MiningField name="float(x5)"/>
						<MiningField name="float(x6)"/>
						<MiningField name="float(x7)"/>
						<MiningField name="float(x8)"/>
					</MiningSchema>
					<Node score="0.33017662">
						<True/>
						<Node score="2.7371042">
							<SimplePredicate field="float(x8)" operator="greaterOrEqual" value="8.5"/>
							<Node score="2.6652615">
								<SimplePredicate field="timeslot" operator="equal" value="Evening"/>
								<Node score="1.9725084">
									<SimplePredicate field="float(x5)" operator="greaterOrEqual" value="5.5"/>
									<Node score="1.124638">
										<SimplePredicate field="float(x8)" operator="greaterOrEqual" value="18.5"/>
										<Node score="0.65713596">
											<SimplePredicate field="float(x1)" operator="greaterOrEqual" value="0.85"/>
											<Node score="2.3322437">
												<SimplePredicate field="float(x7)" operator="greaterOrEqual" value="1.5"/>
											</Node>
										</Node>
									</Node>
									<Node score="1.5298326">
										<SimplePredicate field="float(x7)" operator="greaterOrEqual" value="10.5"/>
									</Node>
									<Node score="3.6974297">
										<SimplePredicate field="float(x7)" operator="greaterOrEqual" value="1.5"/>
										<Node score="2.5455961">
											<SimplePredicate field="float(x1)" operator="greaterOrEqual" value="24.15"/>
										</Node>
									</Node>
								</Node>
								<Node score="4.4842916">
									<SimplePredicate field="float(x7)" operator="greaterOrEqual" value="1.5"/>
									<Node score="4.998965">
										<SimplePredicate field="float(x5)" operator="greaterOrEqual" value="0.5"/>
										<Node score="4.3971014">
											<SimplePredicate field="float(x1)" operator="greaterOrEqual" value="21.400002"/>
											<Node score="3.613327">
												<SimplePredicate field="float(x8)" operator="greaterOrEqual" value="19.5"/>
											</Node>
										</Node>
										<Node score="3.9395542">
											<SimplePredicate field="float(x7)" operator="greaterOrEqual" value="10.5"/>
										</Node>
									</Node>
									<Node score="1.8171915">
										<SimplePredicate field="float(x8)" operator="greaterOrEqual" value="18.5"/>
										<Node score="2.9726636">
											<SimplePredicate field="float(x6)" operator="greaterOrEqual" value="5.5"/>
										</Node>
									</Node>
									<Node score="3.2601602">
										<SimplePredicate field="float(x1)" operator="greaterOrEqual" value="22.5"/>
									</Node>
								</Node>
								<Node score="1.8411072">
									<SimplePredicate field="float(x6)" operator="greaterOrEqual" value="13.5"/>
									<Node score="0.59148836">
										<SimplePredicate field="float(x6)" operator="greaterOrEqual" value="28.5"/>
									</Node>
									<Node score="3.8791432">
										<SimplePredicate field="float(x5)" operator="greaterOrEqual" value="0.5"/>
									</Node>
								</Node>
								<Node score="0.5605337">
									<SimplePredicate field="float(x8)" operator="greaterOrEqual" value="18.5"/>
									<Node score="1.5835065">
										<SimplePredicate field="float(x6)" operator="greaterOrEqual" value="5.5"/>
									</Node>
								</Node>
							</Node>
							<Node score="-0.024973465">
								<SimplePredicate field="float(x5)" operator="greaterOrEqual" value="5.5"/>
								<Node score="1.8103741">
									<SimplePredicate field="float(x8)" operator="greaterOrEqual" value="10.5"/>
									<Node score="0.9366962">
										<SimplePredicate field="timeslot" operator="equal" value="Late Night"/>
										<Node score="0.9054519">
											<SimplePredicate field="float(x8)" operator="greaterOrEqual" value="22.5"/>
											<Node score="0.4246119">
												<SimplePredicate field="float(x7)" operator="greaterOrEqual" value="8.5"/>
											</Node>
										</Node>
										<Node score="1.6294199">
											<SimplePredicate field="float(x1)" operator="greaterOrEqual" value="3.6"/>
										</Node>
									</Node>
									<Node score="1.4059281">
										<SimplePredicate field="float(x1)" operator="greaterOrEqual" value="25.3"/>
										<Node score="2.4861963">
											<SimplePredicate field="float(x8)" operator="greaterOrEqual" value="12.5"/>
										</Node>
									</Node>
									<Node score="3.1975892">
										<SimplePredicate field="float(x6)" operator="greaterOrEqual" value="2.5"/>
									</Node>
								</Node>
								<Node score="0.7958625">
									<SimplePredicate field="float(x8)" operator="greaterOrEqual" value="9.5"/>
									<Node score="1.066167">
										<SimplePredicate field="float(x1)" operator="greaterOrEqual" value="22.5"/>
										<Node score="0.12939091">
											<SimplePredicate field="float(x6)" operator="greaterOrEqual" value="17.5"/>
										</Node>
									</Node>
									<Node score="1.7985948">
										<SimplePredicate field="float(x7)" operator="greaterOrEqual" value="1.5"/>
									</Node>
								</Node>
								<Node score="0.87540597">
									<SimplePredicate field="float(x7)" operator="greaterOrEqual" value="3.5"/>
									<Node score="0.43065628">
										<SimplePredicate field="float(x6)" operator="greaterOrEqual" value="26.0"/>
									</Node>
								</Node>
								<Node score="0.4246047">
									<SimplePredicate field="float(x6)" operator="greaterOrEqual" value="16.5"/>
								</Node>
							</Node>
							<Node score="3.119573">
								<SimplePredicate field="float(x5)" operator="greaterOrEqual" value="0.5"/>
								<Node score="2.7682784">
									<SimplePredicate field="float(x8)" operator="greaterOrEqual" value="10.5"/>
									<Node score="3.7234867">
										<SimplePredicate field="float(x7)" operator="greaterOrEqual" value="1.5"/>
										<Node score="3.2224672">
											<SimplePredicate field="float(x1)" operator="greaterOrEqual" value="21.95"/>
										</Node>
									</Node>
									<Node score="0.026801148">
										<SimplePredicate field="float(x6)" operator="greaterOrEqual" value="28.5"/>
									</Node>
								</Node>
								<Node score="1.7053922">
									<SimplePredicate field="float(x5)" operator="greaterOrEqual" value="4.5"/>
									<Node score="-0.3830564">
										<SimplePredicate field="float(x2)" operator="greaterOrEqual" value="0.75"/>
									</Node>
								</Node>
								<Node score="2.4102988">
									<SimplePredicate field="float(x5)" operator="greaterOrEqual" value="3.5"/>
								</Node>
							</Node>
							<Node score="0.1902952">
								<SimplePredicate field="float(x8)" operator="greaterOrEqual" value="22.5"/>
								<Node score="0.7254762">
									<SimplePredicate field="float(x6)" operator="greaterOrEqual" value="3.5"/>
									<Node score="1.335449">
										<SimplePredicate field="float(x7)" operator="greaterOrEqual" value="4.5"/>
									</Node>
								</Node>
							</Node>
							<Node score="2.2616901">
								<SimplePredicate field="float(x6)" operator="greaterOrEqual" value="5.5"/>
								<Node score="2.8711815">
									<SimplePredicate field="float(x7)" operator="greaterOrEqual" value="2.5"/>
								</Node>
							</Node>
							<Node score="1.422545">
								<SimplePredicate field="float(x1)" operator="greaterOrEqual" value="11.95"/>
							</Node>
						</Node>
						<Node score="1.7112345">
							<SimplePredicate field="float(x8)" operator="greaterOrEqual" value="7.5"/>
							<Node score="-0.05217525">
								<SimplePredicate field="float(x5)" operator="greaterOrEqual" value="4.5"/>
								<Node score="0.19164895">
