<?xml version="1.0" encoding="UTF-8" standalone="yes"?>
<PMML xmlns="http://www.dmg.org/PMML-4_4" xmlns:data="http://jpmml.org/jpmml-model/InlineTable" version="4.4">
	<Header>
		<Application name="SkLearn2PMML package" version="0.95.0"/>
		<Timestamp>2023-07-21T22:21:24Z</Timestamp>
	</Header>
	<DataDictionary>
		<DataField name="y" optype="continuous" dataType="double"/>
		<DataField name="timeslot" optype="categorical" dataType="string">
			<Value value="Afternoon"/>
			<Value value="Evening"/>
			<Value value="Late Night"/>
			<Value value="Morning"/>
		</DataField>
		<DataField name="x1" optype="continuous" dataType="double"/>
		<DataField name="x2" optype="continuous" dataType="double"/>
		<DataField name="x3" optype="continuous" dataType="double"/>
		<DataField name="x4" optype="continuous" dataType="double"/>
		<DataField name="x5" optype="continuous" dataType="double"/>
		<DataField name="x6" optype="continuous" dataType="double"/>
		<DataField name="x7" optype="continuous" dataType="double"/>
		<DataField name="x8" optype="continuous" dataType="double"/>
	</DataDictionary>
	<MiningModel functionName="regression" algorithmName="XGBoost (GBTree)" x-mathContext="float">
		<MiningSchema>
			<MiningField name="y" usageType="target"/>
			<MiningField name="timeslot" invalidValueTreatment="asIs"/>
			<MiningField name="x1"/>
			<MiningField name="x2"/>
			<MiningField name="x3"/>
			<MiningField name="x4"/>
			<MiningField name="x5"/>
			<MiningField name="x6"/>
			<MiningField name="x7"/>
			<MiningField name="x8"/>
		</MiningSchema>
		<Targets>
			<Target field="y" rescaleConstant="0.5"/>
		</Targets>
		<LocalTransformations>
			<DerivedField name="float(x1)" optype="continuous" dataType="float">
				<FieldRef field="x1"/>
			</DerivedField>
			<DerivedField name="float(x2)" optype="continuous" dataType="float">
				<FieldRef field="x2"/>
			</DerivedField>
			<DerivedField name="float(x3)" optype="continuous" dataType="float">
				<FieldRef field="x3"/>
			</DerivedField>
			<DerivedField name="float(x4)" optype="continuous" dataType="float">
				<FieldRef field="x4"/>
			</DerivedField>
			<DerivedField name="float(x5)" optype="continuous" dataType="float">
				<FieldRef field="x5"/>
			</DerivedField>
			<DerivedField name="float(x6)" optype="continuous" dataType="float">
				<FieldRef field="x6"/>
			</DerivedField>
			<DerivedField name="float(x7)" optype="continuous" dataType="float">
				<FieldRef field="x7"/>
			</DerivedField>
			<DerivedField name="float(x8)" optype="continuous" dataType="float">
				<FieldRef field="x8"/>
			</DerivedField>
		</LocalTransformations>
		<Segmentation multipleModelMethod="sum" missingPredictionTreatment="returnMissing">
			<Segment id="1">
				<True/>
				<TreeModel functionName="regression" noTrueChildStrategy="returnLastPrediction" x-mathContext="float">
					<MiningSchema>
						<MiningField name="timeslot"/>
						<MiningField name="float(x1)"/>
						<MiningField name="float(x2)"/>
						<MiningField name="float(x3)"/>
						<MiningField name="float(x4)"/>
						<MiningField name="float(x5)"/>
						<MiningField name="float(x6)"/>
						<MiningField name="float(x7)"/>
						<MiningField name="float(x8)"/>
					</MiningSchema>
					<Node score="8.626087">
						<True/>
						<Node score="30.491314">
							<SimplePredicate field="float(x8)" operator="greaterOrEqual" value="8.5"/>
							<Node score="27.813158">
								<SimplePredicate field="timeslot" operator="equal" value="Evening"/>
								<Node score="26.240002">
									<SimplePredicate field="float(x5)" operator="greaterOrEqual" value="5.5"/>
									<Node score="28.742468">
										<SimplePredicate field="float(x8)" operator="greaterOrEqual" value="19.5"/>
									</Node>
									<Node score="36.259094">
										<SimplePredicate field="float(x7)" operator="greaterOrEqual" value="1.5"/>
									</Node>
								</Node>
								<Node score="21.790909">
									<SimplePredicate field="float(x5)" operator="greaterOrEqual" value="0.5"/>
									<Node score="52.688625">
										<SimplePredicate field="float(x7)" operator="greaterOrEqual" value="1.5"/>
										<Node score="47.629745">
											<SimplePredicate field="float(x7)" operator="greaterOrEqual" value="6.5"/>
										</Node>
									</Node>
									<Node score="37.85074">
										<SimplePredicate field="float(x6)" operator="greaterOrEqual" value="5.5"/>
									</Node>
								</Node>
								<Node score="41.404457">
									<SimplePredicate field="float(x7)" operator="greaterOrEqual" value="1.5"/>
									<Node score="34.668182">
										<SimplePredicate field="float(x8)" operator="greaterOrEqual" value="19.5"/>
									</Node>
								</Node>
								<Node score="15.125001">
									<SimplePredicate field="float(x8)" operator="greaterOrEqual" value="20.5"/>
								</Node>
							</Node>
							<Node score="24.790678">
								<SimplePredicate field="timeslot" operator="equal" value="Morning"/>
								<Node score="14.445834">
									<SimplePredicate field="float(x5)" operator="greaterOrEqual" value="5.5"/>
									<Node score="18.545454">
										<SimplePredicate field="float(x8)" operator="greaterOrEqual" value="9.5"/>
										<Node score="27.653734">
											<SimplePredicate field="float(x7)" operator="greaterOrEqual" value="1.5"/>
										</Node>
									</Node>
								</Node>
								<Node score="26.687386">
									<SimplePredicate field="float(x7)" operator="greaterOrEqual" value="1.5"/>
									<Node score="30.58031">
										<SimplePredicate field="float(x5)" operator="greaterOrEqual" value="0.5"/>
									</Node>
								</Node>
								<Node score="7.8">
									<SimplePredicate field="float(x1)" operator="greaterOrEqual" value="8.35"/>
								</Node>
							</Node>
							<Node score="35.471237">
								<SimplePredicate field="float(x5)" operator="greaterOrEqual" value="0.5"/>
								<Node score="19.638311">
									<SimplePredicate field="float(x5)" operator="greaterOrEqual" value="5.5"/>
									<Node score="33.17684">
										<SimplePredicate field="timeslot" operator="equal" value="Afternoon"/>
									</Node>
								</Node>
								<Node score="40.398804">
									<SimplePredicate field="float(x8)" operator="greaterOrEqual" value="15.5"/>
								</Node>
							</Node>
							<Node score="7.7000003">
								<SimplePredicate field="float(x8)" operator="greaterOrEqual" value="22.5"/>
								<Node score="17.719738">
									<SimplePredicate field="float(x7)" operator="greaterOrEqual" value="1.5"/>
								</Node>
							</Node>
						</Node>
						<Node score="21.433245">
							<SimplePredicate field="float(x8)" operator="greaterOrEqual" value="6.5"/>
							<Node score="3.9">
								<SimplePredicate field="float(x5)" operator="greaterOrEqual" value="4.5"/>
								<Node score="13.175676">
									<SimplePredicate field="float(x8)" operator="greaterOrEqual" value="7.5"/>
									<Node score="9.0236845">
										<SimplePredicate field="float(x5)" operator="greaterOrEqual" value="5.5"/>
									</Node>
									<Node score="2.3">
										<SimplePredicate field="float(x2)" operator="greaterOrEqual" value="0.625"/>
									</Node>
								</Node>
								<Node score="6.0692315">
									<SimplePredicate field="float(x5)" operator="greaterOrEqual" value="5.5"/>
								</Node>
								<Node score="8.415">
									<SimplePredicate field="float(x1)" operator="greaterOrEqual" value="-7.2"/>
								</Node>
							</Node>
							<Node score="7.8750005">
								<SimplePredicate field="float(x8)" operator="greaterOrEqual" value="7.5"/>
								<Node score="0.0">
									<SimplePredicate field="float(x7)" operator="greaterOrEqual" value="11.5"/>
								</Node>
								<Node score="27.070444">
									<SimplePredicate field="float(x3)" operator="greaterOrEqual" value="1.5"/>
								</Node>
							</Node>
						</Node>
						<Node score="28.192106">
							<SimplePredicate field="float(x5)" operator="greaterOrEqual" value="4.5"/>
							<Node score="18.805555">
								<SimplePredicate field="float(x8)" operator="greaterOrEqual" value="2.5"/>
								<Node score="8.225">
									<SimplePredicate field="float(x8)" operator="greaterOrEqual" value="3.5"/>
									<Node score="3.8458862">
										<SimplePredicate field="float(x8)" operator="greaterOrEqual" value="4.5"/>
									</Node>
								</Node>
								<Node score="7.7000003">
									<SimplePredicate field="float(x4)" operator="greaterOrEqual" value="5.85"/>
								</Node>
							</Node>
							<Node score="29.32">
								<SimplePredicate field="float(x8)" operator="greaterOrEqual" value="1.5"/>
								<Node score="11.55">
									<SimplePredicate field="float(x2)" operator="greaterOrEqual" value="1.125"/>
								</Node>
							</Node>
							<Node score="41.810528">
								<SimplePredicate field="float(x7)" operator="greaterOrEqual" value="1.5"/>
							</Node>
						</Node>
						<Node score="7.5473685">
							<SimplePredicate field="float(x8)" operator="greaterOrEqual" value="0.5"/>
							<Node score="7.467568">
								<SimplePredicate field="timeslot" operator="equal" value="Late Night"/>
								<Node score="2.7835293">
									<SimplePredicate field="float(x8)" operator="greaterOrEqual" value="1.5"/>
								</Node>
							</Node>
							<Node score="10.746668">
								<SimplePredicate field="float(x7)" operator="greaterOrEqual" value="1.5"/>
							</Node>
						</Node>
						<Node score="12.420001">
							<SimplePredicate field="float(x5)" operator="greaterOrEqual" value="3.5"/>
							<Node score="27.150002">
								<SimplePredicate field="float(x7)" operator="greaterOrEqual" value="1.5"/>
							</Node>
						</Node>
						<Node score="14.366883">
							<SimplePredicate field="float(x5)" operator="greaterOrEqual" value="1.5"/>
						</Node>
					</Node>
				</TreeModel>
			</Segment>
			<Segment id="2">
				<True/>
				<TreeModel functionName="regression" noTrueChildStrategy="returnLastPrediction" x-mathContext="float">
					<MiningSchema>
						<MiningField name="timeslot"/>
						<MiningField name="float(x1)"/>
						<MiningField name="float(x2)"/>
						<MiningField name="float(x3)"/>
						<MiningField name="float(x4)"/>
						<MiningField name="float(x5)"/>
						<MiningField name="float(x7)"/>
						<MiningField name="float(x8)"/>
					</MiningSchema>
					<Node score="1.8934783">
						<True/>
						<Node score="19.219082">
							<SimplePredicate field="float(x8)" operator="greaterOrEqual" value="8.5"/>
							<Node score="22.682737">
								<SimplePredicate field="timeslot" operator="equal" value="Evening"/>
								<Node score="18.066414">
									<SimplePredicate field="float(x5)" operator="greaterOrEqual" value="5.5"/>
									<Node score="7.8204446">
										<SimplePredicate field="float(x8)" operator="greaterOrEqual" value="20.5"/>
										<Node score="18.989285">
											<SimplePredicate field="float(x7)" operator="greaterOrEqual" value="1.5"/>
										</Node>
									</Node>
									<Node score="26.145702">
										<SimplePredicate field="float(x7)" operator="greaterOrEqual" value="1.5"/>
										<Node score="21.135338">
											<SimplePredicate field="float(x1)" operator="greaterOrEqual" value="22.5"/>
										</Node>
									</Node>
								</Node>
								<Node score="30.400043">
									<SimplePredicate field="float(x5)" operator="greaterOrEqual" value="1.5"/>
									<Node score="39.91369">
										<SimplePredicate field="float(x8)" operator="greaterOrEqual" value="17.5"/>
										<Node score="32.92694">
											<SimplePredicate field="float(x8)" operator="greaterOrEqual" value="19.5"/>
										</Node>
									</Node>
									<Node score="2.6473894">
										<SimplePredicate field="float(x4)" operator="greaterOrEqual" value="7.6499996"/>
									</Node>
								</Node>
								<Node score="31.888083">
									<SimplePredicate field="float(x7)" operator="greaterOrEqual" value="1.5"/>
									<Node score="26.84835">
										<SimplePredicate field="float(x8)" operator="greaterOrEqual" value="19.5"/>
									</Node>
								</Node>
								<Node score="12.851066">
									<SimplePredicate field="float(x8)" operator="greaterOrEqual" value="19.5"/>
								</Node>
							</Node>
							<Node score="17.820938">
								<SimplePredicate field="float(x8)" operator="greaterOrEqual" value="10.5"/>
								<Node score="25.30697">
									<SimplePredicate field="float(x5)" operator="greaterOrEqual" value="1.5"/>
									<Node score="22.327377">
										<SimplePredicate field="float(x5)" operator="greaterOrEqual" value="5.5"/>
										<Node score="9.555724">
											<SimplePredicate field="float(x8)" operator="greaterOrEqual" value="22.5"/>
										</Node>
									</Node>
									<Node score="31.579311">
										<SimplePredicate field="timeslot" operator="equal" value="Late Night"/>
									</Node>
								</Node>
								<Node score="3.943453">
									<SimplePredicate field="float(x8)" operator="greaterOrEqual" value="22.5"/>
									<Node score="13.095682">
										<SimplePredicate field="float(x7)" operator="greaterOrEqual" value="1.5"/>
									</Node>
								</Node>
								<Node score="22.460442">
									<SimplePredicate field="float(x7)" operator="greaterOrEqual" value="1.5"/>
								</Node>
							</Node>
							<Node score="6.8123345">
								<SimplePredicate field="float(x5)" operator="greaterOrEqual" value="4.5"/>
								<Node score="10.440273">
									<SimplePredicate field="float(x8)" operator="greaterOrEqual" value="9.5"/>
									<Node score="18.056337">
										<SimplePredicate field="float(x7)" operator="greaterOrEqual" value="1.5"/>
									</Node>
								</Node>
								<Node score="11.586295">
									<SimplePredicate field="float(x7)" operator="greaterOrEqual" value="2.5"/>
								</Node>
							</Node>
							<Node score="21.479557">
								<SimplePredicate field="float(x5)" operator="greaterOrEqual" value="0.5"/>
							</Node>
							<Node score="11.948895">
								<SimplePredicate field="float(x1)" operator="greaterOrEqual" value="25.3"/>
							</Node>
						</Node>
						<Node score="5.4023266">
							<SimplePredicate field="float(x8)" operator="greaterOrEqual" value="0.5"/>
							<Node score="12.35413">
								<SimplePredicate field="float(x8)" operator="greaterOrEqual" value="6.5"/>
								<Node score="5.8194065">
									<SimplePredicate field="float(x5)" operator="greaterOrEqual" value="4.5"/>
									<Node score="3.981797">
										<SimplePredicate field="float(x8)" operator="greaterOrEqual" value="7.5"/>
										<Node score="8.200348">
											<SimplePredicate field="float(x7)" operator="greaterOrEqual" value="1.5"/>
										</Node>
									</Node>
									<Node score="4.295148">
										<SimplePredicate field="float(x5)" operator="greaterOrEqual" value="5.5"/>
									</Node>
								</Node>
								<Node score="18.963373">
									<SimplePredicate field="float(x8)" operator="greaterOrEqual" value="7.5"/>
									<Node score="0.0">
										<SimplePredicate field="float(x7)" operator="greaterOrEqual" value="11.5"/>
									</Node>
								</Node>
								<Node score="15.634894">
									<SimplePredicate field="float(x5)" operator="greaterOrEqual" value="0.5"/>
								</Node>
							</Node>
							<Node score="23.072758">
								<SimplePredicate field="float(x5)" operator="greaterOrEqual" value="4.5"/>
								<Node score="5.791771">
									<SimplePredicate field="float(x8)" operator="greaterOrEqual" value="3.5"/>
									<Node score="2.6994228">
										<SimplePredicate field="float(x8)" operator="greaterOrEqual" value="4.5"/>
									</Node>
								</Node>
								<Node score="13.13731">
									<SimplePredicate field="float(x8)" operator="greaterOrEqual" value="2.5"/>
								</Node>
							</Node>
							<Node score="1.8340106">
								<SimplePredicate field="timeslot" operator="equal" value="Late Night"/>
								<Node score="5.696351">
									<SimplePredicate field="float(x5)" operator="greaterOrEqual" value="3.5"/>
								</Node>
							</Node>
							<Node score="7.5405774">
								<SimplePredicate field="float(x7)" operator="greaterOrEqual" value="1.5"/>
							</Node>
						</Node>
						<Node score="13.057334">
							<SimplePredicate field="float(x5)" operator="greaterOrEqual" value="3.5"/>
							<Node score="33.347164">
								<SimplePredicate field="float(x5)" operator="greaterOrEqual" value="4.5"/>
								<Node score="16.037893">
									<SimplePredicate field="float(x2)" operator="greaterOrEqual" value="1.25"/>
									<Node score="0.2711841">
										<SimplePredicate field="float(x3)" operator="greaterOrEqual" value="7.5"/>
									</Node>
								</Node>
								<Node score="24.439152">
									<SimplePredicate field="float(x1)" operator="greaterOrEqual" value="20.3"/>
								</Node>
							</Node>
							<Node score="20.465172">
								<SimplePredicate field="float(x1)" operator="greaterOrEqual" value="10.15"/>
								<Node score="5.0025">
									<SimplePredicate field="float(x2)" operator="greaterOrEqual" value="9.625"/>
								</Node>
							</Node>
							<Node score="-0.24750024">
								<SimplePredicate field="float(x1)" operator="greaterOrEqual" value="8.2"/>
							</Node>
						</Node>
						<Node score="1.0699675">
							<SimplePredicate field="float(x5)" operator="greaterOrEqual" value="1.5"/>
							<Node score="11.303587">
								<SimplePredicate field="float(x7)" operator="greaterOrEqual" value="2.5"/>
								<Node score="-1.3300326">
									<SimplePredicate field="float(x4)" operator="greaterOrEqual" value="6.3999996"/>
								</Node>
							</Node>
							<Node score="5.1599402">
								<SimplePredicate field="float(x1)" operator="greaterOrEqual" value="-4.35"/>
							</Node>
						</Node>
						<Node score="6.3729215">
							<SimplePredicate field="float(x7)" operator="greaterOrEqual" value="1.5"/>
						</Node>
					</Node>
				</TreeModel>
			</Segment>
			<Segment id="3">
				<True/>
				<TreeModel functionName="regression" noTrueChildStrategy="returnLastPrediction" x-mathContext="float">
					<MiningSchema>
						<MiningField name="timeslot"/>
						<MiningField name="float(x1)"/>
						<MiningField name="float(x2)"/>
						<MiningField name="float(x5)"/>
						<MiningField name="float(x6)"/>
						<MiningField name="float(x7)"/>
						<MiningField name="float(x8)"/>
					</MiningSchema>
					<Node score="3.0111463">
						<True/>
						<Node score="4.398238">
							<SimplePredicate field="float(x8)" operator="greaterOrEqual" value="8.5"/>
							<Node score="3.7359712">
								<SimplePredicate field="timeslot" operator="equal" value="Evening"/>
								<Node score="17.765978">
									<SimplePredicate field="float(x5)" operator="greaterOrEqual" value="5.5"/>
									<Node score="9.185119">
										<SimplePredicate field="float(x8)" operator="greaterOrEqual" value="19.5"/>
										<Node score="15.248765">
											<SimplePredicate field="float(x7)" operator="greaterOrEqual" value="2.5"/>
											<Node score="7.32809">
												<SimplePredicate field="float(x1)" operator="greaterOrEqual" value="26.400002"/>
											</Node>
										</Node>
									</Node>
								</Node>
								<Node score="10.698233">
									<SimplePredicate field="float(x5)" operator="greaterOrEqual" value="0.5"/>
									<Node score="26.514475">
										<SimplePredicate field="float(x7)" operator="greaterOrEqual" value="1.5"/>
										<Node score="21.677708">
											<SimplePredicate field="float(x1)" operator="greaterOrEqual" value="21.400002"/>
										</Node>
									</Node>
									<Node score="19.513458">
										<SimplePredicate field="float(x6)" operator="greaterOrEqual" value="13.5"/>
									</Node>
								</Node>
								<Node score="11.2605095">
									<SimplePredicate field="float(x7)" operator="greaterOrEqual" value="1.5"/>
									<Node score="18.751682">
										<SimplePredicate field="float(x6)" operator="greaterOrEqual" value="2.5"/>
									</Node>
								</Node>
								<Node score="13.870372">
									<SimplePredicate field="float(x1)" operator="greaterOrEqual" value="-3.6"/>
								</Node>
							</Node>
							<Node score="16.774616">
								<SimplePredicate field="float(x7)" operator="greaterOrEqual" value="1.5"/>
								<Node score="9.548338">
									<SimplePredicate field="float(x7)" operator="greaterOrEqual" value="6.5"/>
									<Node score="13.767176">
										<SimplePredicate field="float(x8)" operator="greaterOrEqual" value="12.5"/>
										<Node score="17.235563">
											<SimplePredicate field="float(x5)" operator="greaterOrEqual" value="1.5"/>
										</Node>
									</Node>
									<Node score="13.487981">
										<SimplePredicate field="float(x1)" operator="greaterOrEqual" value="6.95"/>
									</Node>
								</Node>
								<Node score="12.407395">
									<SimplePredicate field="timeslot" operator="equal" value="Morning"/>
									<Node score="16.174795">
										<SimplePredicate field="float(x7)" operator="greaterOrEqual" value="2.5"/>
									</Node>
								</Node>
								<Node score="21.263987">
									<SimplePredicate field="float(x5)" operator="greaterOrEqual" value="1.5"/>
								</Node>
							</Node>
							<Node score="9.7825775">
								<SimplePredicate field="float(x6)" operator="greaterOrEqual" value="2.5"/>
								<Node score="-5.586546">
									<SimplePredicate field="float(x2)" operator="greaterOrEqual" value="1.275"/>
									<Node score="7.8232937">
										<SimplePredicate field="float(x2)" operator="greaterOrEqual" value="2.375"/>
									</Node>
								</Node>
								<Node score="13.247454">
									<SimplePredicate field="float(x6)" operator="greaterOrEqual" value="13.5"/>
								</Node>
							</Node>
							<Node score="0.27089483">
								<SimplePredicate field="timeslot" operator="equal" value="Late Night"/>
								<Node score="-4.595624">
									<SimplePredicate field="float(x1)" operator="greaterOrEqual" value="7.5"/>
								</Node>
							</Node>
							<Node score="0.85638046">
								<SimplePredicate field="float(x1)" operator="greaterOrEqual" value="11.95"/>
							</Node>
						</Node>
						<Node score="5.333934">
							<SimplePredicate field="float(x8)" operator="greaterOrEqual" value="1.5"/>
							<Node score="11.084997">
								<SimplePredicate field="float(x8)" operator="greaterOrEqual" value="6.5"/>
								<Node score="3.7314298">
									<SimplePredicate field="float(x5)" operator="greaterOrEqual" value="4.5"/>
									<Node score="6.7256665">
										<SimplePredicate field="float(x8)" operator="greaterOrEqual" value="7.5"/>
										<Node score="4.125671">
											<SimplePredicate field="float(x5)" operator="greaterOrEqual" value="5.5"/>
										</Node>
									</Node>
									<Node score="1.1011356">
										<SimplePredicate field="float(x2)" operator="greaterOrEqual" value="0.625"/>
									</Node>
								</Node>
								<Node score="13.305618">
									<SimplePredicate field="float(x8)" operator="greaterOrEqual" value="7.5"/>
									<Node score="0.0">
										<SimplePredicate field="float(x7)" operator="greaterOrEqual" value="11.5"/>
									</Node>
								</Node>
								<Node score="8.249834">
									<SimplePredicate field="float(x5)" operator="greaterOrEqual" value="3.5"/>
								</Node>
							</Node>
							<Node score="13.473337">
								<SimplePredicate field="float(x5)" operator="greaterOrEqual" value="4.5"/>
								<Node score="4.078372">
									<SimplePredicate field="float(x8)" operator="greaterOrEqual" value="3.5"/>
									<Node score="1.8947213">
										<SimplePredicate field="float(x8)" operator="greaterOrEqual" value="4.5"/>
									</Node>
								</Node>
								<Node score="9.243602">
									<SimplePredicate field="float(x8)" operator="greaterOrEqual" value="2.5"/>
								</Node>
							</Node>
							<Node score="2.3443274">
								<SimplePredicate field="timeslot" operator="equal" value="Late Night"/>
								<Node score="0.7884544">
									<SimplePredicate field="float(x8)" operator="greaterOrEqual" value="2.5"/>
								</Node>
							</Node>
							<Node score="3.715471">
								<SimplePredicate field="float(x7)" operator="greaterOrEqual" value="10.5"/>
							</Node>
						</Node>
						<Node score="6.6529865">
							<SimplePredicate field="float(x5)" operator="greaterOrEqual" value="3.5"/>
							<Node score="14.639418">
								<SimplePredicate field="float(x5)" operator="greaterOrEqual" value="4.5"/>
								<Node score="26.078503">
									<SimplePredicate field="float(x7)" operator="greaterOrEqual" value="1.5"/>
									<Node score="19.480553">
										<SimplePredicate field="float(x7)" operator="greaterOrEqual" value="4.5"/>
									</Node>
								</Node>
								<Node score="-2.6228154">
									<SimplePredicate field="float(x1)" operator="greaterOrEqual" value="10.85"/>
								</Node>
							</Node>
							<Node score="13.875234">
								<SimplePredicate field="float(x7)" operator="greaterOrEqual" value="2.5"/>
								<Node score="9.757089">
									<SimplePredicate field="float(x6)" operator="greaterOrEqual" value="24.5"/>
								</Node>
							</Node>
						</Node>
						<Node score="1.9392458">
							<SimplePredicate field="float(x5)" operator="greaterOrEqual" value="2.5"/>
							<Node score="9.119189">
								<SimplePredicate field="float(x7)" operator="greaterOrEqual" value="2.5"/>
								<Node score="5.695405">
									<SimplePredicate field="float(x8)" operator="greaterOrEqual" value="0.5"/>
								</Node>
							</Node>
							<Node score="4.114246">
								<SimplePredicate field="float(x7)" operator="greaterOrEqual" value="1.5"/>
							</Node>
						</Node>
						<Node score="0.60531396">
							<SimplePredicate field="float(x8)" operator="greaterOrEqual" value="0.5"/>
							<Node score="2.3967733">
								<SimplePredicate field="float(x1)" operator="greaterOrEqual" value="5.3"/>
							</Node>
						</Node>
						<Node score="5.337186">
							<SimplePredicate field="float(x1)" operator="greaterOrEqual" value="5.15"/>
						</Node>
					</Node>
				</TreeModel>
			</Segment>
			<Segment id="4">
				<True/>
				<TreeModel functionName="regression" noTrueChildStrategy="returnLastPrediction" x-mathContext="float">
					<MiningSchema>
						<MiningField name="timeslot"/>
						<MiningField name="float(x1)"/>
						<MiningField name="float(x2)"/>
						<MiningField name="float(x4)"/>
						<MiningField name="float(x5)"/>
						<MiningField name="float(x6)"/>
						<MiningField name="float(x7)"/>
						<MiningField name="float(x8)"/>
					</MiningSchema>
					<Node score="0.81853604">
						<True/>
						<Node score="5.5931525">
							<SimplePredicate field="float(x8)" operator="greaterOrEqual" value="8.5"/>
							<Node score="12.897931">
								<SimplePredicate field="timeslot" operator="equal" value="Evening"/>
								<Node score="8.890453">
									<SimplePredicate field="float(x5)" operator="greaterOrEqual" value="5.5"/>
									<Node score="7.4602222">
										<SimplePredicate field="float(x8)" operator="greaterOrEqual" value="18.5"/>
										<Node score="5.2091475">
											<SimplePredicate field="float(x1)" operator="greaterOrEqual" value="0.3"/>
											<Node score="11.258848">
												<SimplePredicate field="float(x7)" operator="greaterOrEqual" value="1.5"/>
											</Node>
										</Node>
										<Node score="0.96922916">
											<SimplePredicate field="float(x7)" operator="greaterOrEqual" value="7.0"/>
										</Node>
									</Node>
									<Node score="2.7158446">
										<SimplePredicate field="float(x7)" operator="greaterOrEqual" value="6.5"/>
										<Node score="10.914688">
											<SimplePredicate field="float(x1)" operator="greaterOrEqual" value="6.1000004"/>
										</Node>
									</Node>
									<Node score="15.927907">
										<SimplePredicate field="float(x7)" operator="greaterOrEqual" value="1.5"/>
									</Node>
								</Node>
								<Node score="19.023468">
									<SimplePredicate field="float(x5)" operator="greaterOrEqual" value="1.5"/>
									<Node score="15.442358">
										<SimplePredicate field="float(x5)" operator="greaterOrEqual" value="4.5"/>
										<Node score="4.595222">
											<SimplePredicate field="float(x6)" operator="greaterOrEqual" value="27.5"/>
										</Node>
									</Node>
									<Node score="11.9155">
										<SimplePredicate field="float(x7)" operator="greaterOrEqual" value="10.5"/>
									</Node>
								</Node>
								<Node score="5.4514427">
									<SimplePredicate field="float(x8)" operator="greaterOrEqual" value="19.5"/>
									<Node score="13.011055">
										<SimplePredicate field="float(x7)" operator="greaterOrEqual" value="2.5"/>
									</Node>
								</Node>
								<Node score="16.724787">
									<SimplePredicate field="float(x8)" operator="greaterOrEqual" value="17.5"/>
								</Node>
							</Node>
							<Node score="12.214249">
								<SimplePredicate field="float(x7)" operator="greaterOrEqual" value="1.5"/>
								<Node score="9.597673">
									<SimplePredicate field="float(x7)" operator="greaterOrEqual" value="6.5"/>
									<Node score="6.9067845">
										<SimplePredicate field="float(x7)" operator="greaterOrEqual" value="8.5"/>
										<Node score="12.359878">
											<SimplePredicate field="float(x1)" operator="greaterOrEqual" value="8.6"/>
										</Node>
									</Node>
									<Node score="5.5081654">
										<SimplePredicate field="float(x5)" operator="greaterOrEqual" value="5.5"/>
									</Node>
								</Node>
								<Node score="8.736874">
									<SimplePredicate field="timeslot" operator="equal" value="Morning"/>
									<Node score="11.339088">
										<SimplePredicate field="float(x7)" operator="greaterOrEqual" value="2.5"/>
									</Node>
								</Node>
								<Node score="15.384937">
									<SimplePredicate field="float(x5)" operator="greaterOrEqual" value="2.5"/>
								</Node>
							</Node>
							<Node score="-2.4216607">
								<SimplePredicate field="float(x2)" operator="greaterOrEqual" value="0.275"/>
								<Node score="6.754945">
									<SimplePredicate field="float(x1)" operator="greaterOrEqual" value="-5.0"/>
									<Node score="-1.2593727">
										<SimplePredicate field="float(x1)" operator="greaterOrEqual" value="8.05"/>
									</Node>
								</Node>
								<Node score="-9.168223">
									<SimplePredicate field="timeslot" operator="equal" value="Afternoon"/>
								</Node>
							</Node>
							<Node score="-1.4019003">
								<SimplePredicate field="float(x8)" operator="greaterOrEqual" value="22.5"/>
								<Node score="8.112732">
									<SimplePredicate field="float(x5)" operator="greaterOrEqual" value="2.5"/>
								</Node>
							</Node>
							<Node score="9.76464">
								<SimplePredicate field="float(x6)" operator="greaterOrEqual" value="7.5"/>
							</Node>
						</Node>
						<Node score="2.7032673">
							<SimplePredicate field="float(x8)" operator="greaterOrEqual" value="1.5"/>
							<Node score="2.0429456">
								<SimplePredicate field="float(x8)" operator="greaterOrEqual" value="6.5"/>
								<Node score="0.6693592">
									<SimplePredicate field="float(x5)" operator="greaterOrEqual" value="4.5"/>
									<Node score="0.98573244">
										<SimplePredicate field="float(x5)" operator="greaterOrEqual" value="5.5"/>
										<Node score="2.6071239">
											<SimplePredicate field="float(x1)" operator="greaterOrEqual" value="-4.7"/>
										</Node>
									</Node>
									<Node score="4.1195316">
										<SimplePredicate field="float(x1)" operator="greaterOrEqual" value="-7.5"/>
									</Node>
								</Node>
								<Node score="9.628938">
									<SimplePredicate field="float(x5)" operator="greaterOrEqual" value="0.5"/>
									<Node score="7.3471074">
										<SimplePredicate field="float(x7)" operator="greaterOrEqual" value="7.5"/>
									</Node>
								</Node>
								<Node score="6.9995284">
									<SimplePredicate field="float(x6)" operator="greaterOrEqual" value="5.5"/>
								</Node>
							</Node>
							<Node score="2.3476496">
								<SimplePredicate field="float(x5)" operator="greaterOrEqual" value="4.5"/>
								<Node score="2.8718538">
									<SimplePredicate field="float(x8)" operator="greaterOrEqual" value="3.5"/>
									<Node score="1.3299025">
										<SimplePredicate field="float(x8)" operator="greaterOrEqual" value="4.5"/>
									</Node>
								</Node>
								<Node score="8.652131">
									<SimplePredicate field="float(x7)" operator="greaterOrEqual" value="1.5"/>
								</Node>
							</Node>
							<Node score="0.39156538">
								<SimplePredicate field="timeslot" operator="equal" value="Late Night"/>
								<Node score="1.4758314">
									<SimplePredicate field="float(x5)" operator="greaterOrEqual" value="2.5"/>
								</Node>
							</Node>
							<Node score="3.8533132">
								<SimplePredicate field="float(x5)" operator="greaterOrEqual" value="0.5"/>
							</Node>
						</Node>
						<Node score="1.1635214">
							<SimplePredicate field="float(x5)" operator="greaterOrEqual" value="3.5"/>
							<Node score="10.870135">
								<SimplePredicate field="float(x5)" operator="greaterOrEqual" value="4.5"/>
								<Node score="16.56369">
									<SimplePredicate field="float(x7)" operator="greaterOrEqual" value="1.5"/>
									<Node score="11.255623">
										<SimplePredicate field="float(x1)" operator="greaterOrEqual" value="20.3"/>
									</Node>
								</Node>
								<Node score="-0.40401036">
									<SimplePredicate field="float(x2)" operator="greaterOrEqual" value="0.5"/>
								</Node>
							</Node>
							<Node score="10.225318">
								<SimplePredicate field="float(x1)" operator="greaterOrEqual" value="4.85"/>
								<Node score="6.6129904">
									<SimplePredicate field="float(x1)" operator="greaterOrEqual" value="20.85"/>
								</Node>
							</Node>
							<Node score="5.2702885">
								<SimplePredicate field="float(x6)" operator="greaterOrEqual" value="10.5"/>
							</Node>
						</Node>
						<Node score="3.4978626">
							<SimplePredicate field="float(x5)" operator="greaterOrEqual" value="2.5"/>
							<Node score="7.392578">
								<SimplePredicate field="float(x1)" operator="greaterOrEqual" value="11.8"/>
								<Node score="4.0824366">
									<SimplePredicate field="float(x8)" operator="greaterOrEqual" value="0.5"/>
								</Node>
							</Node>
							<Node score="-2.4984062">
								<SimplePredicate field="float(x4)" operator="greaterOrEqual" value="6.3999996"/>
							</Node>
						</Node>
						<Node score="-0.48486108">
							<SimplePredicate field="float(x8)" operator="greaterOrEqual" value="0.5"/>
							<Node score="1.5798975">
								<SimplePredicate field="float(x7)" operator="greaterOrEqual" value="1.5"/>
							</Node>
						</Node>
						<Node score="3.6094046">
							<SimplePredicate field="float(x7)" operator="greaterOrEqual" value="1.5"/>
						</Node>
					</Node>
				</TreeModel>
			</Segment>
			<Segment id="5">
				<True/>
				<TreeModel functionName="regression" noTrueChildStrategy="returnLastPrediction" x-mathContext="float">
					<MiningSchema>
						<MiningField name="timeslot"/>
						<MiningField name="float(x1)"/>
						<MiningField name="float(x2)"/>
						<MiningField name="float(x3)"/>
						<MiningField name="float(x4)"/>
						<MiningField name="float(x5)"/>
						<MiningField name="float(x6)"/>
						<MiningField name="float(x7)"/>
						<MiningField name="float(x8)"/>
					</MiningSchema>
					<Node score="1.8866068">
						<True/>
						<Node score="7.2719126">
							<SimplePredicate field="float(x8)" operator="greaterOrEqual" value="10.5"/>
							<Node score="0.41473642">
								<SimplePredicate field="timeslot" operator="equal" value="Evening"/>
								<Node score="14.638728">
									<SimplePredicate field="float(x7)" operator="greaterOrEqual" value="1.5"/>
									<Node score="6.3329077">
										<SimplePredicate field="float(x1)" operator="greaterOrEqual" value="20.3"/>
										<Node score="10.859251">
											<SimplePredicate field="float(x6)" operator="greaterOrEqual" value="3.5"/>
											<Node score="8.375138">
												<SimplePredicate field="float(x8)" operator="greaterOrEqual" value="19.5"/>
											</Node>
										</Node>
										<Node score="-2.4185133">
											<SimplePredicate field="float(x5)" operator="greaterOrEqual" value="4.5"/>
										</Node>
									</Node>
									<Node score="15.010022">
										<SimplePredicate field="float(x7)" operator="greaterOrEqual" value="10.5"/>
										<Node score="4.7346377">
											<SimplePredicate field="float(x6)" operator="greaterOrEqual" value="13.5"/>
										</Node>
									</Node>
									<Node score="11.104933">
										<SimplePredicate field="float(x8)" operator="greaterOrEqual" value="19.5"/>
									</Node>
								</Node>
								<Node score="-4.475947">
									<SimplePredicate field="float(x6)" operator="greaterOrEqual" value="19.5"/>
									<Node score="14.406674">
										<SimplePredicate field="float(x1)" operator="greaterOrEqual" value="-6.95"/>
										<Node score="7.729983">
											<SimplePredicate field="float(x8)" operator="greaterOrEqual" value="19.5"/>
										</Node>
									</Node>
									<Node score="-1.3774705">
										<SimplePredicate field="float(x4)" operator="greaterOrEqual" value="6.45"/>
									</Node>
								</Node>
								<Node score="2.1185868">
									<SimplePredicate field="float(x8)" operator="greaterOrEqual" value="19.5"/>
									<Node score="-2.2209504">
										<SimplePredicate field="float(x1)" operator="greaterOrEqual" value="3.6"/>
									</Node>
								</Node>
								<Node score="7.543046">
									<SimplePredicate field="float(x6)" operator="greaterOrEqual" value="3.5"/>
								</Node>
							</Node>
							<Node score="6.282911">
								<SimplePredicate field="float(x5)" operator="greaterOrEqual" value="5.5"/>
								<Node score="7.890761">
									<SimplePredicate field="timeslot" operator="equal" value="Late Night"/>
									<Node score="-2.42656">
										<SimplePredicate field="float(x8)" operator="greaterOrEqual" value="22.5"/>
										<Node score="0.73795396">
											<SimplePredicate field="float(x1)" operator="greaterOrEqual" value="23.599998"/>
										</Node>
									</Node>
									<Node score="1.6347619">
										<SimplePredicate field="float(x1)" operator="greaterOrEqual" value="-2.5"/>
									</Node>
								</Node>
								<Node score="0.55426127">
									<SimplePredicate field="float(x1)" operator="greaterOrEqual" value="23.599998"/>
									<Node score="5.9211974">
										<SimplePredicate field="float(x6)" operator="greaterOrEqual" value="4.5"/>
									</Node>
								</Node>
								<Node score="9.564217">
									<SimplePredicate field="float(x7)" operator="greaterOrEqual" value="2.5"/>
								</Node>
							</Node>
							<Node score="7.4284253">
								<SimplePredicate field="float(x5)" operator="greaterOrEqual" value="3.5"/>
								<Node score="7.575839">
									<SimplePredicate field="timeslot" operator="equal" value="Late Night"/>
									<Node score="18.002682">
										<SimplePredicate field="float(x6)" operator="greaterOrEqual" value="2.5"/>
									</Node>
								</Node>
								<Node score="10.791358">
									<SimplePredicate field="float(x5)" operator="greaterOrEqual" value="4.5"/>
								</Node>
							</Node>
							<Node score="1.3422358">
								<SimplePredicate field="float(x8)" operator="greaterOrEqual" value="22.5"/>
								<Node score="8.083229">
									<SimplePredicate field="float(x5)" operator="greaterOrEqual" value="2.5"/>
								</Node>
							</Node>
							<Node score="9.989819">
								<SimplePredicate field="float(x8)" operator="greaterOrEqual" value="14.5"/>
							</Node>
						</Node>
						<Node score="-4.197621">
							<SimplePredicate field="float(x8)" operator="greaterOrEqual" value="7.5"/>
							<Node score="0.8603099">
								<SimplePredicate field="float(x5)" operator="greaterOrEqual" value="4.5"/>
								<Node score="-2.0584114">
									<SimplePredicate field="float(x8)" operator="greaterOrEqual" value="9.5"/>
									<Node score="6.3528395">
										<SimplePredicate field="float(x3)" operator="greaterOrEqual" value="1.5"/>
										<Node score="4.1524315">
											<SimplePredicate field="float(x5)" operator="greaterOrEqual" value="5.5"/>
										</Node>
									</Node>
									<Node score="1.5968491">
										<SimplePredicate field="float(x1)" operator="greaterOrEqual" value="-4.7"/>
									</Node>
								</Node>
								<Node score="0.28743616">
									<SimplePredicate field="float(x8)" operator="greaterOrEqual" value="8.5"/>
									<Node score="3.1719635">
										<SimplePredicate field="float(x2)" operator="greaterOrEqual" value="0.375"/>
									</Node>
								</Node>
								<Node score="3.1837318">
									<SimplePredicate field="float(x7)" operator="greaterOrEqual" value="1.5"/>
								</Node>
							</Node>
							<Node score="8.136019">
								<SimplePredicate field="float(x5)" operator="greaterOrEqual" value="0.5"/>
								<Node score="6.1847568">
									<SimplePredicate field="float(x5)" operator="greaterOrEqual" value="3.5"/>
									<Node score="1.4046296">
										<SimplePredicate field="float(x7)" operator="greaterOrEqual" value="10.5"/>
									</Node>
								</Node>
								<Node score="-1.1020662">
									<SimplePredicate field="float(x7)" operator="greaterOrEqual" value="11.5"/>
								</Node>
							</Node>
							<Node score="4.7054343">
								<SimplePredicate field="float(x6)" operator="greaterOrEqual" value="29.5"/>
								<Node score="-5.848913">
									<SimplePredicate field="float(x1)" operator="greaterOrEqual" value="18.35"/>
								</Node>
							</Node>
							<Node score="5.9862514">
								<SimplePredicate field="float(x4)" operator="greaterOrEqual" value="0.6"/>
							</Node>
						</Node>
						<Node score="2.5582433">
							<SimplePredicate field="float(x8)" operator="greaterOrEqual" value="1.5"/>
							<Node score="3.68544">
								<SimplePredicate field="float(x8)" operator="greaterOrEqual" value="6.5"/>
								<Node score="3.2795532">
									<SimplePredicate field="float(x5)" operator="greaterOrEqual" value="3.5"/>
									<Node score="1.6258336">
										<SimplePredicate field="float(x5)" operator="greaterOrEqual" value="4.5"/>
									</Node>
								</Node>
								<Node score="5.884414">
									<SimplePredicate field="float(x5)" operator="greaterOrEqual" value="0.5"/>
								</Node>
							</Node>
							<Node score="5.618492">
								<SimplePredicate field="float(x5)" operator="greaterOrEqual" value="4.5"/>
								<Node score="1.2798654">
									<SimplePredicate field="float(x8)" operator="greaterOrEqual" value="3.5"/>
								</Node>
							</Node>
							<Node score="0.5777888">
								<SimplePredicate field="timeslot" operator="equal" value="Late Night"/>
							</Node>
						</Node>
						<Node score="3.8130896">
							<SimplePredicate field="float(x5)" operator="greaterOrEqual" value="3.5"/>
							<Node score="1.1312119">
								<SimplePredicate field="float(x5)" operator="greaterOrEqual" value="4.5"/>
								<Node score="10.418314">
									<SimplePredicate field="float(x1)" operator="greaterOrEqual" value="-9.55"/>
								</Node>
							</Node>
							<Node score="6.9521766">
								<SimplePredicate field="float(x1)" operator="greaterOrEqual" value="10.3"/>
							</Node>
						</Node>
						<Node score="1.2626871">
							<SimplePredicate field="float(x5)" operator="greaterOrEqual" value="1.5"/>
							<Node score="3.4694178">
								<SimplePredicate field="float(x6)" operator="greaterOrEqual" value="7.5"/>
							</Node>
						</Node>
						<Node score="0.62328184">
							<SimplePredicate field="float(x8)" operator="greaterOrEqual" value="0.5"/>
						</Node>
					</Node>
				</TreeModel>
			</Segment>
			<Segment id="6">
				<True/>
				<TreeModel functionName="regression" noTrueChildStrategy="returnLastPrediction" x-mathContext="float">
					<MiningSchema>
						<MiningField name="timeslot"/>
						<MiningField name="float(x1)"/>
						<MiningField name="float(x2)"/>
						<MiningField name="float(x5)"/>
						<MiningField name="float(x6)"/>
						<MiningField name="float(x7)"/>
						<MiningField name="float(x8)"/>
					</MiningSchema>
					<Node score="0.6108631">
						<True/>
						<Node score="4.236472">
							<SimplePredicate field="float(x8)" operator="greaterOrEqual" value="10.5"/>
							<Node score="3.6817868">
								<SimplePredicate field="float(x5)" operator="greaterOrEqual" value="0.5"/>
								<Node score="6.257468">
									<SimplePredicate field="float(x5)" operator="greaterOrEqual" value="5.5"/>
									<Node score="6.3126087">
										<SimplePredicate field="timeslot" operator="equal" value="Late Night"/>
										<Node score="-2.364559">
											<SimplePredicate field="float(x8)" operator="greaterOrEqual" value="22.5"/>
											<Node score="-0.17189015">
												<SimplePredicate field="float(x1)" operator="greaterOrEqual" value="13.6"/>
											</Node>
										</Node>
										<Node score="1.1575873">
											<SimplePredicate field="float(x1)" operator="greaterOrEqual" value="-2.5"/>
										</Node>
									</Node>
									<Node score="1.054184">
										<SimplePredicate field="float(x1)" operator="greaterOrEqual" value="23.599998"/>
										<Node score="4.403653">
											<SimplePredicate field="float(x6)" operator="greaterOrEqual" value="4.5"/>
										</Node>
									</Node>
									<Node score="4.3836412">
										<SimplePredicate field="float(x8)" operator="greaterOrEqual" value="18.5"/>
									</Node>
								</Node>
								<Node score="8.23391">
									<SimplePredicate field="float(x8)" operator="greaterOrEqual" value="17.5"/>
									<Node score="11.598317">
										<SimplePredicate field="float(x5)" operator="greaterOrEqual" value="2.5"/>
										<Node score="7.8052516">
											<SimplePredicate field="float(x1)" operator="greaterOrEqual" value="21.400002"/>
										</Node>
									</Node>
									<Node score="1.0129076">
										<SimplePredicate field="float(x8)" operator="greaterOrEqual" value="22.5"/>
									</Node>
								</Node>
								<Node score="1.2457945">
									<SimplePredicate field="float(x7)" operator="greaterOrEqual" value="6.5"/>
									<Node score="5.2855377">
										<SimplePredicate field="float(x1)" operator="greaterOrEqual" value="9.7"/>
									</Node>
								</Node>
								<Node score="7.63124">
									<SimplePredicate field="float(x7)" operator="greaterOrEqual" value="1.5"/>
								</Node>
							</Node>
							<Node score="2.2987115">
								<SimplePredicate field="timeslot" operator="equal" value="Late Night"/>
								<Node score="0.16710702">
									<SimplePredicate field="float(x7)" operator="greaterOrEqual" value="4.5"/>
									<Node score="3.1507633">
										<SimplePredicate field="float(x6)" operator="greaterOrEqual" value="5.5"/>
										<Node score="0.15442228">
											<SimplePredicate field="float(x1)" operator="greaterOrEqual" value="24.15"/>
										</Node>
									</Node>
									<Node score="-2.1652043">
										<SimplePredicate field="float(x6)" operator="greaterOrEqual" value="1.5"/>
									</Node>
								</Node>
								<Node score="0.3539459">
									<SimplePredicate field="float(x6)" operator="greaterOrEqual" value="5.5"/>
									<Node score="-2.7229886">
										<SimplePredicate field="float(x1)" operator="greaterOrEqual" value="-3.6"/>
									</Node>
								</Node>
								<Node score="0.6104348">
									<SimplePredicate field="float(x1)" operator="greaterOrEqual" value="8.6"/>
								</Node>
							</Node>
							<Node score="8.416822">
								<SimplePredicate field="float(x8)" operator="greaterOrEqual" value="13.5"/>
								<Node score="2.3362012">
									<SimplePredicate field="float(x1)" operator="greaterOrEqual" value="1.4000001"/>
									<Node score="5.5614934">
										<SimplePredicate field="float(x7)" operator="greaterOrEqual" value="2.5"/>
									</Node>
								</Node>
								<Node score="2.723011">
									<SimplePredicate field="float(x8)" operator="greaterOrEqual" value="20.5"/>
								</Node>
							</Node>
							<Node score="0.59264475">
								<SimplePredicate field="float(x7)" operator="greaterOrEqual" value="7.5"/>
								<Node score="3.11721">
									<SimplePredicate field="float(x6)" operator="greaterOrEqual" value="20.0"/>
								</Node>
							</Node>
							<Node score="0.26328507">
								<SimplePredicate field="float(x6)" operator="greaterOrEqual" value="29.0"/>
							</Node>
						</Node>
						<Node score="4.5953574">
							<SimplePredicate field="float(x8)" operator="greaterOrEqual" value="7.5"/>
							<Node score="2.7494724">
								<SimplePredicate field="float(x5)" operator="greaterOrEqual" value="4.5"/>
								<Node score="2.6968398">
									<SimplePredicate field="float(x8)" operator="greaterOrEqual" value="9.5"/>
									<Node score="5.166662">
										<SimplePredicate field="float(x1)" operator="greaterOrEqual" value="8.05"/>
										<Node score="2.045306">
											<SimplePredicate field="float(x1)" operator="greaterOrEqual" value="23.599998"/>
										</Node>
									</Node>
									<Node score="-0.2218649">
										<SimplePredicate field="float(x6)" operator="greaterOrEqual" value="26.5"/>
									</Node>
								</Node>
								<Node score="-1.0708301">
									<SimplePredicate field="float(x8)" operator="greaterOrEqual" value="8.5"/>
									<Node score="0.881002">
										<SimplePredicate field="float(x7)" operator="greaterOrEqual" value="3.5"/>
									</Node>
								</Node>
								<Node score="1.3407738">
									<SimplePredicate field="float(x5)" operator="greaterOrEqual" value="5.5"/>
								</Node>
							</Node>
							<Node score="2.3286853">
								<SimplePredicate field="float(x7)" operator="greaterOrEqual" value="6.5"/>
								<Node score="1.9272257">
									<SimplePredicate field="float(x2)" operator="greaterOrEqual" value="0.125"/>
									<Node score="-4.8755794">
										<SimplePredicate field="float(x5)" operator="greaterOrEqual" value="2.5"/>
									</Node>
								</Node>
								<Node score="4.665368">
									<SimplePredicate field="float(x1)" operator="greaterOrEqual" value="7.5"/>
								</Node>
							</Node>
							<Node score="6.6035">
								<SimplePredicate field="float(x7)" operator="greaterOrEqual" value="1.5"/>
								<Node score="5.229062">
									<SimplePredicate field="float(x1)" operator="greaterOrEqual" value="11.4"/>
								</Node>
							</Node>
							<Node score="-2.9252322">
								<SimplePredicate field="float(x1)" operator="greaterOrEqual" value="4.45"/>
							</Node>
						</Node>
						<Node score="-0.86201966">
							<SimplePredicate field="float(x8)" operator="greaterOrEqual" value="0.5"/>
							<Node score="2.8689935">
								<SimplePredicate field="float(x8)" operator="greaterOrEqual" value="2.5"/>
								<Node score="0.1310119">
									<SimplePredicate field="timeslot" operator="equal" value="Late Night"/>
									<Node score="1.3796158">
										<SimplePredicate field="float(x5)" operator="greaterOrEqual" value="4.5"/>
									</Node>
								</Node>
								<Node score="1.3055234">
									<SimplePredicate field="float(x5)" operator="greaterOrEqual" value="3.5"/>
								</Node>
							</Node>
							<Node score="1.1910487">
								<SimplePredicate field="float(x5)" operator="greaterOrEqual" value="3.5"/>
								<Node score="5.510771">
									<SimplePredicate field="float(x7)" operator="greaterOrEqual" value="1.5"/>
								</Node>
							</Node>
							<Node score="0.78802884">
								<SimplePredicate field="float(x7)" operator="greaterOrEqual" value="1.5"/>
							</Node>
						</Node>
						<Node score="9.228873">
							<SimplePredicate field="float(x5)" operator="greaterOrEqual" value="3.5"/>
							<Node score="12.870482">
								<SimplePredicate field="float(x1)" operator="greaterOrEqual" value="20.25"/>
								<Node score="2.8028107">
									<SimplePredicate field="float(x7)" operator="greaterOrEqual" value="6.5"/>
								</Node>
							</Node>
							<Node score="3.5517147">
								<SimplePredicate field="float(x2)" operator="greaterOrEqual" value="0.125"/>
							</Node>
						</Node>
						<Node score="1.535209">
							<SimplePredicate field="float(x5)" operator="greaterOrEqual" value="1.5"/>
							<Node score="3.6868968">
								<SimplePredicate field="float(x1)" operator="greaterOrEqual" value="8.200001"/>
							</Node>
						</Node>
						<Node score="1.8340801">
							<SimplePredicate field="float(x1)" operator="greaterOrEqual" value="12.2"/>
						</Node>
					</Node>
				</TreeModel>
			</Segment>
			<Segment id="7">
				<True/>
				<TreeModel functionName="regression" noTrueChildStrategy="returnLastPrediction" x-mathContext="float">
					<MiningSchema>
						<MiningField name="timeslot"/>
						<MiningField name="float(x1)"/>
						<MiningField name="float(x2)"/>
						<MiningField name="float(x3)"/>
						<MiningField name="float(x4)"/>
						<MiningField name="float(x5)"/>
						<MiningField name="float(x6)"/>
						<MiningField name="float(x7)"/>
						<MiningField name="float(x8)"/>
					</MiningSchema>
					<Node score="1.1303941">
						<True/>
						<Node score="1.8869746">
							<SimplePredicate field="float(x8)" operator="greaterOrEqual" value="10.5"/>
							<Node score="2.2110174">
								<SimplePredicate field="float(x7)" operator="greaterOrEqual" value="1.5"/>
								<Node score="1.7723978">
									<SimplePredicate field="float(x1)" operator="greaterOrEqual" value="21.400002"/>
									<Node score="5.7289624">
										<SimplePredicate field="float(x6)" operator="greaterOrEqual" value="3.5"/>
										<Node score="-0.7345277">
											<SimplePredicate field="float(x6)" operator="greaterOrEqual" value="28.5"/>
											<Node score="2.8099976">
												<SimplePredicate field="float(x7)" operator="greaterOrEqual" value="5.5"/>
											</Node>
										</Node>
										<Node score="3.7703652">
											<SimplePredicate field="float(x7)" operator="greaterOrEqual" value="6.5"/>
										</Node>
									</Node>
									<Node score="-4.7260165">
										<SimplePredicate field="float(x5)" operator="greaterOrEqual" value="4.5"/>
										<Node score="0.30911237">
											<SimplePredicate field="float(x5)" operator="greaterOrEqual" value="5.5"/>
										</Node>
									</Node>
									<Node score="4.7918744">
										<SimplePredicate field="float(x6)" operator="greaterOrEqual" value="2.5"/>
									</Node>
								</Node>
								<Node score="4.9239078">
									<SimplePredicate field="float(x5)" operator="greaterOrEqual" value="0.5"/>
									<Node score="4.493209">
										<SimplePredicate field="float(x5)" operator="greaterOrEqual" value="5.5"/>
										<Node score="-0.3229156">
											<SimplePredicate field="timeslot" operator="equal" value="Late Night"/>
										</Node>
									</Node>
									<Node score="7.569456">
										<SimplePredicate field="float(x8)" operator="greaterOrEqual" value="17.5"/>
									</Node>
								</Node>
								<Node score="-1.7221204">
									<SimplePredicate field="float(x8)" operator="greaterOrEqual" value="20.5"/>
									<Node score="1.7785566">
										<SimplePredicate field="float(x7)" operator="greaterOrEqual" value="3.5"/>
									</Node>
								</Node>
								<Node score="4.9554477">
									<SimplePredicate field="float(x8)" operator="greaterOrEqual" value="12.5"/>
								</Node>
							</Node>
							<Node score="1.6582148">
								<SimplePredicate field="float(x8)" operator="greaterOrEqual" value="20.5"/>
								<Node score="-0.22398205">
									<SimplePredicate field="float(x6)" operator="greaterOrEqual" value="13.5"/>
									<Node score="-8.144805">
										<SimplePredicate field="float(x4)" operator="greaterOrEqual" value="5.95"/>
										<Node score="2.0392027">
											<SimplePredicate field="float(x1)" operator="greaterOrEqual" value="-3.6"/>
										</Node>
									</Node>
									<Node score="4.419156">
										<SimplePredicate field="float(x5)" operator="greaterOrEqual" value="3.5"/>
									</Node>
								</Node>
								<Node score="-6.918115">
									<SimplePredicate field="float(x5)" operator="greaterOrEqual" value="0.5"/>
									<Node score="-1.626479">
										<SimplePredicate field="float(x5)" operator="greaterOrEqual" value="5.5"/>
									</Node>
								</Node>
								<Node score="-3.4265778">
									<SimplePredicate field="float(x1)" operator="greaterOrEqual" value="-3.6"/>
								</Node>
							</Node>
							<Node score="-1.1787369">
								<SimplePredicate field="float(x1)" operator="greaterOrEqual" value="11.95"/>
								<Node score="-0.9039868">
									<SimplePredicate field="timeslot" operator="equal" value="Morning"/>
								</Node>
								<Node score="-5.505737">
									<SimplePredicate field="float(x3)" operator="greaterOrEqual" value="6.5"/>
								</Node>
							</Node>
							<Node score="-8.173498">
								<SimplePredicate field="float(x4)" operator="greaterOrEqual" value="5.45"/>
								<Node score="1.8733146">
									<SimplePredicate field="float(x1)" operator="greaterOrEqual" value="-5.0"/>
								</Node>
							</Node>
							<Node score="5.086316">
								<SimplePredicate field="float(x8)" operator="greaterOrEqual" value="14.5"/>
							</Node>
						</Node>
						<Node score="0.8544139">
							<SimplePredicate field="float(x8)" operator="greaterOrEqual" value="6.5"/>
							<Node score="0.468472">
								<SimplePredicate field="float(x5)" operator="greaterOrEqual" value="4.5"/>
								<Node score="2.9893448">
									<SimplePredicate field="float(x8)" operator="greaterOrEqual" value="9.5"/>
									<Node score="-0.11551266">
										<SimplePredicate field="float(x6)" operator="greaterOrEqual" value="26.5"/>
										<Node score="2.2250082">
											<SimplePredicate field="float(x6)" operator="greaterOrEqual" value="29.5"/>
										</Node>
									</Node>
									<Node score="-1.1855919">
										<SimplePredicate field="float(x1)" operator="greaterOrEqual" value="30.3"/>
									</Node>
								</Node>
								<Node score="2.0984368">
									<SimplePredicate field="float(x7)" operator="greaterOrEqual" value="3.5"/>
									<Node score="0.52099013">
										<SimplePredicate field="float(x7)" operator="greaterOrEqual" value="6.5"/>
									</Node>
								</Node>
								<Node score="-0.76742786">
									<SimplePredicate field="float(x8)" operator="greaterOrEqual" value="8.5"/>
								</Node>
							</Node>
							<Node score="1.7832115">
								<SimplePredicate field="float(x7)" operator="greaterOrEqual" value="6.5"/>
								<Node score="1.7229204">
									<SimplePredicate field="float(x5)" operator="greaterOrEqual" value="3.5"/>
									<Node score="-5.4503593">
										<SimplePredicate field="float(x2)" operator="greaterOrEqual" value="0.125"/>
									</Node>
								</Node>
								<Node score="3.522509">
									<SimplePredicate field="float(x5)" operator="greaterOrEqual" value="0.5"/>
								</Node>
							</Node>
							<Node score="4.6837378">
								<SimplePredicate field="float(x7)" operator="greaterOrEqual" value="1.5"/>
								<Node score="3.500432">
									<SimplePredicate field="float(x6)" operator="greaterOrEqual" value="16.5"/>
								</Node>
							</Node>
							<Node score="3.683564">
								<SimplePredicate field="float(x6)" operator="greaterOrEqual" value="17.5"/>
							</Node>
						</Node>
						<Node score="5.68413">
							<SimplePredicate field="float(x8)" operator="greaterOrEqual" value="2.5"/>
							<Node score="-0.31837866">
								<SimplePredicate field="float(x7)" operator="greaterOrEqual" value="1.5"/>
								<Node score="1.9609729">
									<SimplePredicate field="float(x5)" operator="greaterOrEqual" value="4.5"/>
									<Node score="0.29392043">
										<SimplePredicate field="float(x8)" operator="greaterOrEqual" value="4.5"/>
									</Node>
								</Node>
								<Node score="1.1251069">
									<SimplePredicate field="float(x8)" operator="greaterOrEqual" value="4.5"/>
								</Node>
							</Node>
							<Node score="-0.44567397">
								<SimplePredicate field="float(x6)" operator="greaterOrEqual" value="1.5"/>
								<Node score="-2.9180698">
									<SimplePredicate field="float(x2)" operator="greaterOrEqual" value="1.125"/>
								</Node>
							</Node>
							<Node score="0.07152644">
								<SimplePredicate field="float(x8)" operator="greaterOrEqual" value="4.5"/>
							</Node>
						</Node>
						<Node score="6.793913">
							<SimplePredicate field="float(x5)" operator="greaterOrEqual" value="4.5"/>
							<Node score="4.4592805">
								<SimplePredicate field="float(x6)" operator="greaterOrEqual" value="25.5"/>
								<Node score="-12.58742">
									<SimplePredicate field="float(x7)" operator="greaterOrEqual" value="10.5"/>
								</Node>
							</Node>
							<Node score="2.8067098">
								<SimplePredicate field="float(x1)" operator="greaterOrEqual" value="19.25"/>
							</Node>
						</Node>
						<Node score="1.1176035">
							<SimplePredicate field="float(x5)" operator="greaterOrEqual" value="2.5"/>
							<Node score="2.8529906">
								<SimplePredicate field="float(x1)" operator="greaterOrEqual" value="10.3"/>
							</Node>
						</Node>
						<Node score="0.20731273">
							<SimplePredicate field="float(x8)" operator="greaterOrEqual" value="0.5"/>
						</Node>
					</Node>
				</TreeModel>
			</Segment>
			<Segment id="8">
				<True/>
				<TreeModel functionName="regression" noTrueChildStrategy="returnLastPrediction" x-mathContext="float">
					<MiningSchema>
						<MiningField name="timeslot"/>
						<MiningField name="float(x1)"/>
						<MiningField name="float(x2)"/>
						<MiningField name="float(x3)"/>
						<MiningField name="float(x4)"/>
						<MiningField name="float(x5)"/>
						<MiningField name="float(x6)"/>
						<MiningField name="float(x7)"/>
						<MiningField name="float(x8)"/>
					</MiningSchema>
					<Node score="-0.61664903">
						<True/>
						<Node score="-2.526924">
							<SimplePredicate field="float(x8)" operator="greaterOrEqual" value="8.5"/>
							<Node score="3.3001294">
								<SimplePredicate field="float(x8)" operator="greaterOrEqual" value="14.5"/>
								<Node score="-0.68713504">
									<SimplePredicate field="float(x5)" operator="greaterOrEqual" value="5.5"/>
									<Node score="2.1891532">
										<SimplePredicate field="float(x8)" operator="greaterOrEqual" value="20.5"/>
										<Node score="-0.8736739">
											<SimplePredicate field="float(x8)" operator="greaterOrEqual" value="22.5"/>
											<Node score="-3.439955">
												<SimplePredicate field="float(x2)" operator="greaterOrEqual" value="0.75"/>
											</Node>
										</Node>
										<Node score="-0.5860161">
											<SimplePredicate field="float(x4)" operator="greaterOrEqual" value="2.5"/>
										</Node>
									</Node>
									<Node score="-2.3950524">
										<SimplePredicate field="float(x1)" operator="greaterOrEqual" value="28.599998"/>
										<Node score="0.47174573">
											<SimplePredicate field="float(x8)" operator="greaterOrEqual" value="15.5"/>
										</Node>
									</Node>
									<Node score="2.5818276">
										<SimplePredicate field="float(x4)" operator="greaterOrEqual" value="1.4"/>
									</Node>
								</Node>
								<Node score="2.4028754">
									<SimplePredicate field="float(x5)" operator="greaterOrEqual" value="2.5"/>
									<Node score="-3.212691">
										<SimplePredicate field="float(x7)" operator="greaterOrEqual" value="4.5"/>
										<Node score="4.6990027">
											<SimplePredicate field="float(x1)" operator="greaterOrEqual" value="9.7"/>
										</Node>
									</Node>
									<Node score="7.5266376">
										<SimplePredicate field="float(x7)" operator="greaterOrEqual" value="1.5"/>
									</Node>
								</Node>
								<Node score="-2.360354">
									<SimplePredicate field="float(x8)" operator="greaterOrEqual" value="19.5"/>
									<Node score="2.2207527">
										<SimplePredicate field="float(x7)" operator="greaterOrEqual" value="2.5"/>
									</Node>
								</Node>
								<Node score="5.1197357">
									<SimplePredicate field="float(x8)" operator="greaterOrEqual" value="17.5"/>
								</Node>
							</Node>
							<Node score="3.6700475">
								<SimplePredicate field="float(x7)" operator="greaterOrEqual" value="2.5"/>
								<Node score="1.4539757">
									<SimplePredicate field="float(x7)" operator="greaterOrEqual" value="6.5"/>
									<Node score="1.7591192">
										<SimplePredicate field="float(x7)" operator="greaterOrEqual" value="9.5"/>
										<Node score="3.9545996">
											<SimplePredicate field="float(x1)" operator="greaterOrEqual" value="12.5"/>
										</Node>
									</Node>
									<Node score="-1.831111">
										<SimplePredicate field="float(x2)" operator="greaterOrEqual" value="0.875"/>
									</Node>
								</Node>
								<Node score="3.212264">
									<SimplePredicate field="float(x1)" operator="greaterOrEqual" value="11.4"/>
									<Node score="0.93675447">
										<SimplePredicate field="float(x6)" operator="greaterOrEqual" value="27.5"/>
									</Node>
								</Node>
								<Node score="5.798525">
									<SimplePredicate field="float(x5)" operator="greaterOrEqual" value="4.5"/>
								</Node>
							</Node>
							<Node score="-0.7742818">
								<SimplePredicate field="float(x3)" operator="greaterOrEqual" value="9.0"/>
								<Node score="1.1117306">
									<SimplePredicate field="float(x6)" operator="greaterOrEqual" value="2.5"/>
									<Node score="2.384221">
										<SimplePredicate field="float(x6)" operator="greaterOrEqual" value="13.5"/>
									</Node>
								</Node>
								<Node score="-3.2633276">
									<SimplePredicate field="timeslot" operator="equal" value="Afternoon"/>
								</Node>
							</Node>
							<Node score="-1.7802311">
								<SimplePredicate field="float(x1)" operator="greaterOrEqual" value="-1.95"/>
								<Node score="1.3770223">
									<SimplePredicate field="float(x2)" operator="greaterOrEqual" value="0.125"/>
								</Node>
							</Node>
							<Node score="-8.954063">
								<SimplePredicate field="timeslot" operator="equal" value="Afternoon"/>
							</Node>
						</Node>
						<Node score="-0.07894293">
							<SimplePredicate field="float(x8)" operator="greaterOrEqual" value="0.5"/>
							<Node score="1.1360129">
								<SimplePredicate field="float(x8)" operator="greaterOrEqual" value="6.5"/>
								<Node score="-2.2287266">
									<SimplePredicate field="float(x5)" operator="greaterOrEqual" value="3.5"/>
									<Node score="1.4545639">
										<SimplePredicate field="float(x1)" operator="greaterOrEqual" value="20.85"/>
										<Node score="-0.40780455">
											<SimplePredicate field="float(x7)" operator="greaterOrEqual" value="6.5"/>
										</Node>
									</Node>
									<Node score="1.497023">
										<SimplePredicate field="float(x3)" operator="greaterOrEqual" value="1.5"/>
									</Node>
								</Node>
								<Node score="-1.9905012">
									<SimplePredicate field="float(x7)" operator="greaterOrEqual" value="4.5"/>
									<Node score="1.9467432">
										<SimplePredicate field="float(x1)" operator="greaterOrEqual" value="5.55"/>
									</Node>
								</Node>
								<Node score="3.4813592">
									<SimplePredicate field="float(x7)" operator="greaterOrEqual" value="1.5"/>
								</Node>
							</Node>
							<Node score="3.0198903">
								<SimplePredicate field="float(x5)" operator="greaterOrEqual" value="4.5"/>
								<Node score="-0.6232178">
									<SimplePredicate field="float(x8)" operator="greaterOrEqual" value="3.5"/>
									<Node score="0.43241477">
										<SimplePredicate field="float(x7)" operator="greaterOrEqual" value="1.5"/>
									</Node>
								</Node>
								<Node score="0.4358667">
									<SimplePredicate field="float(x1)" operator="greaterOrEqual" value="19.15"/>
								</Node>
							</Node>
							<Node score="0.86141497">
								<SimplePredicate field="float(x8)" operator="greaterOrEqual" value="4.5"/>
								<Node score="0.058994263">
									<SimplePredicate field="float(x5)" operator="greaterOrEqual" value="3.5"/>
								</Node>
							</Node>
							<Node score="0.94013387">
								<SimplePredicate field="float(x5)" operator="greaterOrEqual" value="3.5"/>
							</Node>
						</Node>
						<Node score="-1.6190331">
							<SimplePredicate field="float(x5)" operator="greaterOrEqual" value="4.5"/>
							<Node score="8.292325">
								<SimplePredicate field="float(x6)" operator="greaterOrEqual" value="4.5"/>
								<Node score="1.9833773">
									<SimplePredicate field="float(x4)" operator="greaterOrEqual" value="4.05"/>
									<Node score="-4.8027177">
										<SimplePredicate field="float(x6)" operator="greaterOrEqual" value="24.0"/>
									</Node>
								</Node>
								<Node score="4.9253483">
									<SimplePredicate field="float(x5)" operator="greaterOrEqual" value="5.5"/>
								</Node>
							</Node>
							<Node score="-7.326241">
								<SimplePredicate field="float(x1)" operator="greaterOrEqual" value="17.650002"/>
								<Node score="-1.1270531">
									<SimplePredicate field="float(x6)" operator="greaterOrEqual" value="3.5"/>
								</Node>
							</Node>
							<Node score="7.543918">
								<SimplePredicate field="float(x7)" operator="greaterOrEqual" value="2.5"/>
							</Node>
						</Node>
						<Node score="-2.4921618">
							<SimplePredicate field="float(x5)" operator="greaterOrEqual" value="2.5"/>
							<Node score="3.593557">
								<SimplePredicate field="float(x6)" operator="greaterOrEqual" value="8.5"/>
								<Node score="-0.00804111">
									<SimplePredicate field="float(x7)" operator="greaterOrEqual" value="10.5"/>
								</Node>
							</Node>
							<Node score="1.008066">
								<SimplePredicate field="float(x1)" operator="greaterOrEqual" value="5.45"/>
							</Node>
						</Node>
						<Node score="0.19994895">
							<SimplePredicate field="float(x2)" operator="greaterOrEqual" value="0.125"/>
							<Node score="-1.7095937">
								<SimplePredicate field="float(x4)" operator="greaterOrEqual" value="2.75"/>
							</Node>
						</Node>
						<Node score="1.1539207">
							<SimplePredicate field="float(x7)" operator="greaterOrEqual" value="1.5"/>
						</Node>
					</Node>
				</TreeModel>
			</Segment>
			<Segment id="9">
				<True/>
				<TreeModel functionName="regression" noTrueChildStrategy="returnLastPrediction" x-mathContext="float">
					<MiningSchema>
						<MiningField name="timeslot"/>
						<MiningField name="float(x1)"/>
						<MiningField name="float(x2)"/>
						<MiningField name="float(x3)"/>
						<MiningField name="float(x4)"/>
						<MiningField name="float(x5)"/>
						<MiningField name="float(x6)"/>
						<MiningField name="float(x7)"/>
						<MiningField name="float(x8)"/>
					</MiningSchema>
					<Node score="-1.0103666">
						<True/>
						<Node score="-6.055552">
							<SimplePredicate field="float(x8)" operator="greaterOrEqual" value="12.5"/>
							<Node score="-1.3379436">
								<SimplePredicate field="float(x6)" operator="greaterOrEqual" value="7.5"/>
								<Node score="5.9337063">
									<SimplePredicate field="float(x7)" operator="greaterOrEqual" value="10.5"/>
									<Node score="-1.1184497">
										<SimplePredicate field="float(x6)" operator="greaterOrEqual" value="13.5"/>
										<Node score="2.1392803">
											<SimplePredicate field="float(x6)" operator="greaterOrEqual" value="27.5"/>
											<Node score="5.8550158">
												<SimplePredicate field="float(x5)" operator="greaterOrEqual" value="0.5"/>
											</Node>
										</Node>
										<Node score="-6.280362">
											<SimplePredicate field="float(x6)" operator="greaterOrEqual" value="22.5"/>
										</Node>
									</Node>
									<Node score="-0.7516312">
										<SimplePredicate field="float(x4)" operator="greaterOrEqual" value="2.05"/>
										<Node score="4.5684657">
											<SimplePredicate field="float(x3)" operator="greaterOrEqual" value="4.0"/>
										</Node>
									</Node>
									<Node score="10.824875">
										<SimplePredicate field="float(x8)" operator="greaterOrEqual" value="20.5"/>
									</Node>
								</Node>
								<Node score="3.8479009">
									<SimplePredicate field="float(x7)" operator="greaterOrEqual" value="8.5"/>
									<Node score="0.68042386">
										<SimplePredicate field="float(x8)" operator="greaterOrEqual" value="18.5"/>
										<Node score="7.276257">
											<SimplePredicate field="float(x5)" operator="greaterOrEqual" value="0.5"/>
										</Node>
									</Node>
									<Node score="1.8954365">
										<SimplePredicate field="float(x6)" operator="greaterOrEqual" value="19.5"/>
									</Node>
								</Node>
								<Node score="1.4079556">
									<SimplePredicate field="float(x7)" operator="greaterOrEqual" value="7.5"/>
									<Node score="-1.224114">
										<SimplePredicate field="float(x8)" operator="greaterOrEqual" value="18.5"/>
									</Node>
								</Node>
								<Node score="2.9616606">
									<SimplePredicate field="float(x1)" operator="greaterOrEqual" value="-7.1"/>
								</Node>
							</Node>
							<Node score="1.9956009">
								<SimplePredicate field="float(x7)" operator="greaterOrEqual" value="1.5"/>
								<Node score="4.5652485">
									<SimplePredicate field="float(x5)" operator="greaterOrEqual" value="2.5"/>
									<Node score="-1.4805225">
										<SimplePredicate field="float(x1)" operator="greaterOrEqual" value="23.05"/>
										<Node score="1.9680098">
											<SimplePredicate field="float(x6)" operator="greaterOrEqual" value="3.5"/>
										</Node>
									</Node>
									<Node score="1.5813752">
										<SimplePredicate field="float(x2)" operator="greaterOrEqual" value="0.125"/>
									</Node>
								</Node>
								<Node score="-4.868771">
									<SimplePredicate field="float(x8)" operator="greaterOrEqual" value="22.5"/>
									<Node score="1.2059555">
										<SimplePredicate field="float(x7)" operator="greaterOrEqual" value="10.5"/>
									</Node>
								</Node>
								<Node score="0.050519235">
									<SimplePredicate field="float(x7)" operator="greaterOrEqual" value="6.5"/>
								</Node>
							</Node>
							<Node score="0.0024095536">
								<SimplePredicate field="float(x6)" operator="greaterOrEqual" value="1.5"/>
								<Node score="-0.69884515">
									<SimplePredicate field="float(x8)" operator="greaterOrEqual" value="17.5"/>
									<Node score="-3.9798524">
										<SimplePredicate field="float(x6)" operator="greaterOrEqual" value="3.5"/>
									</Node>
								</Node>
								<Node score="2.7328095">
									<SimplePredicate field="float(x2)" operator="greaterOrEqual" value="0.5"/>
								</Node>
							</Node>
						</Node>
						<Node score="2.6240578">
							<SimplePredicate field="float(x8)" operator="greaterOrEqual" value="7.5"/>
							<Node score="2.035179">
								<SimplePredicate field="float(x5)" operator="greaterOrEqual" value="0.5"/>
								<Node score="1.1360375">
									<SimplePredicate field="float(x5)" operator="greaterOrEqual" value="3.5"/>
									<Node score="0.11298442">
										<SimplePredicate field="float(x8)" operator="greaterOrEqual" value="10.5"/>
										<Node score="3.289376">
											<SimplePredicate field="float(x5)" operator="greaterOrEqual" value="4.5"/>
										</Node>
									</Node>
									<Node score="-0.07527764">
										<SimplePredicate field="float(x5)" operator="greaterOrEqual" value="5.5"/>
									</Node>
								</Node>
								<Node score="2.644048">
									<SimplePredicate field="float(x6)" operator="greaterOrEqual" value="25.5"/>
									<Node score="5.4106135">
										<SimplePredicate field="float(x7)" operator="greaterOrEqual" value="9.5"/>
									</Node>
								</Node>
								<Node score="0.75406045">
									<SimplePredicate field="timeslot" operator="equal" value="Afternoon"/>
								</Node>
							</Node>
							<Node score="-5.915866">
								<SimplePredicate field="float(x1)" operator="greaterOrEqual" value="2.25"/>
								<Node score="0.5984058">
									<SimplePredicate field="float(x7)" operator="greaterOrEqual" value="2.5"/>
									<Node score="-2.63344">
										<SimplePredicate field="float(x6)" operator="greaterOrEqual" value="29.5"/>
									</Node>
								</Node>
								<Node score="-1.6999657">
									<SimplePredicate field="float(x8)" operator="greaterOrEqual" value="10.5"/>
								</Node>
							</Node>
							<Node score="4.6079187">
								<SimplePredicate field="float(x7)" operator="greaterOrEqual" value="1.5"/>
								<Node score="1.9239703">
									<SimplePredicate field="float(x6)" operator="greaterOrEqual" value="24.5"/>
								</Node>
							</Node>
							<Node score="0.3515767">
								<SimplePredicate field="float(x8)" operator="greaterOrEqual" value="9.5"/>
							</Node>
						</Node>
						<Node score="-1.8473624">
							<SimplePredicate field="float(x8)" operator="greaterOrEqual" value="2.5"/>
							<Node score="3.4648986">
								<SimplePredicate field="timeslot" operator="equal" value="Late Night"/>
								<Node score="1.7480508">
									<SimplePredicate field="float(x7)" operator="greaterOrEqual" value="1.5"/>
									<Node score="0.088544704">
										<SimplePredicate field="float(x1)" operator="greaterOrEqual" value="-4.15"/>
									</Node>
								</Node>
								<Node score="-0.80061954">
									<SimplePredicate field="float(x6)" operator="greaterOrEqual" value="1.5"/>
								</Node>
							</Node>
							<Node score="1.2049131">
								<SimplePredicate field="float(x7)" operator="greaterOrEqual" value="1.5"/>
								<Node score="0.4790242">
									<SimplePredicate field="float(x7)" operator="greaterOrEqual" value="6.5"/>
								</Node>
							</Node>
							<Node score="0.11415067">
								<SimplePredicate field="float(x6)" operator="greaterOrEqual" value="7.5"/>
							</Node>
						</Node>
						<Node score="7.2820835">
							<SimplePredicate field="float(x5)" operator="greaterOrEqual" value="3.5"/>
							<Node score="5.6152163">
								<SimplePredicate field="float(x7)" operator="greaterOrEqual" value="1.5"/>
								<Node score="1.8758191">
									<SimplePredicate field="float(x7)" operator="greaterOrEqual" value="3.5"/>
								</Node>
							</Node>
							<Node score="-1.4728198">
								<SimplePredicate field="float(x6)" operator="greaterOrEqual" value="1.5"/>
							</Node>
						</Node>
						<Node score="2.6519504">
							<SimplePredicate field="float(x1)" operator="greaterOrEqual" value="5.55"/>
							<Node score="0.5732256">
								<SimplePredicate field="float(x4)" operator="greaterOrEqual" value="0.95000005"/>
							</Node>
						</Node>
						<Node score="0.0344685">
							<SimplePredicate field="float(x6)" operator="greaterOrEqual" value="8.5"/>
						</Node>
					</Node>
				</TreeModel>
			</Segment>
			<Segment id="10">
				<True/>
				<TreeModel functionName="regression" noTrueChildStrategy="returnLastPrediction" x-mathContext="float">
					<MiningSchema>
						<MiningField name="timeslot"/>
						<MiningField name="float(x1)"/>
						<MiningField name="float(x3)"/>
						<MiningField name="float(x4)"/>
						<MiningField name="float(x5)"/>
						<MiningField name="float(x6)"/>
						<MiningField name="float(x7)"/>
						<MiningField name="float(x8)"/>
					</MiningSchema>
					<Node score="0.60097057">
						<True/>
						<Node score="1.369254">
							<SimplePredicate field="float(x8)" operator="greaterOrEqual" value="13.5"/>
							<Node score="0.64279836">
								<SimplePredicate field="float(x5)" operator="greaterOrEqual" value="5.5"/>
								<Node score="-0.37139398">
									<SimplePredicate field="float(x8)" operator="greaterOrEqual" value="20.5"/>
									<Node score="-1.4610136">
										<SimplePredicate field="float(x8)" operator="greaterOrEqual" value="22.5"/>
										<Node score="-3.7697875">
											<SimplePredicate field="float(x6)" operator="greaterOrEqual" value="4.5"/>
											<Node score="-1.210813">
												<SimplePredicate field="float(x6)" operator="greaterOrEqual" value="11.5"/>
											</Node>
										</Node>
										<Node score="3.4169645">
											<SimplePredicate field="float(x1)" operator="greaterOrEqual" value="24.7"/>
										</Node>
									</Node>
									<Node score="0.55146563">
										<SimplePredicate field="float(x1)" operator="greaterOrEqual" value="-2.75"/>
										<Node score="-1.7964255">
											<SimplePredicate field="float(x4)" operator="greaterOrEqual" value="2.6999998"/>
										</Node>
									</Node>
									<Node score="6.6193933">
										<SimplePredicate field="float(x1)" operator="greaterOrEqual" value="-4.15"/>
									</Node>
								</Node>
								<Node score="-0.90204054">
									<SimplePredicate field="float(x1)" operator="greaterOrEqual" value="28.599998"/>
									<Node score="-2.0954998">
										<SimplePredicate field="float(x7)" operator="greaterOrEqual" value="5.5"/>
										<Node score="0.24441849">
											<SimplePredicate field="float(x6)" operator="greaterOrEqual" value="3.5"/>
										</Node>
									</Node>
									<Node score="-4.034611">
										<SimplePredicate field="timeslot" operator="equal" value="Afternoon"/>
									</Node>
								</Node>
								<Node score="1.0110644">
									<SimplePredicate field="float(x6)" operator="greaterOrEqual" value="28.5"/>
									<Node score="-1.8023063">
										<SimplePredicate field="float(x1)" operator="greaterOrEqual" value="13.6"/>
									</Node>
								</Node>
								<Node score="2.605546">
									<SimplePredicate field="float(x6)" operator="greaterOrEqual" value="20.5"/>
								</Node>
							</Node>
							<Node score="-4.4098725">
								<SimplePredicate field="float(x5)" operator="greaterOrEqual" value="2.5"/>
								<Node score="6.9630675">
									<SimplePredicate field="float(x8)" operator="greaterOrEqual" value="17.5"/>
									<Node score="3.855564">
										<SimplePredicate field="float(x8)" operator="greaterOrEqual" value="19.5"/>
										<Node score="0.9268629">
											<SimplePredicate field="timeslot" operator="equal" value="Evening"/>
										</Node>
									</Node>
									<Node score="1.2461181">
										<SimplePredicate field="float(x5)" operator="greaterOrEqual" value="4.5"/>
									</Node>
								</Node>
								<Node score="1.6249543">
									<SimplePredicate field="float(x7)" operator="greaterOrEqual" value="4.5"/>
									<Node score="-0.46126077">
										<SimplePredicate field="float(x6)" operator="greaterOrEqual" value="15.5"/>
									</Node>
								</Node>
								<Node score="3.2675505">
									<SimplePredicate field="float(x1)" operator="greaterOrEqual" value="-6.95"/>
								</Node>
							</Node>
							<Node score="-0.36146066">
								<SimplePredicate field="float(x8)" operator="greaterOrEqual" value="22.5"/>
								<Node score="0.15135594">
									<SimplePredicate field="float(x1)" operator="greaterOrEqual" value="13.6"/>
									<Node score="-4.2441325">
										<SimplePredicate field="float(x4)" operator="greaterOrEqual" value="3.4"/>
									</Node>
								</Node>
								<Node score="-4.1783247">
									<SimplePredicate field="float(x5)" operator="greaterOrEqual" value="0.5"/>
								</Node>
							</Node>
							<Node score="1.0670562">
								<SimplePredicate field="float(x6)" operator="greaterOrEqual" value="6.5"/>
								<Node score="2.523869">
									<SimplePredicate field="float(x5)" operator="greaterOrEqual" value="0.5"/>
								</Node>
							</Node>
							<Node score="-0.9466523">
								<SimplePredicate field="float(x8)" operator="greaterOrEqual" value="18.5"/>
							</Node>
						</Node>
						<Node score="-2.6677077">
							<SimplePredicate field="float(x8)" operator="greaterOrEqual" value="7.5"/>
							<Node score="1.671208">
								<SimplePredicate field="float(x7)" operator="greaterOrEqual" value="2.5"/>
								<Node score="1.6117325">
									<SimplePredicate field="float(x1)" operator="greaterOrEqual" value="20.85"/>
									<Node score="0.066475086">
										<SimplePredicate field="float(x7)" operator="greaterOrEqual" value="7.5"/>
										<Node score="2.4487936">
											<SimplePredicate field="float(x7)" operator="greaterOrEqual" value="9.5"/>
										</Node>
									</Node>
									<Node score="-0.13854678">
										<SimplePredicate field="float(x6)" operator="greaterOrEqual" value="26.5"/>
									</Node>
								</Node>
								<Node score="0.6514089">
									<SimplePredicate field="float(x5)" operator="greaterOrEqual" value="4.5"/>
									<Node score="3.9230201">
										<SimplePredicate field="float(x8)" operator="greaterOrEqual" value="10.5"/>
									</Node>
								</Node>
								<Node score="0.8455319">
									<SimplePredicate field="float(x8)" operator="greaterOrEqual" value="10.5"/>
								</Node>
							</Node>
							<Node score="-2.3181288">
								<SimplePredicate field="float(x6)" operator="greaterOrEqual" value="2.5"/>
								<Node score="-2.817737">
									<SimplePredicate field="float(x1)" operator="greaterOrEqual" value="4.15"/>
									<Node score="0.042588595">
										<SimplePredicate field="float(x5)" operator="greaterOrEqual" value="1.5"/>
									</Node>
								</Node>
								<Node score="1.0118382">
									<SimplePredicate field="float(x3)" operator="greaterOrEqual" value="1.5"/>
								</Node>
							</Node>
							<Node score="-3.734845">
								<SimplePredicate field="timeslot" operator="equal" value="Afternoon"/>
							</Node>
							<Node score="-0.6877963">
								<SimplePredicate field="float(x1)" operator="greaterOrEqual" value="2.8000002"/>
							</Node>
						</Node>
						<Node score="7.022865">
							<SimplePredicate field="float(x8)" operator="greaterOrEqual" value="0.5"/>
							<Node score="0.513455">
								<SimplePredicate field="float(x7)" operator="greaterOrEqual" value="1.5"/>
								<Node score="0.58935577">
									<SimplePredicate field="float(x6)" operator="greaterOrEqual" value="4.5"/>
									<Node score="-0.31831652">
										<SimplePredicate field="float(x7)" operator="greaterOrEqual" value="10.5"/>
									</Node>
								</Node>
								<Node score="-1.5403756">
									<SimplePredicate field="float(x1)" operator="greaterOrEqual" value="17.5"/>
								</Node>
							</Node>
							<Node score="-0.47273427">
								<SimplePredicate field="float(x6)" operator="greaterOrEqual" value="1.5"/>
								<Node score="-5.4018507">
									<SimplePredicate field="float(x1)" operator="greaterOrEqual" value="9.15"/>
								</Node>
							</Node>
							<Node score="0.020111086">
								<SimplePredicate field="float(x8)" operator="greaterOrEqual" value="4.5"/>
							</Node>
						</Node>
						<Node score="2.9696352">
							<SimplePredicate field="float(x5)" operator="greaterOrEqual" value="4.5"/>
							<Node score="3.8275375">
								<SimplePredicate field="float(x6)" operator="greaterOrEqual" value="4.5"/>
								<Node score="-1.2900851">
									<SimplePredicate field="float(x4)" operator="greaterOrEqual" value="4.6499996"/>
								</Node>
							</Node>
							<Node score="-5.3756638">
								<SimplePredicate field="float(x1)" operator="greaterOrEqual" value="17.650002"/>
							</Node>
						</Node>
						<Node score="1.0281837">
							<SimplePredicate field="float(x4)" operator="greaterOrEqual" value="0.95000005"/>
							<Node score="0.21660168">
								<SimplePredicate field="float(x7)" operator="greaterOrEqual" value="6.5"/>
							</Node>
						</Node>
						<Node score="3.8478463">
							<SimplePredicate field="float(x1)" operator="greaterOrEqual" value="16.25"/>
						</Node>
					</Node>
				</TreeModel>
			</Segment>
			<Segment id="11">
				<True/>
				<TreeModel functionName="regression" noTrueChildStrategy="returnLastPrediction" x-mathContext="float">
					<MiningSchema>
						<MiningField name="timeslot"/>
						<MiningField name="float(x1)"/>
						<MiningField name="float(x2)"/>
						<MiningField name="float(x4)"/>
						<MiningField name="float(x5)"/>
						<MiningField name="float(x6)"/>
						<MiningField name="float(x7)"/>
						<MiningField name="float(x8)"/>
					</MiningSchema>
					<Node score="-0.20134304">
						<True/>
						<Node score="1.1596768">
							<SimplePredicate field="float(x8)" operator="greaterOrEqual" value="13.5"/>
							<Node score="0.56218606">
								<SimplePredicate field="float(x5)" operator="greaterOrEqual" value="5.5"/>
								<Node score="5.6264844">
									<SimplePredicate field="float(x8)" operator="greaterOrEqual" value="20.5"/>
									<Node score="-1.6583102">
										<SimplePredicate field="float(x6)" operator="greaterOrEqual" value="20.5"/>
										<Node score="-0.5477051">
											<SimplePredicate field="float(x1)" operator="greaterOrEqual" value="25.3"/>
											<Node score="2.0847306">
												<SimplePredicate field="timeslot" operator="equal" value="Evening"/>
											</Node>
										</Node>
										<Node score="0.97289205">
											<SimplePredicate field="float(x6)" operator="greaterOrEqual" value="30.5"/>
										</Node>
									</Node>
									<Node score="-0.9061859">
										<SimplePredicate field="float(x1)" operator="greaterOrEqual" value="-2.75"/>
										<Node score="1.3676019">
											<SimplePredicate field="float(x6)" operator="greaterOrEqual" value="14.5"/>
										</Node>
									</Node>
								</Node>
								<Node score="-0.7667347">
									<SimplePredicate field="float(x1)" operator="greaterOrEqual" value="28.599998"/>
									<Node score="-1.6240128">
										<SimplePredicate field="float(x7)" operator="greaterOrEqual" value="5.5"/>
										<Node score="0.17567669">
											<SimplePredicate field="float(x6)" operator="greaterOrEqual" value="3.5"/>
										</Node>
									</Node>
									<Node score="-3.126823">
										<SimplePredicate field="timeslot" operator="equal" value="Afternoon"/>
									</Node>
								</Node>
								<Node score="-0.85304314">
									<SimplePredicate field="float(x6)" operator="greaterOrEqual" value="27.5"/>
									<Node score="1.5157775">
										<SimplePredicate field="float(x1)" operator="greaterOrEqual" value="26.95"/>
									</Node>
								</Node>
								<Node score="3.0782924">
									<SimplePredicate field="float(x6)" operator="greaterOrEqual" value="25.5"/>
								</Node>
							</Node>
							<Node score="2.8804376">
								<SimplePredicate field="float(x5)" operator="greaterOrEqual" value="3.5"/>
								<Node score="-2.0839996">
									<SimplePredicate field="float(x1)" operator="greaterOrEqual" value="18.599998"/>
									<Node score="1.8403682">
										<SimplePredicate field="float(x6)" operator="greaterOrEqual" value="2.5"/>
										<Node score="-3.105744">
											<SimplePredicate field="float(x6)" operator="greaterOrEqual" value="26.5"/>
										</Node>
									</Node>
									<Node score="-6.7428174">
										<SimplePredicate field="timeslot" operator="equal" value="Evening"/>
									</Node>
								</Node>
								<Node score="-4.8069267">
									<SimplePredicate field="float(x2)" operator="greaterOrEqual" value="0.125"/>
									<Node score="1.3367379">
										<SimplePredicate field="float(x7)" operator="greaterOrEqual" value="1.5"/>
									</Node>
								</Node>
								<Node score="6.3610873">
									<SimplePredicate field="timeslot" operator="equal" value="Late Night"/>
								</Node>
							</Node>
							<Node score="-0.90408367">
								<SimplePredicate field="float(x8)" operator="greaterOrEqual" value="22.5"/>
								<Node score="-2.5961418">
									<SimplePredicate field="float(x1)" operator="greaterOrEqual" value="13.6"/>
									<Node score="0.43065876">
										<SimplePredicate field="float(x6)" operator="greaterOrEqual" value="7.5"/>
									</Node>
								</Node>
								<Node score="-4.4981585">
									<SimplePredicate field="float(x5)" operator="greaterOrEqual" value="1.5"/>
								</Node>
							</Node>
							<Node score="0.89500946">
								<SimplePredicate field="float(x7)" operator="greaterOrEqual" value="2.5"/>
								<Node score="2.1821578">
									<SimplePredicate field="float(x8)" operator="greaterOrEqual" value="17.5"/>
								</Node>
							</Node>
							<Node score="-2.655161">
								<SimplePredicate field="float(x8)" operator="greaterOrEqual" value="19.5"/>
							</Node>
						</Node>
						<Node score="0.93310535">
							<SimplePredicate field="float(x8)" operator="greaterOrEqual" value="6.5"/>
							<Node score="1.032829">
								<SimplePredicate field="float(x5)" operator="greaterOrEqual" value="0.5"/>
								<Node score="0.28694978">
									<SimplePredicate field="float(x5)" operator="greaterOrEqual" value="3.5"/>
									<Node score="-0.34831673">
										<SimplePredicate field="float(x8)" operator="greaterOrEqual" value="9.5"/>
										<Node score="1.6027725">
											<SimplePredicate field="float(x5)" operator="greaterOrEqual" value="4.5"/>
										</Node>
									</Node>
									<Node score="-0.7075773">
										<SimplePredicate field="float(x1)" operator="greaterOrEqual" value="21.400002"/>
									</Node>
								</Node>
								<Node score="3.1032152">
									<SimplePredicate field="float(x6)" operator="greaterOrEqual" value="25.5"/>
									<Node score="1.5506784">
										<SimplePredicate field="float(x1)" operator="greaterOrEqual" value="11.4"/>
									</Node>
								</Node>
								<Node score="-0.24431315">
									<SimplePredicate field="float(x6)" operator="greaterOrEqual" value="23.5"/>
								</Node>
							</Node>
							<Node score="1.0390681">
								<SimplePredicate field="float(x1)" operator="greaterOrEqual" value="3.05"/>
								<Node score="0.09557083">
									<SimplePredicate field="float(x1)" operator="greaterOrEqual" value="6.3999996"/>
									<Node score="-2.5440528">
										<SimplePredicate field="float(x6)" operator="greaterOrEqual" value="29.5"/>
									</Node>
								</Node>
								<Node score="-3.3151739">
									<SimplePredicate field="float(x6)" operator="greaterOrEqual" value="12.5"/>
								</Node>
							</Node>
							<Node score="-1.3681687">
								<SimplePredicate field="float(x7)" operator="greaterOrEqual" value="1.5"/>
								<Node score="2.6714852">
									<SimplePredicate field="float(x4)" operator="greaterOrEqual" value="1.8"/>
								</Node>
							</Node>
							<Node score="-0.77590716">
								<SimplePredicate field="float(x2)" operator="greaterOrEqual" value="0.125"/>
							</Node>
						</Node>
						<Node score="-0.36993623">
							<SimplePredicate field="float(x8)" operator="greaterOrEqual" value="2.5"/>
							<Node score="0.5687376">
								<SimplePredicate field="float(x5)" operator="greaterOrEqual" value="1.5"/>
								<Node score="0.07817287">
									<SimplePredicate field="timeslot" operator="equal" value="Late Night"/>
									<Node score="-0.78622514">
										<SimplePredicate field="float(x2)" operator="greaterOrEqual" value="0.875"/>
									</Node>
								</Node>
								<Node score="-0.85010564">
									<SimplePredicate field="float(x7)" operator="greaterOrEqual" value="10.5"/>
								</Node>
							</Node>
							<Node score="-0.22903736">
								<SimplePredicate field="float(x8)" operator="greaterOrEqual" value="4.5"/>
								<Node score="0.45331883">
									<SimplePredicate field="timeslot" operator="equal" value="Late Night"/>
								</Node>
							</Node>
							<Node score="-0.7909593">
								<SimplePredicate field="float(x5)" operator="greaterOrEqual" value="0.5"/>
							</Node>
						</Node>
						<Node score="0.9236209">
							<SimplePredicate field="float(x5)" operator="greaterOrEqual" value="3.5"/>
							<Node score="-6.558248">
								<SimplePredicate field="float(x7)" operator="greaterOrEqual" value="10.5"/>
								<Node score="6.945035">
									<SimplePredicate field="float(x1)" operator="greaterOrEqual" value="12.5"/>
								</Node>
							</Node>
							<Node score="6.7284746">
								<SimplePredicate field="float(x7)" operator="greaterOrEqual" value="9.5"/>
							</Node>
						</Node>
						<Node score="-0.32381">
							<SimplePredicate field="float(x5)" operator="greaterOrEqual" value="1.5"/>
							<Node score="0.66587514">
								<SimplePredicate field="float(x6)" operator="greaterOrEqual" value="7.5"/>
							</Node>
						</Node>
						<Node score="1.1625978">
							<SimplePredicate field="float(x6)" operator="greaterOrEqual" value="29.5"/>
						</Node>
					</Node>
				</TreeModel>
			</Segment>
			<Segment id="12">
				<True/>
				<TreeModel functionName="regression" noTrueChildStrategy="returnLastPrediction" x-mathContext="float">
					<MiningSchema>
						<MiningField name="timeslot"/>
						<MiningField name="float(x1)"/>
						<MiningField name="float(x2)"/>
						<MiningField name="float(x4)"/>
						<MiningField name="float(x5)"/>
						<MiningField name="float(x6)"/>
						<MiningField name="float(x7)"/>
						<MiningField name="float(x8)"/>
					</MiningSchema>
					<Node score="-0.3329095">
						<True/>
						<Node score="7.33678">
							<SimplePredicate field="float(x8)" operator="greaterOrEqual" value="17.5"/>
							<Node score="-2.021194">
								<SimplePredicate field="float(x8)" operator="greaterOrEqual" value="19.5"/>
								<Node score="5.4220457">
									<SimplePredicate field="float(x7)" operator="greaterOrEqual" value="8.5"/>
									<Node score="-3.843855">
										<SimplePredicate field="float(x1)" operator="greaterOrEqual" value="9.7"/>
										<Node score="4.025443">
											<SimplePredicate field="float(x5)" operator="greaterOrEqual" value="1.5"/>
											<Node score="-0.25074786">
												<SimplePredicate field="float(x5)" operator="greaterOrEqual" value="5.5"/>
											</Node>
										</Node>
										<Node score="1.498283">
											<SimplePredicate field="float(x6)" operator="greaterOrEqual" value="6.5"/>
										</Node>
									</Node>
									<Node score="-0.100862585">
										<SimplePredicate field="float(x7)" operator="greaterOrEqual" value="10.5"/>
										<Node score="-8.2202015">
											<SimplePredicate field="float(x1)" operator="greaterOrEqual" value="7.75"/>
										</Node>
									</Node>
									<Node score="-0.2993972">
										<SimplePredicate field="float(x4)" operator="greaterOrEqual" value="3.35"/>
									</Node>
								</Node>
								<Node score="-0.6825451">
									<SimplePredicate field="float(x7)" operator="greaterOrEqual" value="2.5"/>
									<Node score="0.07770726">
										<SimplePredicate field="float(x7)" operator="greaterOrEqual" value="7.5"/>
										<Node score="-2.557725">
											<SimplePredicate field="timeslot" operator="equal" value="Evening"/>
										</Node>
									</Node>
									<Node score="1.0098741">
